3312 128
390 -0.289818 -0.277755 0.256494 0.350199 0.124196 0.620527 0.112774 -0.177882 1.077737 -0.275087 0.335519 -0.561973 -0.301339 0.169929 -0.008026 0.206107 0.092937 0.292470 -0.159081 -0.336323 0.115720 0.273065 0.012951 -0.019971 0.182868 0.121734 -0.212496 -0.101459 -0.173469 -0.157112 0.040953 -0.113607 0.207263 -0.604078 -0.029400 -0.102988 -0.157084 -0.418904 -0.070279 -0.034903 -0.023964 0.229649 -0.264589 0.613469 0.295431 0.276433 0.528471 0.258670 0.006515 0.070470 -0.127220 -0.285458 0.054689 0.292337 -0.099773 0.044601 0.109849 0.055340 0.289043 0.177241 -0.118515 -0.380096 0.050117 0.078836 0.446726 -0.097748 -0.046407 0.124069 -0.454658 -0.219562 -0.147705 -0.049197 0.245389 0.056809 -0.117244 0.174374 0.324392 -0.199999 -0.269378 0.069347 0.151586 0.361230 -0.637793 -0.193907 -0.070368 -0.574255 0.023603 -0.252049 -0.396704 -0.292755 0.188508 0.250145 -0.156522 -0.178848 -0.071082 0.153651 -0.268322 -0.321542 -0.237668 0.140440 0.170393 0.051199 0.101544 -0.652934 0.097528 0.137212 -0.083027 0.046160 0.466659 0.374465 0.120749 -0.238015 -0.213714 0.306909 0.067417 0.166608 -0.364711 0.198585 0.000137 0.093415 0.364773 -0.178817 0.073985 -0.151437 -0.149924 0.117876 -0.195461 0.207845
847 -0.036803 -0.272884 0.547566 0.176636 0.536326 -0.451447 0.042525 0.125957 0.256691 -0.373735 -0.063130 0.136752 -0.041960 -0.006276 0.160931 0.259379 0.312721 -0.522899 0.052158 -0.217911 0.050584 0.418728 -0.006504 -0.579982 -0.118567 -0.721474 -0.364403 0.194061 -0.238425 -0.004138 0.115418 0.056542 -0.087988 -0.355445 0.111816 0.257089 -0.034728 -0.646756 0.340139 -0.169649 0.103554 -0.018221 0.342682 -0.192033 -0.546735 0.090575 0.485179 -0.150278 -0.222225 0.049084 -0.154318 -0.252477 0.015906 -0.071168 -0.109039 0.116693 -0.094541 0.180115 0.016703 -0.121308 0.370971 -0.000876 0.149828 -0.474285 -0.231403 0.000883 -0.081964 -0.419863 0.048371 -0.169974 0.154632 0.976060 -0.316778 -0.141952 1.016459 0.297365 -0.040766 0.139207 -0.372329 -0.018584 0.257109 0.536318 -0.184585 0.025506 -0.178488 -0.532507 -0.125992 0.170609 0.204013 0.403163 0.209664 -0.107840 -0.474512 0.097510 0.224443 0.233011 0.153501 0.061427 -0.322400 -0.209857 0.046670 -0.139148 0.515320 0.352962 -0.025327 -0.709683 0.368161 -0.275218 0.284675 0.352457 -0.389022 0.199691 -0.153949 0.091986 0.189614 0.128608 -0.046250 -0.031142 0.141717 -0.301350 0.211010 0.252903 -0.139065 0.521508 0.040682 0.143804 0.015060 -0.055017
643 0.096764 -0.392021 0.463804 0.078320 0.308345 -0.178966 0.096040 0.111311 0.144564 -0.302928 -0.091325 -0.430354 -0.137664 0.643335 0.232172 -0.418091 -0.268781 -0.497112 0.014835 -0.292502 0.349656 0.114586 -0.156033 -0.400775 0.284131 -0.650945 -0.085927 0.017014 -0.150519 -0.681449 -0.429968 0.220950 0.165261 0.038560 0.222297 0.150312 -0.026960 -0.334753 -0.171776 0.164328 -0.606237 0.174399 0.257868 -0.002650 -0.554304 0.558348 0.405948 -0.191816 -0.300693 -0.207451 -0.071074 -0.011400 0.440764 0.116949 0.335875 0.302727 -0.046776 -0.405079 -0.141959 0.128782 -0.028118 0.053011 -0.374774 -0.183018 0.392074 0.761523 -0.206165 -0.490230 -0.397122 0.327780 0.121910 0.585612 0.402384 -0.457700 0.552305 0.000068 -0.171089 0.523990 -0.106352 0.014986 0.128813 0.126326 -0.429494 0.078760 0.175984 0.221718 0.106778 -0.194600 0.162634 0.390452 0.276960 -0.555156 0.422625 -0.139054 -0.033476 0.283779 0.324170 0.603189 0.645675 0.221448 -0.323569 0.606424 0.390495 0.390372 0.165081 -0.737108 0.111268 0.082567 0.447082 0.769946 -0.017287 0.538666 -0.354753 -0.201451 0.022397 0.145490 -0.084261 0.214815 0.131917 0.496187 0.264123 0.150054 -0.180713 0.170237 -0.537306 -0.206078 0.228931 -0.090999
1918 -0.649130 -0.255943 0.629354 0.541449 0.236415 0.235974 0.422764 0.784403 0.442245 -0.120170 -0.331374 0.088472 -0.320410 -0.529638 0.038833 0.374115 0.095558 0.166780 0.411224 -0.258628 0.126822 0.016812 0.008295 -0.408238 -0.009449 0.231531 -0.036674 -0.406714 0.388121 -0.267157 0.529051 -0.453294 0.243654 -0.667774 0.369997 -0.126409 0.440377 -0.228860 -0.961325 0.495069 -0.014213 -0.565787 0.482301 0.145575 -0.014124 -0.339047 0.237249 0.679177 -0.569077 -0.600680 -0.351761 -1.036423 -0.652181 0.174444 0.556550 -0.027929 0.159473 -0.703541 -0.191444 0.108552 -0.550891 0.568492 0.112324 0.147309 0.311150 -0.410243 -0.001724 -0.464659 0.006876 -0.059885 -0.431098 0.966834 -0.133123 0.165564 0.501143 -0.044584 -0.071824 0.306540 -0.144593 -0.150059 0.432630 -0.251188 0.182583 -0.474633 -0.007217 0.257827 0.109645 -0.037952 -0.014002 0.178520 0.463334 0.103200 0.259018 -0.205130 -0.402967 -0.071236 -0.224425 0.761039 -0.070805 0.681106 -0.051622 0.552282 0.439022 -0.195408 -0.387234 0.151990 -0.015471 -0.005522 0.306665 -0.154815 0.391891 0.294422 -0.023822 -0.232072 -0.472912 0.174361 0.207566 0.389059 0.279445 0.063472 -0.281797 0.030765 0.234783 -0.584546 -0.498551 0.087901 -0.563221 -0.877622
471 -0.547939 -0.708146 0.021848 0.234788 0.011495 0.695977 0.186735 0.444958 0.539658 0.384204 0.231202 -0.235433 -0.214648 0.099394 0.609163 0.048975 0.161471 0.234306 -0.169508 -0.151030 0.454935 0.000327 0.401412 -0.550237 0.009410 0.170245 -0.088054 0.357886 0.377423 0.270160 -0.031805 0.232643 0.196066 -0.087248 -0.035689 -0.133531 0.219521 0.154096 -0.262590 0.057610 0.034434 -0.764769 0.064973 0.221306 0.000307 0.248433 0.083154 0.086155 -0.097425 -0.072977 -0.906468 -0.223242 0.005548 -0.109761 0.415151 0.306597 0.182626 -0.155564 0.493910 0.462141 -0.185598 -0.268270 -0.053124 0.072854 0.197417 -0.132701 -0.466982 0.131253 -0.488093 -0.139733 0.074546 0.209364 0.025116 -0.761210 -0.130201 -0.081740 0.190459 -0.594078 0.237852 0.134004 -0.006426 0.718477 -0.102717 -0.124791 -0.115828 -0.526972 -0.212483 -0.226064 0.203034 0.212943 -0.042004 0.082557 -0.153109 -0.111315 -0.260771 -0.413500 -0.238256 -0.115362 -0.431135 0.075469 -0.294237 0.577972 0.053245 0.129141 -0.252885 -0.009548 0.695426 -0.316251 0.565316 0.125045 0.221031 -0.053361 0.202842 0.344519 0.716272 0.096601 -0.347340 0.194951 0.281118 0.444985 -0.043855 -0.488776 -0.072265 -0.132959 -0.300574 -0.358861 -0.218201 0.488017
439 -0.059388 -0.118826 -0.148640 0.156689 0.103993 -0.074501 0.418821 -0.364201 1.070496 0.126704 0.402024 -0.630733 -0.144029 0.243866 0.280276 -0.430054 -0.159950 0.430111 -0.138994 0.026915 -0.091127 0.186412 0.282565 0.415273 0.398226 0.156334 -0.088210 0.579680 -0.133408 -0.235458 -0.065250 0.031071 0.548300 -0.427412 -0.336238 -0.099612 0.034763 -0.043125 -0.265315 0.251287 -0.054572 0.140082 -0.286497 0.412347 -0.101456 -0.010102 0.698733 0.218714 0.238019 0.013321 -0.266136 -0.609172 0.200833 -0.157982 0.386730 -0.185516 0.149710 -0.260641 0.650109 0.362886 -0.228931 -0.117957 0.014869 0.011061 0.284504 -0.066563 0.228492 0.292566 -0.537747 -0.248801 0.136084 0.254402 -0.105308 -0.363471 0.212117 0.250952 -0.041336 -0.020260 -0.052409 0.128662 0.418868 0.427266 -0.369422 -0.551024 0.081841 -0.314724 -0.061946 -0.152878 0.163704 -0.207441 0.399540 -0.007409 -0.258578 -0.449377 0.505125 0.276444 -0.071302 0.222891 -0.516835 0.218790 0.385849 0.601783 0.309031 -0.702964 0.068350 0.029940 -0.191051 -0.492570 0.122910 -0.273868 0.294155 -0.496480 -0.413925 0.402324 -0.012012 0.214420 -0.558043 0.623056 0.162877 0.007346 0.319391 0.568265 -0.079358 -0.187709 -0.086019 0.345244 -0.166397 0.249209
364 -0.417748 -0.232125 -0.004233 0.263937 0.412675 0.680467 -0.103482 -0.042711 0.813343 -0.065374 0.726230 -0.255325 -0.102544 -0.146012 0.070977 0.068188 0.251330 0.304824 -0.168811 -0.081167 0.212802 0.071791 -0.032678 0.198878 0.627545 0.173598 -0.436745 0.326903 0.036115 -0.283326 -0.001734 -0.094031 0.093998 -0.041098 0.110997 0.003420 0.151446 -0.803891 0.061880 0.042623 0.055397 0.451645 -0.176313 0.264104 -0.261867 0.208608 0.836571 0.344713 0.002287 0.105796 -0.300664 -0.190232 0.045792 -0.128370 0.431759 0.093622 0.394444 -0.272377 0.423915 0.339662 0.089365 -0.260910 0.041802 0.298153 0.255071 0.705937 0.149670 0.425007 -0.713134 -0.208297 0.151596 0.480115 0.146185 -0.193960 0.089234 -0.063548 -0.180355 -0.394585 -0.058147 0.080866 0.544835 0.041672 -0.229663 -0.170543 -0.539754 -0.379244 0.222034 -0.349127 -0.155285 -0.218253 0.136757 -0.128878 -0.198754 -0.495914 0.407035 0.205993 0.045826 -0.093686 -0.561571 0.440854 0.234246 0.171550 0.067434 -0.562189 0.230190 0.353924 0.176464 -0.061835 0.396713 0.093483 0.241776 -0.380020 -0.257301 -0.002509 0.215570 0.274573 -0.501706 0.140551 0.034368 -0.114930 0.144734 0.696179 -0.033805 -0.121401 0.184070 -0.056206 -0.290005 0.574020
291 0.323041 -0.123091 -0.104871 0.181646 0.106958 0.599964 0.442046 0.115487 1.097619 -0.745809 0.324222 -0.514423 -0.153216 0.234564 -0.260371 0.346049 0.486791 0.326462 0.055359 0.000436 -0.054083 -0.055299 0.103185 0.114689 -0.001908 0.285557 -0.375473 0.435086 0.015739 -0.195183 -0.349362 -0.108614 -0.131874 -0.044362 0.258886 -0.125694 -0.507360 -0.270635 -0.011953 0.189867 -0.117513 -0.120625 0.155561 0.276978 -0.334463 0.298392 0.212231 0.179328 -0.455281 -0.507423 -0.082831 -0.046844 0.106012 -0.364933 0.156368 0.176851 0.191332 0.048087 0.279816 0.478375 -0.531992 -0.724770 -0.093628 -0.273338 -0.120552 0.278380 -0.036020 0.099136 -0.425877 0.007055 0.222135 0.309257 0.513407 -0.342300 -0.151480 0.429292 0.328330 -0.103544 0.053227 0.178695 0.655552 0.222296 -0.171362 0.239730 -0.069654 -0.096276 0.083446 -0.123007 -0.225788 -0.153905 -0.360155 0.450545 0.139122 -0.123857 0.258545 -0.129579 0.308450 -0.195161 -0.411924 0.292184 -0.096508 -0.095456 -0.061790 -0.863437 -0.542818 -0.037435 0.165560 0.158527 0.325435 -0.449491 -0.046140 -0.741589 -0.127375 0.251704 -0.114581 -0.049295 -0.605169 0.483189 -0.143609 0.147115 0.595636 0.347799 0.147892 -0.109818 -0.344542 0.003364 0.024632 0.256333
661 -0.087204 -0.140909 0.642219 0.118961 0.269324 -0.344227 0.110256 0.118692 0.163309 -0.128156 -0.167916 -0.463918 -0.084056 0.399407 0.379146 -0.105626 0.150986 -0.392721 0.086919 -0.713672 0.670801 0.021773 -0.470244 0.140426 0.583710 -0.411841 -0.137689 0.246596 0.055041 -0.155363 0.079924 -0.163915 0.507858 -0.116060 0.181878 0.194064 -0.319650 0.040769 -0.216803 0.230871 -0.078218 0.182163 0.250095 0.126580 -0.731014 -0.141766 0.396183 -0.047648 0.050624 -0.644348 -0.277434 0.279150 0.251411 0.209432 0.027519 0.597830 -0.262795 0.215111 -0.561315 0.395997 -0.121238 0.055122 0.147715 -0.254418 0.392860 0.714931 -0.132040 -0.337615 -0.163718 -0.389159 0.250480 0.647982 0.826606 -0.543596 0.853877 0.281569 -0.215034 0.540507 0.099714 -0.088179 0.526176 0.129577 -0.143572 0.162162 0.043561 -0.259426 0.325317 0.158155 0.330703 -0.095246 0.295198 0.190654 -0.200790 -0.283645 0.015021 0.252495 0.362783 0.219300 -0.209888 0.180186 0.062793 -0.188692 0.224116 0.538681 0.263503 -0.769743 0.270575 0.479537 0.241480 0.645563 0.122815 0.530894 -0.472049 0.020373 -0.728258 0.609599 -0.278762 0.079593 0.442212 -0.050411 0.377099 -0.266825 -0.173822 0.447809 -0.454791 0.136047 0.455177 -0.195070
1406 -0.183836 0.099351 -0.018764 0.816438 -0.111539 -0.104150 -0.063589 0.097078 0.609677 -0.221444 -0.387280 0.108581 0.159249 0.668533 -0.037962 -0.600107 0.665633 -0.762995 -0.067499 0.262913 0.222087 -0.203758 0.566410 -0.362952 0.054854 0.621226 0.017693 0.040700 -0.578013 -0.490935 0.598514 0.011737 0.586003 -0.592758 -0.055394 0.850255 0.216871 -0.695768 0.472751 0.375929 0.267760 0.100828 -0.286040 0.945612 0.281720 0.551497 0.378771 0.014400 -0.270858 -0.248460 0.194961 -0.128797 0.231423 -0.074342 -0.426370 0.180621 -0.187862 -0.713790 0.362439 -0.161273 -0.035943 -0.266976 0.565608 0.107759 0.393894 0.149616 -0.310152 -1.020966 -0.644728 -0.588868 0.212579 0.453275 -0.370171 -0.477062 0.096962 -0.635269 -0.012227 0.248242 0.673212 0.408213 1.363232 -0.085884 0.385794 -0.143618 0.407743 -0.026073 0.493939 0.341682 -0.094745 0.427487 0.029104 -0.384246 0.144437 -0.143399 -0.477673 0.041573 0.057822 0.500243 -0.786179 0.118881 -0.825724 0.118151 -0.182504 -0.138181 -0.477625 -0.283198 0.082823 0.051574 0.102006 -0.287252 0.295428 0.099564 0.586318 -0.549906 -0.280493 0.051399 -0.061275 0.453555 0.989532 -0.204013 0.037697 0.021188 0.190597 -0.123829 -0.182725 0.273779 0.574056 0.175903
699 -0.433734 -0.457166 0.472746 0.582367 -0.143080 0.510690 -0.114719 -0.132714 0.507636 -0.182810 0.664689 -0.486811 0.189552 0.258103 0.319588 -0.081435 0.311221 0.308463 -0.142026 -0.259401 0.115693 0.034214 0.630952 0.333530 0.425765 0.175780 0.214091 0.177881 0.283763 -0.091379 0.075293 -0.049373 -0.051706 -0.528250 0.068453 0.306126 -0.455331 -0.403943 -0.106916 -0.127382 0.248537 0.251454 -0.088142 0.431210 0.019503 0.336816 0.253213 -0.001733 0.380958 -0.025093 -0.413682 -0.293801 0.001428 -0.117217 -0.293367 0.118394 0.028630 -0.022135 0.377423 0.565859 -0.606044 -0.202618 -0.177218 -0.272737 0.182009 -0.216842 0.187990 0.077070 -0.421132 0.168489 0.559852 0.007777 0.273948 -0.696670 0.280657 -0.166559 0.393899 0.175860 -0.196587 -0.222226 0.190360 0.078870 -0.381402 -0.215822 0.199543 -0.429318 -0.060135 -0.102406 -0.069037 -0.007445 0.059566 0.176638 -0.036129 -0.377376 0.193085 -0.162828 0.324391 -0.441384 -0.323810 0.405079 0.035208 0.486974 0.589108 -1.024334 0.149225 0.443923 -0.070181 -0.185515 0.574341 0.112872 -0.088875 -0.501143 -0.151762 -0.123253 0.169589 -0.157639 -0.267439 0.282443 -0.013998 -0.395601 0.416323 0.193215 0.289118 -0.023442 -0.195063 -0.050091 -0.434951 -0.390071
905 -0.529932 -0.090332 0.041797 0.054800 0.186698 0.469500 -0.417068 -0.083554 0.067296 0.047266 0.353844 -0.825038 -0.847817 0.357661 0.033084 0.003917 0.534191 0.136759 0.295623 0.235398 0.352794 0.421096 0.019758 -0.498389 0.484784 -0.210576 -0.158101 0.233243 0.386650 -0.036838 -0.652883 0.168385 0.558509 -0.392301 -0.179834 0.099432 -0.135329 -0.362446 -0.259077 -0.489818 -0.476730 -0.538896 -0.146150 0.201000 -0.029112 0.087495 0.082962 0.258364 -0.086780 -0.262691 -0.534241 -0.033650 0.016001 0.111170 0.224222 0.203416 0.182959 -0.158662 0.745120 -0.465285 -0.185626 -0.383389 0.834932 -0.366605 -0.022830 0.078834 -0.325669 0.031487 -0.527057 0.013016 0.112934 0.235103 -0.495660 -0.288983 -0.187560 0.193564 0.272128 0.511461 0.074785 0.051536 0.286944 0.396635 0.033869 0.474901 0.066155 -0.298963 0.206987 -0.541648 -0.583814 -0.112168 0.270723 -0.097192 0.567465 -0.524777 -0.001541 -0.067672 -0.195782 0.283529 -0.616512 0.105384 -0.292481 0.074646 -0.004035 -0.172761 -0.494325 0.232957 0.035850 0.275920 0.022058 0.367018 0.406526 -0.490956 -0.078464 -0.140770 -0.160081 -0.107914 -0.270911 0.521200 0.412526 -0.006745 -0.053567 0.015396 0.525212 -0.140131 0.025390 0.215520 -0.444898 0.046156
2049 -0.334156 0.524481 0.377797 0.326746 -0.364202 0.185439 0.278541 0.100706 0.604328 -0.415505 -0.582258 0.175976 0.061067 0.234917 0.114842 0.034907 0.121162 0.097262 0.665801 -0.502676 0.143824 0.419497 0.289726 -0.582315 0.346546 -0.074136 -0.099486 -0.115400 0.435715 0.207405 0.126452 0.030868 -0.042343 0.139921 0.271340 0.656909 0.009215 -0.883493 -0.840522 0.032671 0.342377 -0.486331 0.003892 0.435463 -0.191003 0.071415 0.556654 0.055136 -0.029575 -0.873389 -0.027021 -0.347928 -0.242955 -0.012510 0.679050 -0.427703 0.076263 -0.277688 -0.007601 0.207302 -0.129116 0.568760 0.159838 0.544287 0.096939 0.289189 -0.057713 -0.397029 -0.025927 -0.190214 -0.400084 0.679896 0.036680 0.769265 0.813131 0.361119 0.296565 -0.009196 0.198096 -0.423495 -0.414896 -0.080844 0.133743 -0.854612 -0.098403 0.285098 -0.305881 0.236051 0.294331 0.025508 0.455924 0.432597 0.386453 -0.173161 0.244792 -0.026559 -0.353712 0.627641 -0.656656 -0.104553 -0.554716 -0.493316 0.267128 -0.536493 -0.114790 0.014576 -0.202465 -0.157360 0.385329 -0.296094 0.154525 0.509725 0.097057 -0.253447 -0.015920 0.384804 0.199204 0.409931 -0.152630 0.338109 -0.839708 0.076902 0.381657 -0.218207 -0.104344 0.004598 0.043441 -1.031093
697 -0.439328 -0.236326 0.257346 0.224859 -0.068057 0.514043 -0.196191 -0.219432 0.344874 -0.171905 0.350821 -0.918371 -0.317253 0.048573 0.073153 0.117259 0.489966 0.065020 -0.134793 -0.137632 0.205669 0.071780 0.445588 -0.101450 0.017908 -0.226981 0.222082 0.093420 0.235230 -0.503025 -0.065799 0.166299 -0.146780 -0.177223 -0.306273 -0.323317 -0.130235 -0.118677 -0.319377 -0.223624 -0.218669 0.018819 -0.069208 0.347157 -0.418760 0.060029 0.236081 0.582963 -0.161703 0.196520 0.152998 0.018245 0.190866 -0.249008 -0.176248 0.400033 0.171096 0.060460 0.867869 0.242588 -0.269011 -0.096907 0.168310 0.039536 -0.092254 -0.167247 0.243661 0.071587 -0.432589 -0.312452 0.026393 0.049042 0.068382 -0.404261 0.320807 -0.118483 0.187615 0.073159 -0.027232 0.294147 0.508281 0.041928 -0.361831 -0.316026 0.180215 -0.299351 0.050427 -0.221635 0.240139 -0.292002 0.211738 0.042584 0.115326 -0.408016 0.490726 -0.411491 -0.333899 0.116113 -0.482460 0.130265 0.060163 0.507057 -0.013984 -0.731522 -0.454518 0.676206 0.190932 0.204698 0.799951 0.277163 -0.188443 -0.428546 0.005292 0.114960 0.000855 0.019990 -0.178400 -0.223065 -0.102335 0.186184 0.143955 -0.064597 0.110076 0.042979 -0.193285 0.162999 -0.215638 0.104952
659 -0.197449 0.121068 0.826457 0.260915 0.745151 -0.538622 -0.136662 0.062364 0.496015 0.339138 0.211736 0.327434 -0.206669 0.034689 0.644373 -0.386474 0.049746 0.170113 -0.303702 -0.061062 0.236110 -0.008934 0.030040 -0.562263 0.069660 0.096518 0.245079 -0.071658 -0.326613 -0.092995 0.387750 0.640245 -0.017436 0.058405 0.306092 -0.061016 0.081894 -0.105101 0.733175 0.086575 0.252707 0.234072 0.246949 -0.001000 -0.339190 -0.256312 0.361136 -0.168090 -0.223955 -0.142094 0.279835 -0.079467 0.083021 0.320936 0.091065 0.411194 -0.286333 0.272391 -0.175955 0.156353 -0.336544 0.030902 -0.088955 -0.060323 0.108179 -0.099412 -0.206405 -0.591345 -0.093404 -0.523666 0.098681 0.880591 -0.488842 -0.191441 1.014004 1.261556 0.199620 0.188384 -0.397190 -0.160926 0.573306 0.401428 0.054584 -0.451823 0.064810 -0.497570 0.171491 0.335247 -0.075490 0.203512 -0.199140 0.219511 -0.198241 -0.466970 0.374168 0.467603 0.344488 -0.041449 -0.103632 0.279717 -0.682401 -0.216234 -0.107274 0.487393 -0.084704 -0.165947 0.274934 -0.197893 0.439323 -0.154854 0.294387 0.388138 -0.017411 -0.419188 -0.389923 0.436402 -0.333737 -0.461883 -0.104050 0.154977 0.218197 0.101464 -0.164831 0.315665 -0.261466 -0.511195 0.305507 -0.073552
631 -0.631654 0.080196 0.891581 0.289498 0.543246 -0.356643 0.391452 -0.404925 0.364586 0.093227 -0.303966 -0.033965 -0.491125 0.228675 0.653021 -0.147670 0.148199 0.019909 -0.274012 0.237957 0.057396 0.219523 0.253956 -0.754220 0.159572 -0.122359 0.128853 0.297312 -0.442477 0.038297 0.314880 0.765435 -0.084876 -0.077363 0.145375 0.170901 0.372044 -0.019578 0.341203 -0.077509 0.097534 0.170741 0.189986 0.091480 -0.590293 -0.612009 0.037933 -0.277838 -0.330725 -0.277072 0.357185 0.141124 0.050406 0.139819 0.164195 -0.036215 -0.561415 0.201972 0.209155 -0.327118 -0.354511 0.230903 -0.075654 -0.219152 0.003656 -0.134103 -0.194057 -0.611402 -0.268847 -0.871570 -0.528798 0.387500 -0.669562 -0.574969 0.926492 0.740131 0.569261 0.156416 -0.252411 0.221717 0.331077 0.436253 -0.531686 -0.650081 0.004615 -0.539223 -0.335328 0.286916 0.235042 0.369927 0.041998 -0.085935 0.175530 -0.044497 -0.031321 0.282699 0.264019 0.098331 0.155853 0.090482 -0.128564 -0.104155 -0.275689 0.157187 0.321081 -0.132862 0.480460 -0.070931 0.257214 0.027544 0.181941 0.121195 0.110158 -0.507584 -0.427974 0.379410 -0.184156 -0.286639 -0.618582 -0.378297 0.237860 0.139657 -0.141365 0.187422 -0.285769 -0.680240 0.280574 -0.108128
1236 0.208077 0.444613 0.252012 0.291867 0.976391 -0.114915 -0.556103 0.479439 0.156411 0.296013 0.341179 -0.727841 -0.174138 -0.079902 0.496650 0.194232 -0.089760 0.296418 0.221567 0.511817 -0.120399 0.419587 0.644514 -0.266361 0.061346 0.561346 0.220213 -0.233255 0.123945 0.025030 0.360487 -0.016033 -0.319044 -0.540748 -0.009630 -0.359468 0.279410 -0.607276 -0.509159 0.079217 -0.104869 -0.294751 -0.336591 0.690332 0.166543 -0.468553 0.244366 -0.145248 -0.841010 -0.356850 -0.041200 0.518897 -0.502248 -0.603536 -0.309402 -0.271573 -0.334404 -0.236369 0.059072 0.372420 -0.156531 -0.294071 0.337431 0.077270 0.706103 -0.040518 0.403006 -0.017630 -0.236369 0.080930 -0.129581 0.588916 0.056109 0.062308 0.361144 -0.594736 -0.167561 -0.180606 0.093151 -0.060365 -0.061922 -0.060831 -0.533864 -0.070419 0.207603 -0.411412 0.282757 0.294115 0.286670 -0.052864 -0.437908 0.038855 0.458077 -0.232398 -0.221244 0.620916 0.354052 -0.358917 -0.519194 0.104659 -0.150755 0.352988 0.578270 -0.417311 0.056088 -1.031930 -0.494275 0.476633 -0.121441 0.476187 -0.545484 -0.054445 0.163643 -0.048195 0.097597 0.529142 0.273574 0.235670 0.128309 0.749978 0.089628 0.352376 0.367246 0.237362 -0.128698 -0.237696 0.067653 0.562422
1101 -0.995855 -0.114282 -0.479369 -0.011180 0.969026 0.037061 0.988461 0.803801 0.652939 -0.406702 -0.065723 -0.751494 -0.309862 -0.863009 0.583570 -0.803608 0.000456 0.945260 0.141971 0.154172 0.435277 0.205226 0.317602 0.193317 -0.475795 0.497617 0.122825 0.284752 0.070980 -0.031111 0.647969 -0.256470 0.385027 0.568382 -0.053477 0.227337 -0.665985 -1.750622 0.309637 -0.463429 -0.179862 -0.543183 -0.235651 0.323357 -0.086512 -0.242036 0.417133 0.064608 -0.425082 -0.422397 0.094415 -0.288821 0.022035 0.300360 -0.548781 -0.324170 0.455602 0.564612 0.509736 0.342573 -0.847453 -0.663299 0.649658 0.405358 0.324568 -0.239579 -0.011904 -0.184964 -0.836852 -0.457036 0.494357 0.848219 -0.438018 0.164092 0.625184 0.592892 0.155213 -0.148568 0.274946 0.050952 0.018420 0.095958 -0.595687 -0.087430 0.193218 -0.717366 -0.381439 -0.110926 -0.177830 -0.167875 1.097525 -0.430200 -0.029460 0.383703 0.109720 -0.526088 0.295242 -0.165844 -0.335003 0.753100 -0.247263 0.134800 0.368977 0.448303 -0.700800 -0.165061 -0.187165 0.206558 -0.447518 0.486529 0.183641 1.340399 0.669747 -0.038504 -0.427587 0.023942 0.411999 0.419448 -0.587804 -0.422230 -0.632700 0.231769 0.614937 0.090460 -0.092232 -0.395902 -0.174915 -0.281075
732 -0.589534 0.062799 0.063987 0.046136 -0.051715 0.397248 -0.400034 0.006278 0.462906 0.199188 0.271644 -0.275314 -0.003918 0.247296 -0.029443 0.001357 0.218791 -0.442175 -0.087379 -0.103210 0.345568 -0.303527 0.267687 -0.385487 0.425647 -0.017143 -0.590222 0.218226 0.657948 0.123277 -0.040439 0.115257 0.431063 0.032728 0.233870 0.010644 0.078729 -0.511651 0.151271 0.437862 0.064868 -0.646316 -0.575926 0.150374 -0.204970 0.297406 -0.242069 0.311654 0.319959 -0.087671 -0.129026 0.082230 -0.344349 -0.016718 0.222963 0.387180 -0.108032 0.284348 0.688838 -0.216382 -0.217442 -0.112654 0.369791 -0.334438 0.173176 -0.243369 -0.612866 0.031031 -0.537075 0.237434 0.236991 0.423807 -0.084546 -0.488727 -0.217531 -0.091651 0.234866 0.232680 0.130218 -0.060836 0.365705 0.469852 0.233246 -0.169911 -0.540381 -0.169893 -0.102724 -0.199853 -0.227331 -0.367235 0.383423 0.280072 0.120227 -0.660316 -0.004519 -0.222263 -0.360956 -0.210108 -0.272896 0.174693 -0.646680 0.417488 -0.037432 -0.120424 -0.516288 -0.303906 0.255674 -0.307768 0.276157 0.175068 0.267920 0.086878 0.164843 -0.037107 -0.538874 0.114088 0.600832 0.125307 -0.423803 0.004299 0.427549 -0.161101 0.475045 -0.332515 -0.523329 0.190067 -0.520876 -0.018054
986 -0.201017 0.458260 0.519884 0.129079 0.478663 0.061659 0.169243 0.123285 0.637563 0.267900 -0.119351 0.244794 -0.453396 -0.204413 0.868482 0.000192 -0.365067 -0.100884 -0.174244 -0.103051 -0.232315 -0.218402 -0.024002 -0.777578 0.344908 0.100751 -0.009093 -0.349560 -0.366230 -0.223208 0.345878 0.662644 0.573203 -0.419837 -0.028021 0.133751 -0.089746 -0.766990 0.592018 -0.120350 0.179848 0.272076 0.010759 -0.329581 -0.300436 -0.546603 -0.017378 0.191023 -0.038592 -0.192769 0.495577 -0.026843 -0.118492 -0.159864 0.298025 0.092515 -0.582698 -0.271553 0.038024 -0.143580 -0.048579 0.523329 -0.140481 -0.261235 -0.101926 0.009610 -0.209696 -0.936020 -0.347476 -0.396854 0.115620 0.838585 -0.607897 -0.147197 0.410134 1.018977 -0.477380 0.108655 -0.264372 -0.219135 0.475459 0.451664 -0.459993 -0.382389 -0.057508 -0.614761 -0.419445 0.101384 0.031038 0.460751 0.237616 -0.350029 0.159426 -0.073490 0.177253 0.381766 0.184389 -0.171977 0.006144 0.270877 -0.109927 -0.126266 0.111284 0.060395 0.035996 -0.085754 0.501317 -0.166357 0.732207 0.153243 0.145282 0.441099 0.339565 -0.071141 -1.042684 0.473803 -0.397694 -0.089508 -0.036571 -0.106771 0.218946 0.117874 -0.251130 0.458112 -0.163560 -0.434375 -0.231100 0.385531
488 0.282888 0.017520 0.602980 0.300963 0.640814 0.276714 0.603642 -0.395127 0.336875 -0.319799 -0.627383 -0.401215 0.469769 0.885416 0.167916 0.272481 -0.328673 0.301174 0.448910 -0.110644 -0.207796 -0.544800 0.576593 -0.770813 -0.163589 -0.312547 -0.065378 0.709379 0.461521 -0.247191 -0.538522 -0.174731 0.143404 -0.057429 0.636045 -0.090254 -0.610537 -0.528033 0.412621 -0.183803 -0.527387 0.289389 -0.020351 0.129440 -0.165822 0.133272 0.377857 -0.024562 -0.570410 -0.260619 -0.019275 -0.055357 0.509890 -0.255747 0.379481 0.308289 -0.636579 -0.557356 0.139339 0.142612 0.277011 0.134603 -0.180930 -0.525658 0.482807 -0.323472 0.273485 -0.316678 -0.829684 0.252634 0.269511 0.530808 -0.331632 -0.162644 0.200647 -0.156136 -0.046034 -0.369176 -0.165751 -0.721220 0.378399 0.154172 -0.358980 0.443924 -0.030646 -0.583320 0.418109 0.170909 -0.000815 0.553774 0.741715 -0.621232 0.137921 -0.873591 -0.176895 0.294878 0.124536 0.189219 0.317071 -0.021554 -1.053947 0.126314 0.205913 0.704684 -0.186205 -0.669062 -0.440677 -0.471918 0.190487 0.325184 -0.074668 0.744490 0.264975 -0.151183 -0.296205 -0.054794 -0.341026 0.330012 0.051821 0.049614 0.601193 0.013437 0.379112 0.144924 0.218789 -0.118582 -0.041190 -0.334087
822 -0.439710 -0.027916 0.239590 0.040385 0.890232 -0.861335 0.181891 -0.236589 -0.119960 -0.382731 -0.090988 -0.365693 -0.613524 -0.422479 0.045444 0.360884 0.342513 0.655192 -0.408850 -0.659282 0.290373 0.388421 0.665048 -0.948795 -0.087286 -0.270320 0.678010 0.215196 -0.226902 0.349175 0.058096 -0.345335 0.100191 -0.371495 0.135125 0.105146 -0.283226 -0.559743 0.504859 0.053342 0.087824 -0.214073 0.265911 0.031698 -0.616340 -0.577563 -0.144363 0.318259 0.115103 -0.243424 0.148054 -0.075852 0.437258 -0.110405 0.272035 0.182988 -0.006186 0.381000 -0.391757 0.140332 0.269239 0.180310 0.476799 -0.029585 0.025414 0.380619 -0.168774 -0.100768 -0.261950 0.116412 -0.559436 0.940507 -0.088658 0.084592 0.898780 0.429531 -0.184186 0.381886 -0.029862 -0.253722 0.558264 0.698554 -0.471789 0.163318 0.434496 -0.072164 -0.080152 -0.257041 0.368289 0.063984 -0.189451 0.163725 -0.257243 -0.194987 -0.251588 0.693154 -0.136877 0.003574 0.268221 0.248030 -0.305607 -0.266256 0.004057 -0.192057 -0.119109 -0.114666 0.551925 -0.014539 0.622302 -0.332637 -0.081316 -0.005173 0.033782 -0.149386 0.456083 0.161599 -0.115225 -0.716968 -0.138030 0.008387 0.910025 0.047197 -0.116780 0.007308 -0.107329 0.313207 0.034716 -0.447130
814 0.308911 -0.572717 0.525287 0.330898 0.445397 0.075369 0.144075 -0.279660 0.231937 -0.018200 -0.062216 -0.129799 -0.051942 0.395460 0.454491 0.198596 -0.005580 -0.393754 0.094059 -0.614617 0.096589 0.635471 0.117615 -0.835768 0.376706 -0.751536 -0.298396 0.350451 0.216414 -0.423173 0.367917 0.024765 0.268403 0.152234 -0.062381 -0.132315 0.238193 -0.638995 -0.022728 0.142302 -0.378032 -0.291780 0.489902 0.435550 -0.738813 0.056134 0.378262 -0.153960 -0.355323 -0.109705 0.167145 -0.497938 -0.134420 0.130571 -0.097264 0.024720 0.051554 -0.312963 -0.399940 -0.447925 -0.094307 -0.283007 -0.052111 -0.515897 -0.070579 0.353815 -0.251891 -0.429203 0.059330 0.023496 0.189373 0.871035 0.056716 -0.139788 0.627023 0.516119 -0.211714 -0.048285 -0.239115 -0.195821 0.175905 0.415852 -0.459212 0.202701 0.407932 -0.007734 -0.399826 -0.310518 0.229198 0.002339 0.152669 -1.004408 0.370808 -0.119604 0.010268 0.226186 0.255787 0.282272 0.358863 0.325233 0.122146 -0.130680 0.409050 0.109033 0.020467 -0.742487 0.439981 -0.246022 0.106268 0.490852 -0.343306 0.440700 0.131950 -0.105627 0.018873 -0.155661 -0.178640 0.206351 0.130513 0.494296 0.161996 0.154765 -0.264892 0.868785 -0.298794 0.245671 0.098017 -0.411308
616 -0.503920 -0.354974 0.464537 0.511608 -0.249240 0.693042 0.162800 -0.109062 0.583825 -0.031735 0.144639 -0.427093 -0.192635 0.165394 0.052026 0.368251 0.647708 0.293594 -0.395799 -0.483558 -0.247005 0.308675 -0.087486 0.186099 -0.147026 -0.069011 0.020221 0.239254 0.045182 0.126014 0.623621 0.155495 -0.246624 -0.090835 -0.058471 0.043952 -0.375259 -0.198808 -0.273685 -0.135880 0.158823 0.134306 -0.469670 0.313994 -0.174133 -0.062896 0.299665 -0.073099 0.254868 -0.062170 -0.645841 -0.054543 0.277495 -0.362331 -0.015634 -0.013423 0.037125 -0.117020 0.575810 0.355951 -0.100259 0.100252 -0.451493 0.257499 0.453175 0.139269 0.236518 0.081474 -0.598092 0.323344 0.307522 0.359730 -0.235983 -0.217926 0.259688 0.397218 0.362541 0.760460 -0.480197 -0.196734 0.443668 -0.110664 -0.390034 -0.042809 -0.342617 -0.378515 -0.132856 -0.215510 0.240371 -0.191894 -0.157305 -0.134548 0.444235 -0.142129 0.245405 -0.294084 0.510433 0.142355 -0.418578 0.137349 -0.464011 0.389808 -0.355519 -1.167896 -0.572392 0.165444 -0.624445 -0.037767 0.615662 0.095573 0.087133 -0.675303 -0.141137 0.004211 -0.214171 0.486200 -0.503617 -0.078133 0.336390 0.158126 -0.056064 0.230809 0.402558 -0.101569 -0.044265 0.170499 -0.026447 0.231118
753 -0.017614 0.193882 0.379456 0.303859 0.222663 0.314936 -0.329048 0.204721 0.444003 -0.094530 0.048372 0.159562 -0.048675 0.035820 0.168669 0.577173 0.045295 -0.133370 0.088597 0.097832 0.192186 0.356894 0.391160 -1.089607 0.392700 -0.000683 0.115977 0.032526 0.102018 -0.018934 0.309437 -0.236751 0.453792 -0.993769 -0.281992 0.593519 0.080667 -0.747300 -0.080876 0.371445 0.727472 -0.626624 -0.021587 -0.188963 -0.345939 -0.126914 0.104510 -0.117736 -0.480390 -0.511203 0.052267 0.466160 0.213814 0.169592 0.259105 -0.290962 0.166922 -0.555892 0.011124 -0.286285 -0.122025 0.627892 -0.058902 -0.233876 -0.222907 0.407031 -0.374411 0.217307 0.505553 0.076459 -0.247306 0.557035 -0.312736 -0.057859 0.398128 0.267477 0.488684 0.274998 0.416829 -0.440754 -0.550782 -0.188118 0.072598 -0.941749 0.019118 -0.183170 0.089669 -0.076879 -0.232750 0.099279 0.319351 -0.245341 -0.676278 -0.071541 0.023215 0.042476 0.440594 0.167008 -0.644544 -0.119857 -0.156437 -1.062809 0.610739 0.175285 0.429839 -0.098951 0.142516 0.175232 0.725527 -0.439798 -0.269536 0.780160 -0.018083 0.051630 -0.443816 -0.111338 -1.300512 -0.436830 -0.319298 0.031922 0.067204 0.724780 0.152708 -0.348888 -0.197458 -0.235133 -0.049607 0.108640
868 -0.067057 0.257495 0.166286 0.695625 0.294550 0.301669 -0.211616 0.763137 0.114008 0.046421 -0.475602 -0.365670 0.347494 -0.133644 -0.171452 0.254117 0.170133 0.109822 0.012592 0.526451 0.155842 -0.149713 0.497720 -0.615286 0.401681 -0.333776 0.586351 0.736733 0.124653 0.087862 0.800847 0.119780 -0.392619 -0.351482 0.034265 -0.401096 -0.684284 -0.538218 0.107451 -0.236453 -0.522634 0.269802 0.299544 0.687418 -0.727129 0.602148 -0.521922 -0.218275 -0.355424 -0.494269 -0.355495 0.233526 -0.200205 -0.134295 0.393875 -0.314135 0.001893 0.436848 -0.072065 0.198635 0.380975 0.328331 0.254904 -0.322521 0.218489 -0.134677 -0.176950 -0.323701 -0.778421 -0.242871 0.126572 0.627965 -0.405959 0.205265 0.091284 0.746326 -1.328884 -0.188692 -0.447363 0.258717 0.088190 0.225751 -0.232308 -0.648951 0.368369 -0.279806 -0.032577 0.101968 -0.320818 -0.701157 -0.092200 0.694688 0.362673 0.305312 -0.516171 0.559086 0.847826 0.485226 -0.060938 -0.646765 -0.492934 0.386004 -0.439508 -0.241694 -0.245275 0.022697 -0.049058 0.198193 0.041916 0.290382 -0.556147 0.309341 -0.325383 -0.296817 -0.101433 -0.497302 -0.382051 0.152761 0.171622 0.611710 0.319557 0.537176 0.327747 -0.189216 -0.550306 -0.028200 0.001371 -0.581555
698 -0.698215 -0.748709 0.555233 0.085378 0.100667 0.391613 0.001733 -0.125853 0.567903 0.045245 0.475817 -1.000151 -0.187908 0.327679 0.118410 0.540262 0.395598 -0.082399 -0.255488 -0.235469 -0.098911 -0.123772 0.202771 0.541338 0.105501 0.332226 0.060668 0.219122 0.121624 -0.427492 -0.020747 -0.024236 -0.160304 -0.252363 -0.210979 0.258663 -0.543979 -0.629949 -0.230276 0.418024 0.254331 0.160468 -0.020545 0.576913 0.208272 -0.428216 0.267516 0.305869 0.294183 -0.023024 -0.353299 -0.252247 0.273258 -0.121104 0.013803 0.159388 -0.040493 -0.096695 0.502040 0.092357 -0.312562 -0.130102 0.281947 0.506950 0.010638 0.076440 -0.158555 0.076817 -0.396324 0.227953 0.145647 0.281379 -0.020977 -0.756344 0.373952 -0.088899 0.224983 -0.123846 -0.188695 -0.278975 0.172692 0.019718 -0.676458 -0.279415 -0.180294 -0.247887 -0.021517 -0.179067 -0.042465 -0.190478 0.124808 0.208209 0.370327 0.151736 0.337862 -0.117403 0.194388 -0.026541 -0.332790 0.149829 0.306492 0.485302 -0.015082 -0.609005 -0.282508 0.311824 -0.459330 -0.246161 0.768307 0.245017 0.247051 -0.308751 -0.204703 0.288156 -0.321474 0.365624 -0.692925 -0.204886 -0.010258 -0.338365 -0.068636 0.072336 -0.039594 -0.175934 -0.299199 0.090956 0.060250 0.373988
691 0.208411 -0.376807 0.253956 0.204079 0.594149 -0.160008 -0.087123 0.377961 0.612833 0.307485 -0.127105 -0.135055 -0.458948 0.537129 0.653937 0.035199 0.279018 0.039305 0.077326 -0.422602 0.372619 -0.515120 -0.288429 -0.655626 0.105283 -0.404077 -0.283955 0.527864 -0.134591 0.203297 0.392659 0.344823 0.027894 -0.814241 0.216310 -0.193670 -0.436381 -0.638670 0.601375 0.197625 -0.058163 -0.068089 0.806360 0.032411 -0.360800 -0.119144 -0.078691 0.131250 -0.041795 -0.511866 0.562538 0.057601 0.093425 -0.399776 -0.013691 -0.527304 -0.257360 -0.016044 0.179888 -0.025828 -0.187342 -0.039128 -0.171510 0.031193 -0.566929 0.103390 -0.128829 -0.569888 -0.297022 0.025790 -0.428267 0.716580 -0.382222 0.124364 0.247186 0.194772 -0.036356 0.071589 0.075903 -0.469688 0.685604 0.291270 -0.229206 -0.004549 0.076343 -0.273773 -0.568254 -0.097801 0.644776 0.276530 0.273780 -0.093727 0.155996 -0.385701 0.002298 0.403585 0.108303 0.459648 0.319858 0.004383 0.259456 -0.358234 0.285269 0.187373 -0.220286 0.291182 0.109036 -0.497270 0.239989 -0.351046 -0.487804 0.685073 -0.459892 -0.114408 -0.446176 0.287148 -0.257799 0.358700 -0.152460 -0.144710 0.391480 0.185577 0.128108 1.298956 -0.254634 -0.408307 -0.090841 0.380353
31 -0.695441 0.061226 -0.044489 -0.060409 0.398031 -0.136191 -0.364351 0.190793 0.434986 0.217132 -0.029567 0.144919 0.198440 -0.224936 0.535285 0.359064 0.074383 -0.551693 -0.096958 -0.874413 -0.000024 -0.289514 0.529518 -0.759944 0.079938 0.152311 -0.128864 0.178609 0.705403 -0.016178 0.104061 -0.121385 0.269694 -0.385538 0.393775 0.351147 0.190247 0.213910 -0.079106 -0.014399 -0.213301 -0.426437 0.077616 0.206476 0.023047 0.187134 0.227854 0.323054 -0.014621 0.191614 -0.981819 0.226711 -0.464152 0.084775 0.165627 0.024553 0.144403 0.024991 0.773745 0.260553 0.034488 -0.375770 0.399515 -0.446455 0.330218 0.149943 -0.439041 0.519246 -0.633406 0.031862 -0.039200 0.412219 -0.101503 -0.658849 0.003343 -0.100015 0.325234 -0.464432 0.299561 -0.461973 0.233318 0.393826 -0.368614 -0.153502 -0.385190 0.226244 0.078827 -0.192898 -0.317502 -0.177432 0.087454 0.451260 0.248616 -0.108722 0.385419 -0.078117 0.210619 -0.199603 -0.604533 0.231521 -0.371453 0.478668 0.117943 0.276124 -0.712136 -0.338052 0.016909 -0.188891 0.319383 0.013060 0.279156 -0.252278 -0.129126 -0.162247 0.147739 0.148085 0.220623 0.429311 -0.365634 -0.056274 -0.247954 -0.440334 0.025754 -0.264065 -0.420237 -0.255481 0.055724 0.519656
263 0.069391 -0.159470 0.202957 0.382838 0.352398 0.326620 -0.273963 0.085861 -0.160043 -0.186354 0.789283 -0.615383 -0.706359 0.337725 0.400779 -0.066011 -0.180874 -0.308808 -0.059204 -0.146720 0.723709 0.251194 0.561169 0.036962 -0.078341 0.080513 -0.626797 -0.013436 0.302337 -0.509598 -0.090268 -0.393267 0.082779 -0.121981 0.344711 -0.299932 0.047869 0.103836 0.195622 -0.053007 -0.410324 -0.058295 0.527797 -0.476169 -0.422510 0.386516 0.422731 -0.426871 -0.607485 0.243880 -0.771414 0.069901 0.020419 -0.079923 0.182589 -0.113172 0.259048 -0.035807 0.611651 -0.332418 0.072737 -0.039475 -0.080152 -0.455848 0.783479 0.047401 -0.398129 -0.403476 -0.301420 0.372420 -0.181754 0.545359 0.209695 -0.206496 -0.230620 0.477437 0.082610 -0.076854 0.100696 0.118207 0.107532 0.103111 -0.125013 0.510625 0.428873 -0.370663 0.026601 -0.295342 0.073100 -0.126927 0.453964 0.341854 0.128822 -0.145735 0.381363 0.221985 0.385911 0.838057 0.067010 0.160269 -0.670457 0.265201 -0.198468 -0.467460 -0.356827 0.480476 0.602775 -0.003554 0.426956 0.442228 0.015247 0.123913 0.134935 -0.024509 0.012097 0.370530 -0.108009 0.597767 0.240148 0.913058 -0.106531 0.177004 0.313656 -0.029667 -0.235892 -0.276662 0.542246 0.259394
2955 0.320798 0.455573 0.624453 -0.673828 0.036195 0.565036 -0.252453 0.869173 0.162568 0.034457 -0.575513 -0.233486 -0.746693 -0.073581 0.716932 0.566091 -0.365484 0.342531 0.069755 -0.716314 -0.352185 -0.119592 0.478562 -0.993297 0.628823 -0.319413 -0.307820 0.089955 1.361357 0.179483 -0.037710 0.311196 -0.472386 -0.374878 0.082904 -0.119445 0.823243 -0.684549 -0.421841 0.361189 0.195001 -0.062970 -0.297517 0.249397 -0.277085 0.586770 0.799200 0.927125 -0.866235 -0.586943 0.181702 -0.493763 0.073751 -0.817612 -0.071618 0.454222 -0.449232 0.409039 -0.104994 -0.220294 0.420842 0.247496 1.032425 -0.378483 1.000846 0.062530 0.109529 0.768076 -0.621265 0.637391 0.991486 1.077151 -0.405600 -0.348320 0.693959 0.607862 0.419788 -0.001181 -0.404711 -0.005597 0.059263 0.750571 -0.187493 -0.311760 0.466680 0.154974 -0.001052 -0.120348 -0.070937 -0.667236 0.461372 0.500439 -1.036814 -0.195805 -0.269780 0.564044 -0.089405 0.302906 -0.243686 -0.200019 -0.048933 -0.022551 0.267731 0.400027 0.338913 0.857864 -0.001753 0.029391 0.499736 -0.570960 0.647323 0.186051 0.109480 -0.260065 -0.015493 -0.367660 -0.912984 -0.808183 0.399359 -0.238180 0.076774 0.794570 0.495229 0.228929 -0.850688 -0.545607 0.647377 -0.347589
673 -0.311555 -0.101131 -0.065417 0.001936 -0.063800 0.693824 0.134336 0.150199 0.646503 -0.312035 0.307205 -0.709180 -0.173814 -0.179166 0.532505 0.531649 0.228058 0.274329 -0.255405 0.075280 0.401760 0.245723 0.280162 -0.121371 0.342433 -0.444637 -0.707326 0.120472 0.052849 -0.202005 -0.334399 -0.547757 0.057334 -0.205459 -0.129803 0.026501 -0.042554 -0.430209 -0.038690 -0.109277 -0.234297 0.055585 -0.077828 0.266312 0.351423 0.428813 0.112112 0.572566 -0.179236 -0.448887 -0.281053 -0.123983 0.176782 0.320264 0.288757 0.472999 0.194417 -0.546247 0.631953 -0.069499 -0.012674 -0.579479 0.149391 -0.141941 0.454890 0.325210 0.496266 0.232064 -0.631974 0.340182 -0.025850 -0.224910 -0.230853 -0.652304 -0.091751 0.474480 0.297949 0.240830 -0.063406 0.124667 0.326080 0.808459 0.064130 0.126924 -0.412859 -0.428845 0.063819 -0.038951 0.284396 -0.177566 -0.165406 0.083096 0.200454 -0.005047 -0.156168 0.000413 0.042911 0.436390 -0.634485 0.227479 0.057590 0.152277 0.256831 -0.634456 -0.409102 0.228415 0.005320 -0.463357 0.264138 0.164705 0.066215 -0.398889 -0.370321 -0.356661 0.038757 0.184842 -0.371037 -0.028073 0.179747 0.289502 0.384423 0.236347 0.615971 0.145734 0.322115 -0.077303 0.334417 0.367349
780 -0.756388 -0.150168 -0.042532 -0.169757 0.476723 0.639348 -0.083832 0.348192 0.482043 0.178632 0.102088 -0.111219 -0.183761 0.078698 0.753512 0.032184 -0.005059 0.000650 0.425435 0.048804 0.714039 -0.814049 0.251413 -0.517459 0.214146 0.141976 -0.173621 0.642457 0.774448 0.262591 -0.383277 -0.005667 0.158913 -0.370115 0.331245 -0.464941 -0.056340 -0.454381 -0.556653 -0.122997 0.126334 -0.058921 0.458889 0.387376 -0.404318 -0.000321 0.020464 -0.060593 0.059094 -0.005012 -0.909500 -0.156652 0.008860 0.359242 0.198038 -0.137379 0.270128 -0.236095 0.356320 0.066552 0.088560 -0.293115 -0.008733 -0.038775 -0.073021 0.049063 -0.074335 0.016796 -0.513928 0.074605 0.148925 0.220150 -0.171888 -0.346198 -0.140232 -0.507186 0.189404 0.337817 0.362547 0.298960 0.536555 0.152107 0.126323 0.006137 0.012143 0.078852 0.232346 -0.075020 0.053655 -0.259081 0.004413 -0.541139 -0.521222 -0.092614 0.247347 -0.585066 0.240255 0.326694 -0.284354 0.357805 -0.058503 0.229008 0.014822 -0.483889 -0.432751 -0.394031 0.086034 0.011184 0.616138 -0.040378 -0.052584 0.069513 0.024991 -0.345661 -0.020549 0.336818 0.254495 0.268548 -0.169666 -0.017572 0.000469 -0.389516 -0.179948 -0.442899 -0.529409 -0.376797 -0.296739 -0.012004
1004 0.064959 -0.222533 0.348004 0.515610 0.152627 0.625409 -0.154465 -0.083067 0.846509 -0.272723 0.587934 -1.153103 -0.206680 0.072741 0.278081 0.271890 -0.206464 0.068000 0.054742 0.110248 0.188799 -0.013833 -0.000343 -0.023413 0.040846 0.226746 -0.300978 0.507323 0.093156 0.543289 0.326194 0.012934 0.154329 0.081709 -0.212831 -0.076325 -0.271252 0.281135 -0.047531 -0.024520 -0.304108 -0.202943 -0.593474 0.335377 -0.169157 0.085991 0.257788 0.454963 0.624283 -0.175746 -0.576142 0.130620 0.078127 -0.279802 0.295904 0.474887 0.183995 -0.330988 0.594235 0.179494 0.138296 -0.538148 0.064432 -0.054180 1.061598 -0.146784 0.362647 0.183932 -0.512907 0.359232 -0.177233 0.603961 -0.049383 -0.278425 0.153981 -0.037405 0.407958 -0.234082 0.248414 -0.148902 -0.076665 0.066038 -0.232049 -0.329414 -0.012524 -0.389062 0.145769 -0.154022 -0.207318 -0.125368 -0.390910 -0.175908 0.098126 0.319142 0.908332 0.202740 0.445325 -0.109462 -0.460891 -0.007724 -0.284686 0.099024 0.382810 -0.432477 -0.253965 0.676665 0.141695 -0.310529 0.509344 -0.160429 0.142615 0.311656 -0.103522 0.247095 0.284374 -0.271373 -0.341981 0.347690 0.130492 -0.052624 0.389011 -0.036607 -0.109406 0.406644 0.171647 -0.013813 -0.186668 0.011706
416 -0.246486 -0.276227 0.307111 0.659790 0.727215 -0.170950 0.169870 -0.231313 -0.151258 0.152504 0.247879 0.131414 -0.573986 -0.644945 0.013977 -0.460805 0.263218 0.553911 -0.776234 -0.089661 0.149435 -0.016814 0.418385 -0.864196 0.061268 -0.051991 0.399607 0.215216 0.415663 0.646929 0.019175 -0.348033 0.110635 -0.154683 0.266233 -0.244437 0.323838 -0.346906 0.581361 0.460895 -0.065050 -0.035401 0.288673 -0.088657 -0.388367 -0.432706 0.101838 0.004631 -0.018570 -0.466455 0.469047 -0.201557 0.579340 -0.153339 -0.282582 -0.073881 -0.055315 0.206186 -0.195736 0.169289 0.146072 -0.146567 0.579508 -0.166516 -0.422944 -0.005474 -0.562446 -0.353235 -0.485558 -0.296640 -0.297583 1.004071 -0.441746 -0.066564 0.497344 0.088039 -0.127596 0.375907 0.179645 -0.196677 0.010451 0.484811 -0.758559 -0.074514 0.526084 -0.484966 -0.024104 -0.286050 0.254753 0.259243 0.028541 0.288078 -0.185561 -0.333028 0.053644 0.779891 0.435702 -0.143486 0.631450 0.138430 -0.279194 -0.452912 0.190144 -0.205568 0.076543 0.028978 -0.015105 0.052914 0.802299 -0.565295 0.247666 0.404567 -0.599121 -0.490632 -0.035480 0.065457 -0.248274 -0.428471 -0.043502 -0.136060 0.420866 0.182075 0.190370 0.110519 -0.171536 -0.262669 1.119371 0.201830
483 -0.040577 0.022145 -0.083478 0.315547 0.519136 0.701138 0.040328 -0.171098 1.363198 -0.114621 0.355664 -0.913428 -0.090639 0.348065 0.061676 -0.331558 0.196117 0.399423 -0.043058 0.035245 -0.187232 0.081523 0.022917 0.045558 0.438321 0.233622 -0.585365 0.510598 0.344683 -0.137064 -0.217880 -0.307132 0.291017 -0.212562 -0.320137 -0.315859 -0.168412 -0.502231 -0.247925 -0.190358 0.367139 0.198998 0.057219 0.546294 -0.003313 0.102702 0.579404 0.092560 0.485647 0.393002 -0.097292 0.128752 -0.042699 -0.156405 0.234915 0.029283 0.737319 -0.136124 0.362793 0.196421 0.086817 -0.456868 -0.092099 0.275876 0.331052 -0.090843 0.071988 -0.108768 -0.336937 -0.604700 0.178913 0.127170 -0.019977 -0.385212 -0.192823 0.155240 0.159892 -0.110536 0.249028 -0.300456 0.701706 -0.016993 -0.896799 -0.151791 -0.342347 -0.238375 -0.220735 -0.404627 0.246372 -0.102602 -0.102081 0.096669 -0.148413 -0.546987 0.060912 0.581334 0.264553 0.083548 -0.467261 0.389148 0.098273 0.045189 0.387867 -0.505312 0.036545 0.060828 0.207840 0.167136 0.283781 0.086829 0.359535 -0.468374 0.186676 0.366863 -0.077112 0.308963 -0.395935 0.357480 0.226590 0.384098 0.130004 0.398966 -0.357369 -0.195644 0.044963 0.417950 -0.036858 0.080117
0 0.128502 -0.398937 0.222973 0.565786 0.257162 0.329286 -0.113146 0.012898 0.429420 0.204706 0.205946 -0.248756 0.224246 0.569480 0.724815 0.343917 0.539553 -0.271260 -0.202600 0.246600 0.067092 -0.248651 0.285905 -0.324449 -0.359735 -0.094233 0.079775 0.766986 -0.257460 -0.588530 0.489897 0.077806 0.122303 -0.788960 0.022687 -0.418711 -0.079521 -0.265748 0.052982 -0.247165 -0.181098 -0.256887 0.574549 0.678177 -0.114096 0.095720 -0.181181 -0.425308 -0.513249 -0.119449 0.356305 -0.003498 0.067098 -0.175630 0.569692 -0.228092 0.183145 0.074742 -0.212884 0.202955 -0.044073 -0.141439 0.107794 -0.359966 -0.120138 0.184776 -0.567549 -0.080832 -1.073964 0.129026 -0.179248 0.648300 -0.541396 -0.076639 -0.063243 -0.100670 -0.428586 -0.043329 -0.509337 -0.321810 -0.125979 -0.093096 0.115590 0.127473 0.113145 0.273990 -0.101326 0.131767 0.362965 0.382713 0.040702 0.401585 0.352487 -0.236334 -0.481008 0.717539 0.573287 0.390426 0.105842 -0.420687 0.559146 -0.383737 0.503365 0.050222 -0.417092 0.143068 0.282356 -0.804150 0.423794 -0.103602 -0.222645 0.325569 -0.426184 -0.574861 -0.567802 0.248328 -0.005311 0.483279 -0.542457 0.352744 0.414270 -0.208062 -0.373648 0.899516 -0.286959 0.185036 -0.040351 -0.053218
2050 -0.239053 0.280512 0.341511 0.298634 0.084093 -0.035120 0.702727 0.168084 0.802861 -0.026740 -0.245824 -0.050462 -0.215136 0.495122 0.035869 0.204392 -0.112505 -0.141957 0.646042 -0.284853 0.242203 0.672084 1.139732 -0.350914 0.097500 -0.312090 -0.394469 -0.745351 0.526564 -0.005575 -0.071205 0.113594 0.310052 -0.096208 0.100942 0.768758 -0.103856 -0.572264 -0.670809 -0.010351 0.315616 -0.465112 -0.424080 0.102926 -0.028194 0.086680 0.089761 -0.235179 -0.496455 -1.012364 0.312134 0.454784 0.112816 -0.048384 0.342965 -0.308641 0.284587 -0.176579 0.415177 -0.055256 -0.075027 0.167262 -0.156947 0.490839 0.369389 0.197210 -0.417138 -0.307379 0.020471 -0.184399 -0.148614 0.405425 -0.149612 0.242204 0.616593 0.292569 -0.130833 0.349885 0.407023 -0.725411 -0.069577 -0.175525 0.216088 -0.503365 0.247029 0.326087 0.012098 0.354363 0.078282 0.348308 0.228689 -0.574389 0.006774 0.231243 0.635067 0.593382 0.088147 0.342969 -0.959475 -0.373385 -0.070625 -0.573639 0.138272 -0.824939 -0.068797 0.042116 -0.233515 -0.343760 0.383595 -0.156743 0.551180 0.872996 0.020466 -0.234412 0.131528 0.229113 -0.112560 -0.046625 -0.005980 0.224938 -0.766286 0.022144 0.182153 0.022743 -0.366487 -0.024307 -0.161978 -0.184497
1731 -0.361829 0.348788 0.278874 0.822059 0.075018 -0.192680 -0.323672 -0.195484 0.580094 -0.314403 -0.207193 -0.020723 0.182984 0.130491 -0.157185 -0.456691 0.618782 -0.830284 -0.011540 0.278396 0.276098 0.123393 0.245111 -0.246856 -0.128498 0.662112 0.029835 -0.031227 -0.386704 -0.571243 0.375225 -0.062250 0.545235 -0.897863 -0.470806 0.618170 0.151190 -0.640419 -0.040742 0.330671 0.243653 0.211492 -0.069294 0.936884 0.141168 0.303525 0.725338 -0.297801 -0.328581 -0.352902 0.027236 -0.201145 0.447358 -0.042771 -0.341046 0.098654 -0.410014 -0.553707 0.400133 -0.300229 -0.219409 -0.511457 0.339430 0.327803 0.721712 0.212077 -0.265561 -0.815982 -0.669453 -0.572581 0.086193 0.288836 -0.545628 -0.293331 -0.134224 -0.554525 -0.039066 -0.032017 0.935977 0.496641 1.266021 -0.030787 0.064843 -0.395350 0.400365 -0.145660 0.337935 0.072136 -0.188519 0.636347 -0.083910 -0.583549 0.075454 0.053847 -0.409921 0.083861 -0.042899 0.755210 -0.690169 0.115506 -0.404074 0.095783 -0.422088 -0.147654 -0.618774 -0.260834 0.234227 0.220664 0.237993 -0.078914 0.348797 0.465636 0.544787 -0.339183 -0.473399 0.103853 0.115175 0.174039 0.869240 -0.490291 0.291292 0.160390 0.331120 0.283253 -0.599402 -0.157264 0.307288 0.103725
979 -0.530449 -0.011193 0.881198 0.046864 0.603169 -0.557522 0.331537 -0.244160 0.171923 0.436971 -0.305654 -0.171582 -0.260491 0.017079 0.610625 0.153278 0.036122 -0.104738 -0.067396 -0.362052 0.029507 0.102779 -0.025188 -0.796318 -0.120040 -0.105102 0.226629 0.046048 -0.334105 0.218118 0.134393 0.894715 0.170790 -0.404102 -0.028585 -0.002331 0.289589 -0.441181 0.642923 -0.061517 0.137648 -0.061466 -0.208478 -0.090697 -0.375174 -0.339714 0.028339 0.306637 -0.196742 -0.481662 0.105859 -0.013661 0.226657 -0.080168 0.205099 0.010146 0.010504 0.148651 -0.398140 0.037700 -0.378581 -0.228350 0.307701 -0.477157 -0.005318 -0.051547 -0.312499 -0.607939 0.085159 -0.975872 -0.286497 0.712529 -0.474685 -0.340648 0.582902 1.073110 -0.229306 0.449358 -0.229063 -0.099629 0.795286 0.330957 -0.291258 -0.488729 -0.055374 -0.730858 0.070404 0.394264 0.226750 0.337720 -0.218033 -0.252828 -0.144576 -0.169192 0.325763 0.179694 0.640879 -0.070830 0.146827 0.635882 -0.657950 -0.443858 -0.098481 0.035943 0.370233 -0.202195 0.376859 -0.043603 0.708149 0.136390 -0.233536 0.150579 -0.021835 -0.420432 -0.555066 0.138699 0.017577 -0.224213 -0.076955 -0.016955 0.075626 0.039638 -0.478210 0.306236 -0.054967 -0.414255 0.128347 0.050696
441 -0.340350 0.178122 0.074119 0.440518 0.108351 -0.010182 -0.340792 -0.122058 -0.525787 0.284433 0.079554 -0.670441 -0.341786 0.174368 0.068403 0.133821 0.405212 0.283625 -0.267731 0.189290 -0.277546 0.024769 0.306321 -0.377390 0.081951 0.514654 -0.222105 0.205470 -0.515948 -0.241976 0.695524 -0.115683 0.187175 -0.132411 -0.077244 -0.058235 -0.020457 -0.792954 -0.170889 -0.032636 -0.388717 0.207291 -0.437719 0.743044 -0.025399 -0.505022 -0.041894 0.093688 -0.602960 0.163310 -0.769057 -0.133269 -0.487806 -0.241392 0.056651 -0.104027 -0.147804 -0.045534 0.373638 0.260193 -0.156500 -0.322407 0.066002 -0.005084 0.635256 -0.653304 -0.287886 -0.586587 0.023783 0.305514 -0.248136 0.821834 0.665850 -0.063962 0.335105 -0.214363 0.357146 -0.218704 0.209473 -0.228696 0.093031 0.710993 -0.656327 -0.401838 0.116610 -0.143630 0.352976 -0.292822 0.091276 -0.629898 0.131408 0.530619 0.616998 -0.013511 0.076833 0.389998 0.153209 0.031589 -0.639811 0.030695 -0.301038 0.755345 0.283802 -0.058749 -0.417731 -0.866446 -0.367279 0.445050 -0.084607 -0.129619 -0.104021 0.467557 -0.061472 0.010454 0.571463 0.636748 -0.135080 0.188863 -0.020599 0.138722 -0.069124 0.047617 0.140377 0.205636 0.016689 -0.250658 -0.074289 0.660094
516 -0.195484 -0.188006 0.055330 0.187070 0.213145 0.291409 0.085779 -0.149104 0.753101 0.085084 0.552746 -1.016777 -0.072381 0.190229 0.334215 0.125461 0.140984 0.291674 -0.489293 -0.175255 0.119961 0.175200 0.061524 0.218889 0.242811 0.469878 -0.379290 0.635461 0.085766 0.025916 0.097838 -0.345981 -0.387404 0.010980 -0.230242 -0.053813 -0.412284 -0.110770 -0.193615 0.188996 -0.272304 0.230627 -0.006898 0.359678 -0.398209 0.854600 0.587432 0.352919 -0.292390 -0.168597 -0.237245 -0.227019 0.283982 0.035064 0.073210 0.265777 0.367466 -0.234288 0.589101 -0.078713 0.221942 0.016783 -0.076592 0.472009 0.456341 -0.017319 -0.009670 -0.196502 -0.247803 0.137793 0.064943 0.172831 -0.037341 -0.680389 -0.303750 -0.060306 0.228874 0.002990 -0.195827 -0.027081 0.405327 0.330029 -0.259617 -0.132616 -0.278896 -0.548507 0.049592 -0.010901 -0.232353 0.139951 0.175082 0.144297 -0.087433 0.055552 0.195209 0.303277 -0.135519 -0.444685 -0.448378 0.365013 0.251126 0.080568 0.210270 -0.540165 -0.083896 0.077555 0.078751 -0.304101 0.542636 -0.440645 0.187133 -0.075264 -0.155646 -0.094793 0.027404 0.050020 -0.493893 0.568576 -0.320977 0.043583 0.286229 0.351587 -0.013850 -0.185196 0.154946 0.116425 -0.391976 0.333152
1374 -0.860723 -0.120253 0.543785 -0.101817 -0.180373 0.905669 0.355038 -0.196764 0.555013 0.337581 0.465201 -0.554055 -0.391528 0.304853 0.086141 -0.054773 0.213079 0.310313 0.002197 -0.249384 0.081949 -0.404649 0.166545 -0.812712 0.200383 -0.210541 0.441218 0.384757 1.020334 -0.163034 0.479980 0.149497 -0.387207 -0.375289 0.692769 0.182292 0.024739 -0.638366 -0.269123 0.291569 -0.118510 -0.277905 -0.190805 0.552243 -0.315541 -0.576395 0.137286 0.043758 -0.098705 -0.054363 -0.515502 0.165314 0.230299 -0.344777 -0.587851 0.316487 0.226429 0.056470 0.352493 -0.030736 -0.581099 0.508134 -0.504679 0.055410 0.432280 0.087639 0.866447 0.273614 0.327178 -0.011286 0.695605 0.537965 0.059828 -0.947996 -0.332660 0.139597 -0.209129 -0.026795 0.447697 0.355616 0.608568 -0.188880 -0.014284 -0.180306 -0.602002 0.256569 1.058388 -0.082279 0.023571 -0.612624 0.249714 0.425597 -0.884447 0.104725 0.347325 -0.279085 -0.028753 0.102398 -0.440926 0.227523 -0.239950 -0.006980 0.243876 -0.892745 -0.716155 -0.173146 -0.501676 0.539094 0.532677 0.164472 0.167366 0.356765 0.622645 0.000478 0.072298 0.282705 -0.134116 0.380049 -0.256064 -0.149889 -0.175060 -0.099392 0.150546 -0.032801 -0.158272 0.390944 0.102670 -0.870761
685 -0.211533 0.232808 0.389406 0.295063 -0.510889 0.191578 -0.266532 -0.012126 0.297706 0.286210 0.864850 -0.589541 -0.531125 -0.107109 0.351190 0.004138 -0.142547 0.088893 -0.040740 0.244307 0.446792 0.305485 0.368427 -0.065362 -0.163123 -0.229228 -0.199920 0.656237 0.368785 -0.351182 -0.164079 0.155561 -0.293738 -0.367908 0.044845 -0.119239 -0.109259 -0.345578 -0.098753 -0.639881 -0.232233 -0.083323 0.370218 -0.107081 -0.206239 0.191283 0.193384 0.017115 -0.154183 -0.099248 -0.697118 0.173101 -0.366777 -0.039068 -0.072069 0.082049 0.470886 -0.076971 0.414187 -0.414983 -0.515168 -0.438655 0.685362 -0.335798 0.300292 0.281386 -0.506005 -0.275804 -0.725220 -0.334491 0.306066 0.329595 -0.075396 -0.132377 0.139630 -0.036435 0.088910 0.295403 -0.473054 -0.158000 0.061898 0.267364 -0.361006 0.356573 0.574688 -0.107580 0.199679 -0.504982 0.172362 0.352361 -0.145549 0.285853 -0.070153 -0.564909 0.435600 -0.035790 -0.116874 0.334314 -0.311353 -0.068000 -0.451484 0.498071 -0.422951 -0.210516 -0.314676 0.443262 0.001587 0.585966 0.204068 0.444162 0.033732 -0.352644 0.151117 0.125826 -0.241477 0.231347 -0.141996 0.432524 -0.124720 0.264732 0.218622 0.129511 0.171608 0.195508 -0.102524 0.061902 0.009982 0.337351
916 -0.171537 -0.335900 0.494436 0.422312 0.308832 -0.777638 0.106554 -0.453931 -0.015443 -0.081306 -0.352016 -0.468018 -0.222607 0.810800 0.444707 0.254209 0.231120 -0.562957 -0.133351 -0.484713 0.736686 0.822313 -0.437164 -0.292687 0.589752 -0.441437 -0.635131 0.114480 -0.048700 -0.320807 0.344381 0.275413 0.694337 -0.253745 0.146934 0.101842 -0.816637 0.478348 -0.240394 0.332458 -0.217588 0.365151 0.303670 0.189501 -0.495631 -0.403278 0.428690 -0.392809 -0.071420 -0.825382 -0.202288 0.249252 0.135524 0.629122 0.368639 0.187383 -0.241585 -0.122890 -0.203899 0.501424 0.099479 -0.211611 0.150301 -0.570057 -0.129728 0.316676 -0.033799 -0.487882 -0.313066 -0.771772 -0.037033 0.551482 0.286209 -0.343143 0.703790 -0.037491 -0.120618 0.253581 0.093094 0.203394 0.598814 -0.030231 -0.305506 -0.444235 0.065607 -0.795049 -0.101572 0.670618 0.018656 -0.157568 0.473503 0.478308 -0.262702 -0.211351 -0.134369 0.362962 0.438872 0.189691 -0.063126 0.048143 -0.337700 -0.399467 0.163316 0.580529 -0.075869 -0.456373 0.640758 0.866216 0.070253 0.250120 0.487221 0.217536 -0.007484 0.290018 -0.256717 0.010090 -0.190707 0.493459 0.302890 -0.349300 0.139046 0.047226 -0.030047 0.343114 -0.074706 0.224607 -0.062694 -0.738558
295 -0.182867 0.131712 0.052891 0.565023 -0.284895 0.367713 -0.541808 -0.356485 1.062036 0.410363 0.062761 0.070948 -0.053778 0.435745 0.488239 0.585471 0.152258 -0.798840 0.004039 -0.690803 0.115635 0.093515 0.151436 -0.485353 0.373094 -0.186983 -0.036483 1.122308 0.401221 0.445365 0.136582 -0.337691 0.752396 -0.212203 0.742717 -0.028396 0.258775 -0.123304 0.292845 0.034607 -0.289363 -0.281871 0.434149 0.158544 0.076462 -0.113039 -0.109460 0.288670 -0.404788 0.088838 -0.477025 -0.101033 -0.081513 0.223370 -0.170968 0.264539 0.081386 0.566986 0.852497 0.085315 -0.615203 -0.601960 0.276230 0.193695 0.321314 0.109348 -0.670886 -0.249562 -0.767022 0.656768 0.377825 0.226941 -0.214116 -0.643688 0.038034 0.295272 0.297020 0.535470 0.259341 0.004977 -0.014935 0.403597 -0.331418 -0.273921 -0.398273 -0.266931 -0.044301 0.907661 -0.375930 -0.421460 0.347734 0.049351 0.258576 -0.292288 -0.271540 0.327715 -0.894159 -0.567912 -0.427825 -0.180142 -0.400114 0.482986 0.342013 0.007494 0.004161 -0.295187 0.094148 0.148202 0.403987 -0.361681 0.511471 -0.257776 0.436942 0.337586 -0.471073 0.318363 0.623409 0.073265 0.095403 0.169832 0.243534 0.138506 0.663659 -0.037046 -0.494849 -0.574091 0.012216 0.254876
634 0.343173 0.096811 0.491176 0.982810 0.011345 0.088731 -0.226845 -0.503499 0.824994 0.665366 -0.137936 -0.420725 -0.598850 0.578922 0.692401 0.463443 0.396767 -0.765931 0.010592 -0.533718 -0.309749 -0.013932 -0.325035 -0.914777 0.233919 0.223161 0.222271 1.144184 0.875927 0.430841 -0.043075 -0.805766 0.184822 -0.670160 1.017133 0.412364 0.277044 -0.586672 0.206624 -0.017983 0.318581 0.024648 0.279490 0.309539 0.099415 0.094566 -0.097805 0.224177 -0.518465 0.206304 -0.282073 0.019439 0.399265 0.096753 0.326533 0.312464 0.067697 1.022471 0.671532 0.471455 -0.390972 -0.506005 0.252035 -0.006080 0.495357 0.096394 -0.372182 0.077495 -0.140361 0.324752 0.477847 0.663918 0.241091 -0.834518 0.562628 0.195983 -0.103314 1.109582 0.056281 -0.031476 0.266626 0.152903 -0.571612 -0.168318 0.017804 -0.224876 -0.145956 0.777391 -0.372425 -0.616803 0.507106 -0.174448 0.272600 -0.371279 -0.056306 0.718717 -1.154691 0.024262 -0.117489 -0.727280 -0.541202 0.559947 0.182693 -0.123152 0.485357 -0.409639 -0.143010 -0.027623 0.820637 -0.672383 0.312596 -0.226828 0.626347 0.182357 -0.601969 -0.084131 0.692513 0.279757 0.001002 -0.153234 -0.200800 -0.464541 0.644152 0.379475 -0.399604 -0.783829 0.460547 0.314999
354 0.047849 -0.493264 1.031088 0.550880 0.154200 -0.572289 0.100372 0.714466 -0.095903 0.019802 0.499944 -0.206093 0.519716 -0.520329 0.335973 -0.269720 0.033206 0.314825 0.113474 -0.153994 -0.158942 0.093972 0.336167 -0.985040 -0.230670 0.294924 0.129585 -0.088884 0.021970 0.716962 -0.081829 -1.010988 0.623067 -0.200707 0.075550 -0.551495 -0.307020 -0.856531 0.711925 0.829589 -0.020445 -0.426822 0.459784 0.983685 -0.693018 -0.038225 0.047161 0.132286 -0.068352 -0.122092 0.578971 0.355744 0.568292 -0.147047 -0.324942 0.469564 -0.698917 -0.112996 0.465693 -0.099532 0.306763 -0.411142 -0.292328 -0.208571 -0.364836 0.192102 -0.435033 -0.394754 -0.618875 -0.357722 -0.208969 0.895641 -0.151636 -0.661972 0.167437 0.024546 0.235413 -0.326497 0.393003 0.004190 -0.555594 0.373157 -0.546526 0.012626 0.332878 -0.181010 0.053189 -0.001218 0.374236 0.048334 0.396562 0.447102 -0.072644 0.254559 -0.290748 0.533927 0.075106 0.041237 0.626790 0.130331 -0.653054 0.096908 -0.603853 -0.177211 0.191155 0.197836 -0.586372 0.406431 0.119929 -0.064499 0.898008 -0.368205 -0.375680 -0.512600 0.359195 0.370262 0.134164 0.506768 0.160248 0.035856 -0.023306 0.463778 -0.202773 0.487008 -0.158591 0.166968 0.393860 0.025682
522 -0.951371 0.012824 0.210191 0.092727 -0.142905 0.492118 -0.267350 -0.161391 0.378127 -0.183068 0.332199 -0.621609 -0.414872 0.575369 -0.244677 0.238949 0.399653 0.585261 -0.061641 -0.281583 0.181852 0.011109 0.310133 -0.054588 0.589826 -0.329238 0.519051 -0.102036 0.371639 -0.016786 0.383896 0.128445 -0.255995 -0.504456 0.007923 0.334951 -0.208468 -0.468588 -0.331737 -0.421171 -0.189319 0.062465 -0.264731 0.332764 -0.308263 0.000709 0.133330 -0.142949 0.158199 0.037605 -0.552467 0.291817 0.448873 -0.352532 -0.241410 0.556144 -0.305545 -0.160100 0.108345 0.361636 -0.260181 -0.431696 -0.256814 0.281513 0.531956 -0.111113 0.497748 0.088323 -0.170670 0.057881 0.507017 0.453741 -0.243393 -0.880111 -0.176894 0.276929 0.330696 -0.190890 -0.123506 0.051648 -0.066163 -0.264344 0.094463 -0.209137 0.002746 0.066224 0.062277 -0.183639 0.249207 -0.317829 0.571042 0.372823 -0.156907 -0.443037 0.436547 0.111842 -0.111842 -0.057909 -0.165856 0.298232 -0.164405 0.223639 0.091682 -0.896020 -0.329251 -0.055884 -0.164862 0.538353 0.346217 0.219943 -0.091050 -0.297625 -0.120406 -0.092766 0.008806 0.460372 -0.008323 0.154438 -0.276174 -0.286358 -0.081261 0.078480 0.363422 -0.178974 -0.415201 0.536470 -0.031451 -0.245957
1150 0.322047 0.215517 0.374004 0.358539 0.840450 0.203204 -0.293986 0.287097 0.367556 0.507949 0.330604 0.040150 -0.394695 -0.155872 0.389108 0.163538 -0.099579 0.081544 -0.023895 1.307536 0.238187 0.649919 0.728434 0.011387 -0.483137 0.779413 0.195639 -0.623711 0.478930 0.068254 0.044920 0.069251 -0.488818 -0.111210 0.286273 -0.062259 -0.163537 -0.813146 -0.224607 0.221154 0.167835 -0.318669 -0.514983 0.784599 0.220609 0.045770 0.502838 -0.034873 -0.215412 -0.469963 0.088333 0.551251 -0.127377 -0.964850 -0.508340 -0.065484 -0.306665 -0.471062 0.563494 0.086011 -0.044859 -0.150141 0.043549 0.577425 0.550576 -0.076348 -0.470292 -0.478180 -0.483632 -0.036121 -0.452699 0.744832 0.175281 -0.312180 0.693994 -0.607413 -0.191665 0.033134 0.243428 0.044276 0.136066 0.091980 -0.256563 0.001595 0.010651 -0.187397 0.380225 0.774323 0.312081 -0.167861 -0.093339 0.283645 0.196538 -0.416639 0.040821 0.531449 -0.048533 -0.357683 -0.197142 -0.038006 -0.167371 -0.248151 0.692455 -0.013111 -0.037699 -0.818230 -0.308536 0.588530 -0.146345 0.951157 -0.124242 0.030579 -0.616185 -0.322716 0.500291 0.499560 0.275151 0.528392 0.120232 0.369965 -0.036072 0.490823 0.022158 0.407010 -0.132161 0.354346 0.166903 0.265036
876 -0.520405 0.385584 0.395602 0.543241 0.184525 0.002380 0.228055 0.777356 0.102583 -0.054669 0.315634 -0.107257 -0.484301 -0.077987 0.043091 -0.099887 0.196713 -0.724774 0.099364 -0.218085 0.605953 -0.078232 0.127190 -0.367210 0.572400 -0.163966 0.002498 0.442320 0.155698 0.327934 0.024137 -0.029897 0.039032 -0.641657 -0.245800 0.015931 0.427576 -0.430015 -0.488637 0.329053 -0.196205 -0.371313 -0.019677 0.206670 0.060968 0.200700 0.746328 0.785301 0.670129 0.155317 -0.038400 0.193887 -0.345746 0.168687 0.102052 0.081407 -0.547910 -0.105708 0.381538 -0.305034 -0.404578 -0.090144 0.309714 -0.169064 0.336087 0.036407 -0.773952 0.682959 -0.880768 0.218387 0.322541 0.142148 -0.119567 -0.252537 -0.231140 0.212490 -0.160563 0.411353 0.450945 -0.217564 0.405966 0.377418 -0.350518 0.033536 0.328641 -0.007601 -0.226395 -0.347320 0.111481 -0.564166 0.103489 0.842353 -0.025498 -0.629775 0.584750 0.200754 -0.091706 -0.498140 -0.779949 0.472688 -1.050257 0.300045 0.123345 -0.243828 -0.585961 -0.344489 -0.014389 -0.374441 0.406937 -0.044735 0.278614 0.078028 0.584808 0.392030 -0.598875 -0.603586 0.656548 0.412159 -0.346074 -0.343036 0.087656 0.111496 0.056211 -0.362805 -0.370005 -0.282813 -0.114366 0.172009
848 0.201037 0.097530 0.288002 0.084206 0.391071 0.157047 -0.226464 -0.023599 0.427102 -0.141300 -0.040353 0.269041 -0.387644 0.171455 0.161993 -0.072467 -0.111050 -0.701165 -0.086130 0.240078 0.406132 0.755660 0.241268 -0.895259 -0.015674 -0.218398 0.051534 0.494487 0.089317 0.241035 0.230148 0.169171 0.013798 0.391459 0.119462 -0.015271 -0.310579 -0.660891 -0.401325 0.274263 -0.128398 0.277734 0.311077 0.232691 -0.451182 -0.055128 0.614223 -0.038023 -0.033221 -0.238334 0.273258 -0.370851 -0.043643 -0.151760 -0.261261 0.239938 0.161884 -0.091351 -0.281038 -0.483457 -0.082972 0.515343 0.104221 -1.159378 -0.075557 0.595665 -0.027840 -0.829525 0.034518 -0.244363 0.227378 0.411204 -0.345884 -0.350580 0.558478 0.948955 -0.378194 0.264840 -0.467204 -0.009265 0.271979 0.758987 -0.611391 0.229601 0.034009 0.215289 -0.422821 0.390931 0.343190 0.234775 0.209028 -0.997058 0.071965 0.081525 -0.230705 0.025333 0.415444 0.125346 -0.028470 -0.039699 0.081958 0.374763 0.632412 0.536401 -0.203811 -0.575816 0.295090 0.117361 0.695857 0.432105 -0.478057 0.169407 -0.229065 0.112072 0.206357 -0.054165 -0.104737 0.301122 -0.404143 -0.010068 0.109000 0.252695 -0.072074 0.275925 -0.230041 0.212924 -0.017228 -0.011250
495 -0.524675 0.320085 0.952977 0.210065 0.621458 -0.417813 0.413944 0.066370 0.528307 0.282141 -0.345150 -0.036480 -0.259067 -0.073491 0.746980 -0.420317 -0.627858 0.033157 0.060288 -0.269804 -0.080665 0.081557 0.073060 -0.900176 0.080755 -0.164930 0.176073 -0.226627 -0.184198 -0.188496 0.522945 0.699524 0.290008 0.037290 0.141670 0.035533 0.078329 -0.459635 0.695263 -0.180898 -0.012032 -0.044000 -0.198544 -0.099976 -0.241891 -0.452871 0.192046 0.173799 -0.134928 -0.471036 0.283115 0.026983 0.018475 -0.056145 0.447371 -0.026280 -0.477783 0.120255 0.061007 0.178520 -0.654186 0.024862 0.327605 -0.565669 -0.111467 -0.379623 0.017700 -0.716637 -0.165260 -0.923256 -0.221004 0.688639 -0.561625 -0.367760 0.253366 0.909934 -0.084974 0.337918 -0.233595 -0.035795 0.817529 0.362950 -0.422287 -0.327696 -0.112173 -0.929457 -0.026365 0.512718 0.077735 0.399832 -0.145261 -0.214122 -0.009866 -0.544373 0.144152 0.381256 0.652079 -0.068694 -0.042645 0.891574 -0.575238 -0.324468 -0.023751 0.219501 0.144992 0.045136 0.337146 0.010696 0.297923 -0.151210 -0.122391 0.137061 -0.132607 -0.263876 -0.788222 0.308916 -0.131942 -0.363859 -0.238561 -0.305539 0.144865 0.002970 -0.577754 0.269211 -0.331577 -0.636099 -0.078869 0.129951
447 0.173059 -0.073708 -0.997254 0.838935 -0.569549 0.217930 -0.002238 -0.177166 0.728167 0.100258 0.152055 -0.068791 0.091624 -0.241296 0.895798 0.493260 0.091963 0.013393 0.133637 -0.418867 0.020463 0.193978 0.051104 -0.051477 0.441741 -0.026481 0.038070 0.838897 -0.316631 -0.312769 0.198806 0.128204 0.433784 -0.808377 0.776760 0.209550 -0.008238 -0.491235 -0.493516 0.459597 -0.133637 0.028270 0.162700 0.403936 -0.157760 -0.162220 0.764002 0.573578 0.328407 -0.210484 -0.349619 0.284941 0.187826 0.020010 -0.113965 0.692830 0.275589 0.333329 0.707237 0.035648 -0.038017 -0.791895 0.024965 0.440430 0.152269 -0.669047 -0.607774 -0.162299 -0.672082 0.125810 0.626526 0.108210 -0.503865 -0.155697 0.048979 0.137270 0.015488 0.420130 0.116214 -0.102578 0.526436 0.367264 -0.332213 0.252104 0.438836 -0.325108 -0.573979 0.120025 -0.468666 -0.005915 0.450257 -0.435269 0.419307 0.575172 -0.065846 0.339022 -0.153580 -0.608984 -0.202095 -0.360486 -0.164240 -0.514571 0.294128 -0.518634 0.483006 -0.234629 0.147295 0.242274 0.068392 0.059148 -0.167121 -0.032747 0.011136 0.821321 -0.299138 0.448957 -0.510087 0.142116 0.114535 0.468237 0.267689 0.683136 0.617999 -0.045595 -0.725516 -0.558386 -0.174360 -0.124119
202 -0.002593 -0.370679 0.368390 0.081155 0.120597 0.190493 -0.232193 0.281409 0.491090 0.025461 -0.126115 -0.147547 -0.301122 -0.356556 -0.712372 0.328785 0.110886 -0.005867 -0.150349 0.274554 -0.510895 0.467811 0.112921 -0.522118 -0.176681 -0.471119 0.296445 0.230670 0.065595 -0.214477 -0.059083 0.219291 0.461645 -0.956734 0.041436 0.034268 -0.624311 -0.207230 0.362539 0.550811 -0.108416 0.437846 0.354776 -0.200600 -0.660865 -0.272557 0.044219 -0.510508 -0.220687 -0.385050 0.023046 -0.226798 0.918881 -0.085948 -0.187001 -0.123634 0.073930 -0.221596 -0.056699 0.154758 0.100893 0.780256 0.547896 0.343693 0.414977 -0.020244 -0.074727 -0.653263 0.097952 0.229054 0.466395 0.918629 -0.663180 -0.214759 1.230647 -0.106270 0.681728 0.397516 -0.088209 -0.304508 0.460342 0.421911 -0.339086 -0.139093 -0.419584 -0.380744 -0.036397 -0.357430 -0.284971 0.141530 0.233081 -0.235569 -0.445105 -0.266289 -0.027221 0.443985 -0.195248 0.345789 -0.750831 -0.285876 -0.418496 -0.549200 0.386933 0.411335 0.166473 -0.544203 0.667741 -0.305977 0.344467 0.095980 -0.573723 0.499825 -0.153378 -0.208165 0.334255 0.033452 0.272333 -0.051690 -0.357718 -0.091748 0.263215 -0.367913 -0.157032 0.432955 -0.109184 -0.087576 0.168124 -0.634569
1386 0.023376 0.291063 0.880406 0.962712 -0.203192 -0.407838 -0.233424 0.779202 -0.189208 0.228395 -0.675053 -0.932601 -0.098220 0.118480 0.031664 0.750302 0.368126 0.750066 0.531876 0.652538 0.505583 -0.116888 -0.227688 -0.894630 1.043941 -0.323960 0.824961 0.351929 -0.031307 -0.618934 -0.235204 0.221106 -0.644040 -0.458792 -0.286824 0.341951 0.057821 -0.980754 0.174466 0.215229 -0.305759 -0.526306 -0.035967 0.753949 -0.639054 0.679512 -0.180791 -0.260400 -0.293402 -0.561880 -0.359037 0.411251 -0.337745 0.078502 0.767841 -0.797866 -0.386843 0.572719 0.446160 -0.191774 0.666765 0.465095 -0.125945 -0.033831 -0.081271 0.365991 -0.228249 -0.142033 0.053544 0.078684 0.206113 0.643429 -0.049638 -0.162683 0.024462 -0.145304 -1.055658 0.193500 -0.159807 0.129361 0.203571 0.849776 -0.418964 -0.599598 0.149368 -0.567086 -0.077469 -0.133624 -0.441797 -0.591888 0.049006 0.349427 -0.163484 0.701094 -0.535090 0.358681 0.788099 -0.177710 -0.666154 -0.080821 -0.800659 0.376291 0.010441 -0.485503 0.063685 -0.007005 -0.263591 -0.080547 -0.192980 0.166526 -0.356648 0.098956 -0.711236 0.330289 -0.351581 -0.737106 0.044856 -0.012548 -0.015597 1.021553 -0.394129 0.214266 1.072796 0.044191 -0.753492 0.082017 0.356075 -0.420529
855 -0.032191 0.925409 1.057873 0.295112 0.356186 -0.564120 0.057583 0.479664 0.065484 -0.623365 -0.504025 0.125504 -0.006700 -0.197025 0.313530 0.386117 -0.701907 0.054866 -0.313487 -0.601036 0.500956 0.436409 -0.666283 0.235763 -0.225302 0.681348 -0.258904 -0.199000 0.346854 -0.449984 0.203697 0.118297 0.266839 -0.639957 0.529043 0.428027 0.436528 -0.031454 -0.221703 0.617987 -0.045870 -0.536244 0.604301 0.321881 -0.016695 0.154279 0.383021 -0.543911 -0.276213 0.147065 0.360255 -0.267299 0.204361 -0.232370 -0.153593 0.491023 -0.123475 -0.204990 -0.418691 0.006529 0.281591 -0.119468 -0.459129 0.159128 0.774642 0.233010 -0.391580 0.073181 -0.967023 -0.561844 0.021873 1.083224 0.110045 -0.863787 0.304332 0.451292 0.019402 0.615389 0.621786 0.105227 -0.098762 0.145462 -1.166204 0.214224 -0.527312 -0.500332 0.058162 -0.197537 0.273732 0.065502 0.457466 -0.762605 0.152882 -0.204110 0.579951 -0.482542 -0.374100 0.482421 -0.116559 -0.363764 0.053756 0.113268 0.628168 -0.216197 -0.345400 -0.052098 -0.130036 0.009630 0.471472 -0.052413 0.121687 0.135659 0.284544 -0.159832 0.259803 -0.019155 0.363077 0.246804 0.080099 -0.129036 0.309741 -0.088264 0.732114 0.327461 -0.331492 0.055855 0.212837 -0.153745
608 -0.006488 0.206523 -0.174739 -0.148202 0.385935 0.462401 0.170296 -0.287301 1.282019 -0.441990 0.732280 -0.479221 0.110032 0.144035 0.182519 0.211876 0.211259 0.125612 -0.518521 -0.062027 0.268424 0.542153 0.327902 0.386918 -0.028318 0.022640 -0.611898 0.072119 -0.121821 -0.110069 0.209706 -0.692465 -0.244720 -0.939180 0.184326 0.125508 -0.338221 -0.363648 -0.564296 0.149416 0.190909 0.144431 -0.445639 0.647034 -0.288070 -0.191767 0.220156 0.174841 -0.274962 -0.108149 0.058008 0.143303 -0.241489 0.183830 -0.012732 0.221086 0.561524 0.294874 -0.117609 0.804626 0.005259 -0.133457 -0.081163 -0.145204 0.142147 -0.234010 0.104337 0.401278 -0.553127 -0.189565 0.298284 0.003079 0.096951 0.021061 0.124447 -0.065836 -0.050670 -0.101494 0.577154 0.322437 0.782015 0.592833 -0.642693 -0.090607 -0.229896 -0.392086 -0.075712 -0.264435 -0.367401 -0.325462 0.317322 0.124639 -0.316876 -0.809519 0.455664 0.243392 -0.089559 -0.176660 0.017895 0.448441 -0.116294 0.213818 0.513403 -0.575342 0.084772 0.046137 -0.451304 0.111055 0.774535 0.075047 0.118708 -0.052803 0.029429 -0.195565 0.439151 0.132876 -0.915203 0.432699 0.292999 0.469614 0.042000 0.349298 -0.461724 -0.257246 -0.052872 -0.372224 -0.264186 -0.000089
1747 0.286217 -0.313088 -0.444779 0.611506 0.498070 0.502755 0.246458 0.132195 0.280245 -0.011748 -0.709426 -0.131038 0.025462 0.200840 0.200257 0.193413 -0.456981 -0.322970 0.267176 0.212404 0.289749 0.027579 1.025079 -0.543521 0.339822 -0.387683 0.718228 0.651688 -0.130490 0.123137 0.374291 -0.699891 -0.064134 -0.286646 -0.058159 -0.830644 -0.862363 -0.497905 0.543363 0.130356 -0.213831 0.378459 0.536673 0.819146 -0.400990 0.582249 -0.865491 -0.251050 -0.518257 -0.899390 -0.572552 0.276273 -0.530040 -0.690203 0.620969 -0.295563 0.232654 0.562414 -0.216634 0.237849 0.028744 0.325479 0.023989 -0.057995 0.610486 -0.697490 -0.090221 0.096816 -0.906168 -0.255561 -0.208817 1.049213 -0.464332 -0.073779 0.391025 0.748270 -0.970926 -0.245903 -0.652178 0.402433 0.103492 0.389452 -0.422625 -0.398295 0.179447 -0.436983 0.548261 0.094817 -0.279520 -0.259808 -0.152531 0.458046 0.004573 0.307287 -0.235178 0.102747 0.394191 0.583809 -0.319549 -0.143539 -0.466119 0.088658 -0.613408 -0.250395 0.368335 -0.117660 0.357188 0.668905 -0.192410 0.232894 -0.062968 -0.028578 -0.474864 -0.795623 -0.150892 -0.788633 -0.308653 -0.355822 -0.110460 0.361611 0.755002 0.590840 -0.185076 -0.295274 -0.987350 -0.026916 -0.276055 -0.399839
769 -0.263360 0.164875 0.246273 0.341042 -0.387488 0.497249 -0.050285 0.491737 0.144651 0.191444 0.737816 -0.775044 -0.395246 0.040312 0.304429 0.334582 -0.354462 0.265529 -0.048528 0.424016 0.422153 0.398733 0.072266 -0.302196 0.313148 0.062474 -0.456498 0.178831 0.727813 -0.474215 -0.302729 -0.298605 -0.303298 -0.674925 -0.286200 -0.020182 -0.200247 -0.233947 -0.090835 -0.453214 -0.647656 -0.446007 0.426115 -0.059140 -0.167343 0.519410 0.201830 -0.273155 -0.280967 -0.240750 -0.778182 0.220384 0.151720 -0.190880 -0.230646 -0.197502 -0.260933 -0.180432 0.638180 0.029521 -0.265807 -0.305042 0.422145 -0.799087 0.383216 0.045890 0.001780 -0.368769 -0.173220 -0.013665 0.428182 0.292699 -0.158765 -0.397422 0.134114 0.106099 -0.282337 0.526257 -0.376442 0.169137 0.367882 0.219988 -0.106508 0.452855 0.535232 -0.147833 0.180141 -0.557636 0.145068 0.059358 0.235134 0.296659 0.421140 -0.408311 0.157035 0.244621 0.095239 0.636719 -0.216320 -0.211790 -0.231253 -0.142929 -0.393136 -0.162993 -0.405774 0.314964 0.675984 0.204381 0.002950 -0.021513 0.222283 -0.211307 -0.183679 -0.091545 0.217126 0.166157 -0.164776 0.490581 -0.199270 0.487964 0.184570 0.251083 0.565983 -0.235586 -0.393422 -0.153356 0.336536 0.922426
57 0.138184 -0.093325 0.190267 -0.349282 0.063065 -0.529275 0.146003 0.056739 -0.132650 -0.818847 0.131840 -0.349156 0.269682 1.165834 -0.070137 -0.130789 -0.305962 0.023772 0.306169 -0.044282 -0.114044 0.737139 -0.087563 -0.962820 -0.838388 -0.006034 0.042352 0.472244 0.386783 -0.150823 -0.053590 -0.593991 -0.404794 -0.794136 0.359308 0.116418 0.519400 -0.231135 0.270005 0.014563 0.118211 0.343280 0.588412 1.448364 -0.351108 0.419726 0.153477 0.424339 0.728713 -0.450142 0.024551 0.014626 0.672265 -0.149722 0.341509 -0.141839 0.693607 -0.396792 -0.681424 -0.043865 -0.395413 0.109463 -0.050147 -0.115085 0.578977 0.588310 0.069472 -0.208697 -0.520227 0.669582 0.340325 1.083460 -0.507968 -0.114860 0.143192 0.221875 -0.589492 0.167659 0.090424 -0.040072 0.022402 0.179529 -0.376634 -0.560024 0.349787 -0.718623 -0.115770 0.026253 -0.360041 0.270318 1.078998 -0.113061 -0.058648 -0.043667 -0.201393 -0.589746 0.456622 0.710558 -0.012633 0.274763 0.142507 -0.327358 0.121007 -0.238296 -0.967619 -0.050507 0.189393 0.499791 -0.168788 -0.214042 -0.003877 -0.104782 -0.039351 -0.051885 0.093904 0.024670 0.118649 -0.511045 -0.005877 0.420510 -0.236447 -0.217423 -0.171911 0.233524 -0.567510 -0.293262 -0.127128 0.000179
429 -0.321579 -0.139858 -0.218907 0.401165 0.581003 0.303005 -0.084388 0.252114 0.091689 0.187228 0.011789 -0.531589 -0.247880 0.056972 0.005072 0.299931 0.109094 -0.345011 0.419342 0.122263 -0.242105 -0.293017 0.095463 -0.662529 -0.284650 -0.190977 -0.263208 0.166631 0.084635 0.210012 0.016464 -0.194814 0.502350 -0.054641 0.829119 0.467324 0.277968 0.271765 0.605769 0.617807 -0.270801 0.035479 -0.647756 0.333354 -0.204671 0.540073 0.141818 0.106629 -0.152526 -0.220105 0.273716 -0.089394 -0.085989 -0.587228 0.060471 0.314420 -0.687791 0.180816 0.715457 -0.109556 -0.285675 -0.306126 0.416640 0.472299 0.035533 -0.203921 -0.268454 0.087030 -0.913470 0.197727 0.382804 0.184056 -0.145360 -0.325633 -0.147325 -0.469526 -0.308463 0.525535 0.491064 -0.217736 0.762863 0.446332 0.145494 -0.418853 -0.299117 0.002564 0.033066 0.669695 0.166237 0.223544 0.409903 0.027872 0.401992 -0.259925 -0.365668 -0.356101 -0.141633 0.092723 -0.024852 0.033117 -0.857349 -0.110423 -0.125817 0.329035 -0.578543 -0.240885 -0.038713 -0.060668 0.578288 0.100677 -0.029726 0.530892 0.361866 0.130703 -0.819932 0.411412 0.536347 0.325481 -0.005869 -0.054359 0.389522 0.428583 0.369244 -0.276342 -0.448339 0.797425 0.204567 -0.055029
1460 -1.329547 0.131349 0.631796 0.183090 -0.482830 1.025358 0.458775 -0.164172 0.497221 -0.031917 0.573717 -0.645087 -0.632476 0.504557 -0.265610 0.118604 0.334792 0.357869 -0.207159 -0.091765 0.094408 -0.156492 0.162781 -0.539157 0.172534 -0.142807 0.469712 0.126048 0.827429 -0.371935 0.328755 0.116043 0.023369 -0.354165 0.330688 0.449663 -0.073455 -0.480564 -0.200192 0.195621 -0.309273 -0.098036 -0.426775 0.220335 -0.566581 -0.430993 0.042281 -0.031701 -0.166497 -0.223480 -0.436227 0.183343 0.518963 -0.334003 -0.447497 0.541916 -0.038640 0.343602 0.528665 0.167302 -0.265452 0.581289 -0.204958 0.238472 0.665763 -0.179446 0.967660 0.170344 -0.318070 0.161809 0.774216 0.445123 -0.454312 -0.948157 -0.319865 0.270385 -0.394167 0.168383 0.580058 0.172447 0.191986 -0.218491 -0.115141 -0.334196 -0.506702 0.412760 0.555297 0.018075 -0.053024 -0.102442 0.181876 0.531801 -0.855460 -0.064314 0.179606 0.084874 0.133286 -0.157220 -0.034805 0.672460 -0.205477 -0.180359 0.242391 -0.812089 -0.529981 -0.568094 -0.319920 0.814982 0.372777 0.231795 0.246885 0.145987 0.411227 0.238205 0.155568 0.647051 -0.097393 0.296555 -0.572598 0.011472 0.006810 0.208429 -0.147694 0.027410 -0.156069 0.749323 0.158295 -0.484566
51 -0.223283 -0.196945 0.196296 0.296188 0.276652 0.412586 0.153637 -0.140381 1.167621 0.139180 0.311078 -0.566023 -0.375264 0.261385 0.157518 0.339634 0.168703 0.250328 -0.346987 -0.203893 0.029722 0.150051 0.179927 0.130547 0.133116 0.411765 -0.641353 0.826395 0.152842 -0.138271 0.215735 -0.134395 -0.147463 -0.024000 -0.287881 -0.134357 0.055652 -0.355281 -0.053914 0.194484 -0.087300 0.218985 -0.055850 0.276777 -0.342146 0.085207 0.762833 0.458500 0.548225 -0.171602 -0.168079 -0.184493 0.262258 -0.301954 0.052173 -0.257552 0.415970 -0.651670 0.347140 0.553013 0.136260 -0.361039 0.011043 0.201821 0.397563 -0.229956 0.234247 0.033533 -0.318470 -0.069488 -0.003179 -0.247479 -0.034511 -0.463417 0.401758 -0.285832 0.230983 0.109493 0.087363 0.209382 0.278978 0.035148 -0.778535 -0.328609 -0.433965 -0.300671 -0.122163 -0.413994 -0.140265 0.064763 0.119008 -0.081833 0.041025 -0.017543 -0.181749 -0.068326 0.291690 -0.018252 -0.035653 0.182533 -0.404758 -0.020977 -0.203620 -0.916222 -0.061965 0.059096 0.172874 0.195495 0.496140 -0.170816 0.255925 -0.280024 -0.464375 0.527419 -0.010617 0.024437 -0.416177 0.677675 0.120001 0.067462 0.068730 0.450431 -0.115209 -0.236524 0.218439 0.109789 -0.338914 0.037353
1083 0.342160 -0.013310 0.364691 0.159233 0.094723 -0.211310 -0.289725 0.301930 0.366981 -0.037883 0.773158 -0.402254 -0.306797 0.305134 0.360921 0.166843 0.293535 0.659125 0.417764 0.928185 0.557154 0.931088 0.511965 -0.385875 0.407453 0.516030 -0.021716 -0.374852 -0.286496 -0.210016 0.362889 -0.374604 -0.282553 -0.127960 0.640553 -0.381919 0.110693 -0.816507 0.227398 0.274131 0.182387 -0.418169 -0.575097 0.359605 0.123078 0.034764 -0.357563 0.169457 -0.780450 -0.881713 -0.087230 -0.347754 -0.040357 -0.178255 -0.097881 -0.610125 -0.494330 -0.613530 0.147842 0.182651 -0.427402 0.328136 0.228448 0.725834 0.505728 -0.597363 -0.436579 -0.175472 0.107287 -0.707676 -0.455960 0.899521 -0.039418 -0.760833 0.419941 -0.794263 0.491303 -0.143041 0.114662 0.081794 0.906604 0.277066 -0.666250 -0.075094 -0.415792 -0.261853 -0.148472 0.699706 0.278195 -0.533388 -0.201473 0.217823 0.327494 -0.453939 0.435427 0.923774 -0.220995 -0.155858 -0.263632 -0.066165 -0.272807 0.291613 0.699640 -0.357020 0.425557 -0.760380 -0.280552 0.981395 -0.475427 0.373034 -0.768734 0.306035 0.055531 -0.427851 0.251095 0.109398 0.288962 0.145487 0.332310 0.344545 -0.271604 0.196654 -0.465254 0.179790 -0.409808 -0.304413 -0.216455 0.068567
1980 -0.188824 0.338993 -0.050204 0.638635 -0.273700 -0.012781 0.568043 0.355971 0.725163 0.108576 -0.034972 -0.486783 -0.152726 0.163274 0.242547 0.252860 -0.065026 -0.138970 0.627051 -0.578005 0.691485 0.463028 1.252916 -0.692847 0.018835 -0.150748 -0.334938 -0.436895 0.499702 0.033718 0.075849 -0.184274 -0.165093 -0.157705 0.206723 0.676972 0.150361 -0.659541 -0.734756 -0.015936 0.140512 -0.003846 -0.534005 0.109057 -0.094108 -0.324329 0.183281 -0.468395 -0.460135 -1.242339 0.301177 0.150858 -0.127281 -0.249636 0.510356 -0.218075 0.009468 0.255993 0.518791 -0.122998 -0.274421 -0.040098 0.264569 0.333320 0.240423 -0.107524 -0.389694 -0.883986 0.156405 -0.443832 -0.185510 0.389092 0.089238 -0.068624 0.535330 0.333249 -0.090875 0.069574 0.061604 -0.430103 -0.063537 -0.575564 -0.053748 -0.178066 0.135897 0.412714 0.516753 0.177217 0.329611 0.543218 0.518935 -0.688846 0.289378 0.121065 0.478064 0.319071 -0.260180 -0.010294 -0.431678 -0.505385 -0.176486 -0.421340 0.506558 -0.878692 0.080687 -0.151967 -0.264707 -0.080263 0.207630 -0.319741 0.575942 0.669118 0.501988 -0.149543 0.295205 -0.268962 -0.275247 -0.000319 -0.103855 0.298721 -0.880861 -0.169768 0.207053 0.225788 0.332524 -0.406682 -0.052452 -0.154402
218 -0.275306 -0.065393 0.299694 0.141433 0.379201 -0.016438 0.204637 0.498289 0.078307 -0.147754 0.085356 0.099833 -0.446550 0.135738 0.172529 -0.099016 0.321103 -0.669326 0.187883 -0.150600 0.759955 -0.250268 0.338550 -0.180764 0.350535 -0.073936 -0.218060 0.361271 0.128863 0.012226 0.014501 0.073112 0.095080 -0.547831 -0.302980 0.123373 0.683285 -0.777881 -0.487389 0.296034 -0.325311 -0.400793 -0.163230 0.393317 0.047405 0.275263 0.561175 0.714260 0.568595 0.022802 -0.084963 0.268658 -0.264380 0.165981 0.304590 0.248362 -0.548559 -0.129523 0.506825 -0.064877 -0.338085 -0.077495 0.197598 -0.107974 0.319220 -0.061892 -0.482384 0.731593 -0.713916 0.086091 0.051545 0.269084 -0.035231 -0.507168 -0.055334 0.330915 0.004483 0.380200 0.378627 -0.214674 0.506218 0.291010 -0.168666 0.077608 0.456824 0.153568 -0.115098 -0.373334 0.089288 -0.569074 -0.048873 0.909871 0.055844 -0.541188 0.311539 0.195701 -0.305845 -0.558949 -0.579631 0.271301 -1.180628 0.531158 -0.003380 -0.458374 -0.635415 -0.312557 -0.245812 -0.454145 0.525844 -0.320905 0.333282 0.159025 0.615557 0.588799 -0.744731 -0.451435 0.511554 0.393240 -0.329012 -0.287094 -0.050909 -0.045208 0.152499 -0.346096 -0.354671 -0.252078 -0.062020 0.093820
389 0.627071 -0.276227 0.794882 -0.099794 0.672861 0.055083 -0.340452 0.043765 0.239228 -0.102682 0.092374 -0.541979 -0.545817 -0.957630 0.501515 0.059985 -0.050854 0.488617 0.155631 -0.385179 0.392683 -0.205426 0.511282 -1.331032 0.202330 -0.094710 0.048323 0.003153 -0.259408 -0.244045 0.015185 -0.624031 0.057054 -0.251036 0.513078 1.074166 -0.615781 0.146310 0.247492 -0.011549 0.539557 0.391167 0.259274 0.333926 -1.021683 -0.100177 0.210788 -0.139400 0.162179 -0.490491 0.171340 0.442563 0.062012 0.511746 -0.194171 0.131403 -0.103494 -0.207437 0.067157 0.263597 -0.088748 0.603699 0.422621 0.092782 0.520818 0.667074 -0.050804 -0.173514 0.196406 -0.059474 -0.047923 0.483811 -0.824902 -0.356780 1.035539 0.240770 0.241554 1.121674 -0.250363 -0.679162 0.148768 0.184494 0.182167 -0.455769 -0.472084 -0.004667 -0.311903 -0.590977 -0.323918 0.548346 -0.736519 0.282670 -0.091178 -0.262719 -0.296584 0.551564 -0.185880 0.408500 -0.182716 -0.044672 -0.796666 -0.422756 0.204453 -0.580663 0.121465 -0.121100 0.706855 -0.478317 0.268121 -0.116571 -0.217221 0.420713 0.030901 0.190647 0.220685 0.075627 -0.032385 -0.604759 -0.160622 -0.317564 0.271272 0.334474 -0.319851 0.025799 -0.500215 0.228390 -0.374249 -0.098703
1254 -0.463210 -0.033919 0.305798 0.317419 0.401812 0.173798 0.595505 0.557428 0.166980 -0.015360 0.264060 -0.458923 -0.083200 0.254120 0.390280 0.527120 -0.381359 -0.085800 -0.061610 0.031239 0.051808 0.009774 0.488029 -0.455153 -0.075580 -0.399012 -0.607677 0.667546 0.390242 0.833130 0.155124 0.626092 0.399081 0.013582 0.748191 0.138053 0.334666 0.195632 0.318525 0.635691 -0.371417 -0.021507 0.136421 0.969816 -0.063324 0.234571 -0.151706 -0.045883 -0.504161 -0.255136 0.343412 -0.132006 -0.129168 0.134495 -0.003849 -0.342472 -1.148848 -0.240814 -0.284936 -0.019447 -0.340064 -0.327820 0.585280 0.116090 -0.096570 0.001961 0.346735 0.300765 -0.832779 0.424747 0.572110 0.744608 0.002528 -0.190915 -0.014045 -0.022720 0.032183 0.269141 0.859039 -0.238408 0.688381 0.531382 0.093900 -0.318674 -0.150345 -0.044026 -0.215737 0.080771 -0.184064 0.217196 -0.081900 -0.096146 0.056035 0.099984 -0.002820 0.369044 -0.330882 -0.030898 -0.292929 0.108656 -0.737979 -0.001091 -0.177473 -0.278581 -0.515829 0.870785 -0.053890 0.613587 0.682901 0.826042 -0.444312 0.129256 -0.794967 0.777305 -0.000530 0.330434 -0.398780 0.346350 -0.171469 0.122172 0.040418 -0.049544 0.173167 -0.751206 -0.046250 0.478135 0.214955 0.007681
418 -0.493760 -0.198616 0.306679 0.187626 0.547274 -0.420174 0.074806 0.143311 -0.173614 0.060625 0.097410 -0.128963 -0.319950 -0.567201 -0.255572 -0.002669 0.342344 0.224910 -0.628270 -0.301529 0.256346 0.154573 0.440275 -1.023890 -0.257038 -0.083628 0.728322 0.105132 -0.135966 0.382404 -0.301180 -0.418596 0.242874 -0.714411 0.223439 -0.222110 0.023589 -0.654280 0.586116 0.144593 -0.124995 -0.247558 0.384705 0.096685 -0.554977 -0.538741 0.177107 0.153091 -0.414217 -0.305254 0.272256 0.194928 0.469305 -0.356240 0.307031 0.289352 0.053062 -0.011340 -0.346563 0.683367 0.118107 -0.142488 0.871825 -0.184254 -0.375298 0.292417 -0.365672 0.036846 -0.400433 -0.256349 -0.077180 0.797516 -0.362515 -0.006437 0.696837 0.077830 -0.357519 0.392822 -0.309471 0.104434 0.078019 0.691888 -0.583472 -0.009759 0.451128 0.091517 -0.225195 -0.216467 0.193892 -0.176255 -0.190291 0.318424 -0.112995 -0.405762 0.208061 1.268889 0.027427 -0.135948 0.512520 0.373770 -0.648174 -0.337107 0.368701 -0.730105 0.292808 -0.134291 0.433302 -0.563624 0.498934 -0.450490 0.291038 0.249271 -0.409857 -0.515104 0.131650 0.112816 0.095756 -0.365349 0.350425 -0.242246 0.977238 0.013166 0.519122 -0.127267 0.071729 -0.115973 0.598981 -0.538883
1500 0.123604 0.286675 0.386507 0.744864 0.819821 0.138996 -0.634601 0.458684 0.196239 0.122397 0.292991 -0.414869 0.474069 0.421001 0.894964 0.118628 -0.541594 -0.124464 0.451413 0.518722 0.087328 0.326984 0.367173 -0.160827 0.207374 0.568885 -0.020030 0.131050 -0.227194 -0.179898 0.370972 0.313042 -0.046249 -0.588635 0.243325 0.100211 0.117116 -1.108158 -0.301037 -0.080681 0.057945 -0.412249 -0.160674 0.581217 0.291002 -0.501104 -0.071806 0.126159 -0.998601 -0.543811 0.399325 0.078209 -0.097893 -0.558334 -0.295351 -0.175681 -0.074111 0.256428 0.602286 0.365320 0.067054 -0.076791 0.661654 0.255607 0.763587 -0.331309 0.879784 -0.176970 -0.241597 -0.098857 -0.340992 0.689270 -0.138397 0.186338 0.364791 -0.293848 -0.058980 -0.203230 -0.187409 -0.306674 -0.415787 0.539504 -0.169132 -0.588540 0.107901 -0.570602 0.614085 -0.209991 0.492936 -0.560583 -0.143296 0.426480 0.828233 -0.208127 -0.345594 0.054721 0.846435 -0.587916 -0.761135 0.360437 -0.443901 0.600334 0.654555 -0.333558 0.315831 -1.025691 -0.433253 0.186696 -0.458431 0.513540 -0.037616 -0.323161 0.070085 -0.299524 0.019732 0.584810 0.100055 0.246919 0.125688 0.332734 0.317472 0.288470 0.554689 0.291693 -0.262193 -0.160145 -0.055612 0.154831
802 0.052672 -0.119057 -0.066678 0.415542 0.159519 0.617324 -0.229030 -0.121391 0.575790 -0.024470 0.565801 -0.662304 -0.333255 -0.370283 0.415236 0.710729 0.418552 0.074284 0.260103 0.227963 0.102633 0.402236 0.015718 -0.166066 0.172338 -0.186227 -0.159038 0.635119 0.202903 0.722579 -0.154593 0.377302 0.508593 -0.248946 0.082712 0.121177 -0.109272 -0.199071 0.037071 0.004775 -0.169598 0.035147 -0.061562 0.406830 0.804927 0.207328 -0.037582 0.298264 0.287034 -0.110662 -0.451228 -0.490532 0.236516 0.142694 -0.040155 0.528981 -0.014168 -0.137302 -0.207099 0.196741 -0.326835 -0.299814 0.352759 -0.390677 0.324920 0.080940 -0.006194 0.094426 -0.550035 0.006371 -0.309235 0.340825 0.174127 -0.728659 -0.067162 0.087657 0.242764 -0.213431 0.305527 0.148735 0.255120 0.494694 0.246520 0.244495 -0.403087 -0.224618 -0.020520 0.207270 -0.358216 0.142617 -0.184259 -0.072098 0.462290 0.031520 0.424180 -0.115593 0.161091 0.444465 -0.476425 0.186638 -0.520339 0.352017 0.328505 -0.760302 -0.341401 0.768686 0.323579 -0.177640 -0.157202 0.829452 0.734572 0.167049 -0.301753 0.459608 0.148609 0.298108 -0.523704 0.294935 0.014319 0.365117 -0.059939 -0.116288 0.170768 0.133862 -0.317275 0.177221 -0.076852 0.123492
40 -0.235357 0.408511 0.217217 0.561826 0.472537 -0.118288 -0.147299 0.283187 0.261759 0.037362 0.219664 0.480888 -0.538401 0.127276 0.353852 -0.125059 0.011164 -0.311321 -0.029822 -0.128892 0.310035 0.181276 -0.011286 -0.779071 0.052639 0.075933 0.270101 -0.684336 -0.024076 0.078739 0.077233 0.232746 0.322498 -0.509050 0.389737 0.143774 -0.403305 -0.472053 0.716039 -0.104482 0.071793 -0.069979 0.734621 -0.291386 -0.443606 -0.429686 0.154332 -0.537278 0.449464 0.036258 0.227665 -0.120112 0.003878 -0.391203 0.518633 -0.314656 -0.004973 0.280469 0.534652 -0.143512 -0.296347 0.134967 0.371142 -0.313769 -0.134759 -0.240912 -0.162200 -0.005595 0.023676 -0.202330 -0.545327 1.208647 -0.384973 -0.552626 1.269469 0.741454 0.322067 0.212537 -0.185214 0.167609 0.353372 0.672559 -0.730878 -0.269693 0.016779 -0.337797 -0.069416 0.292562 -0.116437 0.652554 -0.178395 -0.569971 -0.079472 -0.057590 -0.268447 0.711759 0.589627 -0.019278 0.077471 0.096393 -0.015115 -0.456306 -0.081432 -0.413217 -0.091095 -0.595788 0.539623 -0.098365 0.255085 0.292691 0.165267 -0.239122 0.379839 -0.294659 -0.397537 0.226197 -0.201135 0.122828 -0.163142 -0.244673 0.679751 -0.163042 0.313705 0.489015 0.124070 0.000875 0.688392 -0.401120
2832 0.153966 0.473713 0.208155 0.534993 -0.219939 -0.018236 0.105391 -0.709149 0.876241 -0.777548 0.424776 -0.657033 -0.623053 0.860964 0.005589 -1.398929 -0.358373 0.319339 1.120987 -0.277467 0.198763 0.118404 0.512022 0.558161 -0.253039 0.307432 0.781725 0.196600 0.483163 0.175521 -0.250193 0.366507 -0.078921 -0.843742 -0.187145 -0.048360 0.116682 -1.353722 0.071011 1.012628 0.924610 0.068835 0.019930 0.497937 0.672189 -0.121924 -0.062479 -0.271024 -0.120445 0.477120 -0.328699 0.464163 -0.411304 -0.710766 0.345858 0.736766 -0.519639 0.256691 -0.011506 -0.182428 0.199240 0.013544 0.369324 0.566747 0.570017 0.365149 0.068473 0.295081 -0.222205 -0.223798 -0.310668 0.635086 -0.395248 -0.472390 0.881828 0.168678 -0.413659 0.038115 0.430250 -0.204472 -0.233056 0.574315 -0.352193 -0.455210 -0.167482 -0.687704 -0.515575 -0.046788 0.176188 0.284205 0.068718 -0.596867 0.164007 -0.228394 -0.381041 0.221816 0.043377 -0.028319 -1.471029 0.931499 -1.131480 0.200906 -0.944982 -0.377386 -0.753630 -0.441101 -0.535234 0.532761 0.531238 0.495088 -0.337157 0.665266 -0.488667 -1.107025 -0.110334 -0.167423 -0.212332 0.978184 -0.359300 -0.209317 -0.226526 -0.313861 0.359633 0.403992 0.159783 -0.692419 0.026917 0.140639
1168 0.064001 -0.133947 0.824495 -0.061918 0.562917 0.117386 0.404932 -0.013238 0.183155 0.038809 -0.628679 -1.119494 0.254992 0.333885 -0.007197 0.609238 0.370339 -0.238723 -0.148199 -0.143298 0.599895 -0.166080 0.480973 -0.589758 -0.007207 -0.279222 -1.170643 0.666672 -0.089351 0.378694 -0.121789 -0.199907 0.216997 -0.123765 0.562677 0.075517 0.770986 0.010822 0.044655 0.514335 0.282182 -0.115134 0.174560 0.503268 0.195018 0.088966 -0.027602 -0.462455 -0.261702 -0.256074 0.121923 0.064462 -0.280518 0.087333 -0.107823 -0.532947 -0.910842 0.089283 0.530070 0.268148 -0.668577 0.000009 -0.397884 0.150554 -0.336945 0.235810 -0.244860 0.265522 -0.770118 0.120271 0.869943 0.408023 0.090862 0.182981 0.105721 -0.016290 0.450515 -0.234866 -0.268607 0.169001 0.393817 0.645809 -0.017654 -0.236323 0.251080 -0.969929 0.537834 -0.184220 -0.280586 0.112945 -0.431648 -0.640721 0.036306 0.053690 -0.164320 0.748907 -0.144328 -0.158376 -0.317186 0.273394 -0.259519 -0.352093 0.487728 -0.379782 0.024045 1.165378 0.019220 0.331850 0.641395 1.012600 0.043805 -0.483372 -0.240653 0.029453 0.202168 0.308591 -0.065755 0.475427 -0.706968 -0.012908 0.272068 0.126106 0.535557 -0.570534 -0.362369 0.320009 -0.343639 0.044117
2996 -0.102538 -0.063154 -0.164619 0.226007 -0.013113 0.259968 0.514026 0.273527 0.129710 -0.833287 0.525617 -1.024498 -0.037067 -0.040453 -0.681692 -0.671488 -1.103984 0.179204 -0.059907 -0.902654 0.992276 0.655693 0.754883 0.592469 -0.327104 -0.067351 0.033312 0.090773 -0.040519 0.243594 1.094374 -0.067635 0.140682 -0.035389 -0.477350 -0.007209 0.501556 -0.935669 -0.096511 0.543270 0.006993 -0.250525 -0.252024 0.927506 -0.294852 -0.074766 -0.889284 -0.714668 0.257360 0.434897 0.061893 -0.647848 -0.133608 -0.222318 0.063439 0.692284 -0.321042 0.263116 0.446471 0.173730 0.448532 0.071173 -0.417093 -0.078427 0.546669 0.328719 0.242105 -0.612190 -1.249745 -1.152896 0.637949 0.482604 -0.335532 -0.766307 0.355547 -0.178610 -0.274292 -0.288384 1.210714 0.336215 0.088733 0.728741 -0.608661 0.243234 0.347839 -0.508557 0.352740 0.099290 -0.051536 0.392452 -0.156193 -0.214801 -0.334845 -0.759921 0.679243 0.789567 0.138707 -0.551850 -0.011889 -0.001654 -1.319604 -0.146221 0.660170 -0.350030 -0.937929 -0.264563 -0.597208 0.876380 0.585972 0.377666 0.354837 -0.050825 -0.902501 -0.871988 -0.588380 0.791999 -0.002679 0.447544 0.584606 -0.216186 -0.127321 0.117006 -0.034540 0.268169 0.582029 0.787123 0.296774 0.804824
2137 -0.733563 -0.116471 -0.165557 0.462190 0.447733 -0.363271 1.172730 -0.149181 0.766195 -0.118426 0.856758 -1.062124 0.079033 0.347647 -0.467008 0.084130 -0.641115 -0.408600 1.000756 -0.299440 0.526128 0.841512 0.697886 -0.958600 -0.303935 -0.215810 -0.020032 0.425730 -0.269524 -0.469870 0.848382 -0.514269 0.612530 -0.645583 0.561297 0.684181 0.294434 -1.127706 0.009305 -0.042496 1.109177 -0.231287 0.565139 -0.123836 0.174042 0.517983 0.084906 -0.632302 -0.193585 -0.158972 0.444781 -0.325976 0.050527 -0.276397 -0.429677 0.601802 -0.887247 -0.187220 0.143555 0.476413 0.372443 0.154696 0.110121 -0.523185 0.400198 0.223243 -0.915482 -0.715097 -0.614096 -0.663106 -0.221874 1.106835 -0.744629 -0.035518 0.274226 -0.005795 0.298428 0.505373 1.262632 0.503712 -0.369744 0.459881 0.512879 0.429535 0.325572 -0.777562 -0.545618 -0.337534 0.265774 -0.239689 -0.599285 -0.220818 0.207224 -0.153796 0.437872 -0.085084 0.332775 -0.006764 -1.028090 1.171905 -0.366742 -0.306472 0.131618 -0.849422 -0.807256 -0.695901 -0.245977 -0.133041 0.594034 0.971266 -0.339715 0.503497 -0.301700 0.139522 0.333250 0.222871 0.179058 0.266391 -0.087339 0.975022 -0.099490 0.468268 0.644524 0.134609 0.034995 -0.360722 -0.542913 0.263085
799 0.709500 -0.638901 0.250653 0.376484 0.588197 0.053300 0.067360 0.085260 1.222127 -0.319799 -0.052579 -0.459067 -0.320027 0.470697 -0.055623 0.008314 0.374439 0.133224 -0.317153 0.063771 0.204838 0.011723 -0.330515 0.461689 -0.215075 -0.228589 -0.470034 0.126870 0.170231 -0.076913 0.249580 -0.348443 -0.019544 -0.546835 0.200828 0.160894 0.004279 -0.901536 0.030920 0.015910 0.367547 0.225632 -0.245751 0.478213 -0.011838 -0.500946 0.848536 0.020607 0.006851 -0.042940 -0.718196 -0.263728 -0.187437 0.144692 -0.033512 0.261829 0.330321 0.209371 0.660874 0.861002 -0.332945 -0.301516 -0.140174 0.346583 0.468956 0.037982 0.238969 0.552485 -0.611896 -0.233433 -0.087835 0.372694 -0.262788 -0.481787 -0.101256 0.020329 0.462058 -0.336137 0.294260 -0.098508 0.629942 0.424985 0.026607 0.132944 -0.240309 -0.107634 -0.148012 -0.138047 -0.177304 0.059289 0.097339 0.160830 0.061719 -0.640905 0.354751 0.474419 0.288020 -0.079662 -0.474095 0.129777 0.091174 0.080717 0.173030 -0.783287 -0.072723 0.324325 -0.261285 0.095977 0.074770 -0.005160 -0.009238 -0.425175 0.010444 -0.100265 0.639291 -0.019955 -0.692773 0.011744 -0.244869 0.409613 0.287452 0.518131 -0.265168 -0.124240 -0.160201 0.058338 -0.187799 0.233256
297 -0.131641 0.123627 0.505499 0.164602 0.067795 0.443810 -0.188617 0.358660 0.637330 0.513733 0.228770 -0.554212 -0.168002 -0.043988 0.765100 0.206737 0.317257 0.187641 -0.144424 -0.324442 1.063078 0.421558 0.633932 -0.828551 -0.248720 0.119286 -0.138545 0.720128 0.563276 0.306458 0.022284 0.355208 0.060964 -0.298723 -0.053349 -0.136044 -0.115974 -0.191598 0.003875 -0.300513 -0.071705 -0.400430 0.473697 0.569339 0.344276 0.158206 0.222459 0.252380 0.267111 0.063681 -0.401463 -0.536620 -0.052219 0.043167 0.448233 0.476597 0.318981 -0.324591 0.552943 0.158798 -0.372569 -0.335968 0.386043 0.022304 0.280819 -0.094445 -0.488036 0.160329 -0.168482 0.403394 0.059904 0.490001 0.254479 -0.290770 -0.725842 -0.200606 0.198879 -0.367597 -0.062028 0.359596 0.001459 0.485132 0.144538 0.247788 -0.558363 -0.291285 -0.361250 -0.382941 0.155269 0.114444 -0.128185 -0.055070 -0.027770 -0.027964 0.145045 -0.566460 0.069183 0.064807 -0.634150 0.075813 -0.499811 0.341564 -0.665875 -0.108841 -0.337426 -0.219432 0.046594 -0.241221 0.033745 0.370091 0.440429 -0.018884 -0.123851 0.190127 0.613475 0.597238 -0.426980 0.244379 0.072068 0.043319 0.149170 -0.377477 -0.025605 -0.448240 -0.214939 -0.091633 0.198820 0.248812
179 -0.512399 -0.317435 -0.257868 0.136265 0.564379 0.318186 -0.046259 0.367428 0.840070 0.359836 -0.005583 -0.616612 -0.264274 -0.212716 0.534695 0.204375 0.073947 0.015346 -0.159228 -0.295923 0.708581 -0.263679 0.504133 -0.328078 0.373247 -0.170517 0.223078 0.643384 0.366530 0.317017 0.114669 -0.010188 0.483804 -0.203055 0.579891 -0.481013 -0.059845 -0.151213 -0.349159 -0.076529 -0.090753 -0.232120 -0.150732 0.409939 -0.405657 0.235224 0.321896 0.493780 -0.027118 0.189263 -0.641206 -0.173444 -0.276143 0.049037 0.270695 0.249792 0.436665 -0.414417 0.638708 0.073246 0.289524 -0.414794 0.037927 -0.027389 -0.299965 0.219236 0.120627 0.066831 -0.743772 0.000816 0.131733 0.341928 0.079594 -0.598535 -0.195328 0.060197 0.325651 0.015390 0.214757 -0.027232 0.327717 0.236364 0.052566 -0.202755 0.211776 -0.419828 0.660737 -0.097341 -0.167802 0.287940 -0.535726 0.040119 -0.186238 0.115005 0.251924 -0.618878 -0.574089 0.701201 -0.461197 -0.178296 -0.305139 0.463763 0.164045 -0.562172 -0.376239 -0.388776 0.453579 0.055635 0.452825 0.157101 -0.293092 -0.481582 0.465095 -0.185850 0.157670 0.279890 0.049163 0.071792 -0.050482 -0.105159 -0.430971 -0.298566 -0.086860 -0.091553 -0.021990 -0.446091 -0.495049 0.565496
686 -0.304559 0.072083 0.362165 0.193095 -0.033531 0.356900 -0.389004 -0.202795 0.140660 0.094876 0.421259 -0.760056 -0.573886 0.143077 0.471945 -0.075050 0.065777 0.406737 0.332235 0.271313 0.013517 0.312239 0.096965 -0.200021 -0.048058 -0.190058 0.199283 0.349245 0.340231 -0.226881 -0.455495 0.244513 -0.121956 -0.712390 -0.086848 -0.591294 -0.206228 -0.396830 -0.416124 -0.510332 -0.257014 -0.647051 0.343726 -0.176373 -0.361689 0.484971 -0.066693 0.220157 -0.005341 -0.451859 -0.467103 0.317882 0.183927 0.328801 0.351570 -0.066150 -0.047995 0.194876 0.818102 -0.537462 -0.541243 -0.219805 0.697792 -0.406751 0.211737 0.076357 -0.225753 -0.409059 -0.533467 -0.234066 0.228012 0.158811 -0.290018 -0.236702 0.326852 0.030198 0.266620 0.640860 -0.078647 0.209748 0.557474 0.232248 -0.320452 0.329603 0.395314 -0.104038 0.207973 -0.887792 -0.248573 0.207493 0.214294 -0.188856 -0.037870 -0.668914 -0.144713 -0.277570 -0.260463 0.782571 -0.732808 -0.358128 -0.527818 0.131022 0.034014 -0.290754 -0.373227 0.284105 0.163596 0.113471 0.074492 0.219114 0.620425 -0.289082 -0.189479 0.098681 0.216092 0.147237 -0.059548 0.570218 0.180245 0.404493 0.335682 0.339046 0.126009 -0.374780 0.395987 0.296136 -0.299893 0.564253
86 -0.134600 -0.157564 -0.221440 0.257108 -0.195919 0.754921 -0.460617 0.091307 0.213799 0.046056 0.654458 -0.469365 -0.206237 0.659744 0.350528 0.359797 -0.011584 0.040535 -0.349511 0.310516 0.574394 -0.196804 0.180113 -0.592677 -0.079063 0.292952 -0.256594 0.231732 0.263385 -0.146982 -0.436718 -0.122894 0.107170 -0.437812 0.057930 -0.722234 -0.608367 -0.000607 -0.269948 -0.669638 0.010189 0.089198 0.469542 0.158928 -0.384483 0.550703 0.643606 -0.089539 -0.276200 -0.150514 -0.585519 -0.104021 -0.031027 -0.119712 -0.022903 -0.000003 -0.257386 0.227369 0.417036 -0.132198 -0.552545 0.099788 -0.038451 -0.289139 0.111606 0.397160 -0.193723 -0.206292 -0.607957 -0.119775 -0.291711 0.253266 0.100134 -0.167975 -0.302599 -0.045681 -0.158569 -0.023764 -0.026927 0.153589 0.227531 0.149528 -0.018591 0.375163 0.027438 -0.149841 -0.127866 -0.442374 -0.070869 -0.005967 0.278869 0.169516 -0.070785 0.179467 -0.488891 0.040910 0.737703 -0.234799 -0.271261 0.116636 -0.350821 0.241300 0.604712 -0.148312 -0.750952 0.349032 1.020988 0.205344 0.628671 -0.272567 -0.491036 0.006406 -0.105180 -0.255323 -0.161926 0.407675 0.055614 0.449192 -0.393326 0.737007 0.008712 0.115830 -0.326541 -0.006436 -0.417869 -0.230363 0.302942 0.034574
