3312 128
390 0.479203 -0.083311 0.281789 -0.131522 -0.222884 -0.136762 0.345746 -0.298647 0.096692 -0.081037 -0.373795 0.088780 0.249583 -0.031395 0.529547 0.016234 0.061552 -0.102484 -0.153529 -0.404017 -0.109663 0.229262 -0.439446 -0.280888 -0.004704 -0.433353 0.004490 0.560154 0.349435 -0.217600 0.218570 0.072564 -0.335496 -0.773691 -0.183926 -0.471015 -0.118767 0.195843 -0.432422 -0.332870 -0.023786 -0.622153 0.134091 0.346574 0.180328 -0.216133 -0.242295 -0.042953 0.382600 0.362272 -0.492654 -0.056355 -0.216327 0.102738 -0.253949 -0.291643 -0.289866 -0.008692 0.306553 0.430441 0.172518 0.182526 0.207080 0.465109 -0.229613 -0.072062 0.121646 0.299643 0.016074 -0.108451 0.039634 0.180579 0.171415 -0.201381 0.236508 0.082022 -0.406649 0.233650 -0.134284 0.100893 -0.106905 0.186202 -0.437732 -0.274027 -0.562485 -0.183087 0.501571 0.293999 -0.077288 -0.037801 -0.096730 0.321210 0.106278 0.067035 0.241322 -0.090121 -0.665183 0.147957 0.106817 -0.131569 -0.188068 -0.200974 0.010802 -0.374220 0.598661 0.095826 0.027535 -0.184731 0.002526 0.139065 -0.098973 -0.240976 -0.045290 -0.184555 0.107718 0.171067 -0.115101 0.230453 -0.306032 -0.314602 -0.358749 -0.099432 0.014385 0.429776 0.275771 -0.336927 0.083034 -0.202985
847 0.128624 -0.029197 -0.259199 -0.055386 0.289278 -0.307357 0.268617 0.504909 0.690673 -0.292873 0.643666 0.342824 0.410714 -0.103537 0.249387 -0.114443 -0.456717 -0.208357 0.263960 0.197020 -0.075218 0.225437 -0.273313 -0.190836 -0.432015 -0.126076 -0.112738 -0.394126 -0.285928 0.332981 0.406206 -0.297455 -0.305551 -0.374031 0.046022 -0.459773 -0.305466 -0.607906 0.244661 0.144202 -0.274651 0.335034 0.301939 -0.446625 -0.282677 0.005817 0.104462 0.021852 0.168837 -0.031080 -0.534903 -0.483208 -0.166417 -0.237217 0.005392 0.143491 -0.368252 -0.240553 0.172467 0.225021 0.335491 0.027759 -0.072539 -0.142573 -0.595318 -0.216292 0.402236 -0.472596 0.048537 -0.135311 0.275141 0.507873 -0.188855 -0.233731 0.435872 0.089783 0.052433 0.285760 -0.196034 0.472092 -0.275163 0.133496 0.310095 0.177931 0.103848 -0.404985 -0.386304 0.190198 0.097965 0.566601 -0.234134 0.149459 -0.140707 -0.211362 -0.162965 0.537080 -0.127137 0.094806 -0.200527 -0.427409 -0.129342 -0.165251 0.439145 0.162242 0.062964 -0.728532 -0.117211 -0.319223 -0.397140 -0.314896 -0.361441 -0.372105 -0.054186 0.253035 0.199015 -0.083807 0.762589 0.197974 0.271378 -0.758444 0.313921 0.027898 -0.029887 0.294597 -0.161582 0.163364 0.067903 0.263994
1918 -0.592435 -0.705654 0.178964 0.462874 0.026211 -0.407600 0.186213 0.485071 0.002328 0.296983 -0.409572 -0.236822 0.214038 -0.059015 0.233604 -0.495065 -0.316048 -0.020205 0.401436 -0.070283 -0.230734 0.035484 -0.306588 0.326995 -0.113606 0.400395 0.854939 0.247011 0.399103 -0.115409 0.283737 -0.156167 -0.401355 -0.264700 -0.144360 -0.360861 -0.258827 -0.106754 -0.566858 0.105431 0.830650 -0.239059 0.127240 -0.803707 -0.220088 0.208840 -0.582251 -0.034582 -0.210148 0.287911 -0.378291 -0.422587 -1.004874 0.589619 0.767174 0.118439 -0.080595 -0.341201 -0.458356 0.437760 -0.437318 0.797117 0.571517 -0.246468 0.238472 -0.181297 0.686673 -0.238990 -0.073508 -0.618818 0.298262 0.323675 -0.085356 0.508609 0.600881 -0.368996 0.005608 0.194586 -0.449872 0.007914 0.140731 0.092090 0.215408 -0.310654 -0.038419 0.323820 -0.704167 0.881639 0.110873 0.577031 0.526511 0.247749 0.428691 -0.111825 -0.183027 -0.020142 -0.260497 0.140387 -0.496164 0.270000 -0.313212 0.458647 0.002723 -0.317382 -0.034385 -0.316386 -0.357946 -0.141262 -0.444452 0.478720 -0.311178 0.284472 -0.208170 -0.117840 -0.587475 0.662483 0.136975 0.251434 0.155597 -0.288861 -0.069241 0.440409 -0.170406 -0.417539 -0.722645 -0.857080 -0.549675 -0.887248
643 -0.060096 0.103537 0.501724 -0.331905 -0.148050 -0.139044 -0.278347 0.392080 -0.197791 -0.075051 0.391353 0.003801 0.494949 0.057076 -0.010607 -0.276706 -0.009340 -0.222308 0.135312 0.006584 -0.358458 -0.303580 -0.503557 -0.221881 -0.246460 -0.926080 0.171772 0.127876 0.076702 0.252181 0.117079 -0.598135 -0.182141 -0.076864 0.529298 -0.273841 -0.430967 -0.886443 0.325939 -0.000768 -1.035444 0.233964 0.316391 -0.077801 0.178613 0.389811 0.255090 0.277543 0.535939 0.419821 -0.589232 0.025374 -0.179523 -0.217086 0.354808 0.244766 -0.390037 -0.204345 -0.698569 0.412892 0.203150 0.055509 -0.309899 -0.223843 -0.197519 0.034094 0.444139 -0.145947 0.297143 0.162805 -0.137319 0.734375 -0.016481 -0.215132 0.479304 -0.052211 0.324189 0.566592 0.069588 0.037014 -0.237474 0.073130 -0.068147 -0.247536 -0.132292 0.196356 0.082100 -0.352707 0.271737 0.355480 0.224178 0.256844 0.255186 -0.186511 -0.495176 0.786197 -0.143187 0.804205 0.194818 0.124313 -0.187821 -0.097786 0.123339 0.428305 0.422266 -0.523389 -0.346417 0.038501 0.119712 0.211798 0.219992 0.238698 -0.444118 -0.114119 -0.044895 0.193287 -0.030758 -0.238042 0.320145 0.025090 0.418011 0.444777 -0.431650 0.402902 -0.494021 0.186084 -0.260895 -0.175853
661 0.064789 -0.127826 0.413131 -0.392255 -0.074246 -0.632662 -0.420585 0.349283 -0.153977 -0.661402 0.382324 0.300632 0.830617 0.106070 -0.242374 0.052797 -0.359669 0.137025 -0.184884 -0.457671 0.014725 -0.194930 -0.367407 -0.215257 -0.379646 -0.632744 -0.237616 -0.313993 -0.038399 0.056312 -0.150564 -0.332088 -0.457796 -0.269806 0.222308 -0.242612 0.132640 -0.402327 0.110515 0.044746 -0.419803 0.060715 0.217481 -0.363930 -0.254350 0.444731 0.338646 0.013244 0.228870 -0.006659 -0.601013 0.225363 0.212489 0.547199 -0.183785 -0.085946 -0.100029 -0.732727 -0.654749 0.485456 -0.128685 -0.183124 -0.213375 -0.542692 -0.272560 0.246588 0.509104 -0.065020 0.361049 0.553872 0.281606 0.829795 -0.442779 0.449336 0.764184 -0.461541 -0.163623 0.568049 -0.103303 -0.042384 -0.026580 0.246900 0.074881 -0.242406 0.150060 -0.155950 0.102697 0.065047 0.455139 -0.088294 -0.179558 0.428905 0.163110 0.146938 -0.539687 0.482135 -0.150662 0.249222 -0.139959 0.088093 -0.635588 0.227035 -0.118487 0.396740 0.702609 -0.665131 -0.321843 0.216326 -0.559014 0.294834 -0.760192 -0.319203 -0.249262 0.268542 0.023632 0.338418 -0.368763 -0.183582 0.490469 -0.023122 0.898153 0.217036 -0.509744 0.416496 -0.262579 -0.449498 -0.432404 0.340525
471 0.228258 -0.387690 0.250174 -0.302853 -0.075110 -0.471054 0.382958 -0.059166 -0.491786 -0.435012 -0.303972 0.003347 -0.634619 -0.037620 0.171411 -0.103894 -0.310259 0.277599 0.262310 -0.170470 -0.245047 -0.124891 0.045404 -0.572335 0.060788 -0.154208 0.118090 0.258088 -0.031158 0.110280 -0.192915 -0.350536 -0.098630 -0.096661 -0.373934 -0.666344 -0.485719 0.069880 -0.557652 -0.423477 -0.291789 -0.234134 -0.174234 0.156767 -0.069661 -0.279315 -0.269462 -0.237605 0.363591 0.350176 -0.229563 -0.006898 -0.152053 0.307267 0.201767 0.484208 0.347350 0.121520 -0.334902 -0.222925 0.400810 0.248486 -0.265746 -0.091678 0.261508 -0.306237 0.034032 -0.268580 0.258818 -0.177905 -0.050709 0.214104 -0.213082 0.297237 -0.159973 0.250726 0.079043 0.100334 0.002448 0.284809 0.021928 -0.629699 -0.123169 -0.261227 -0.594513 -0.088085 0.289160 0.819981 -0.041776 0.336436 -0.013521 0.095960 0.324412 -0.379322 -0.193869 0.070296 -0.699904 0.241271 -0.148627 0.175775 -0.381149 -0.505150 -0.145753 -0.364492 0.271672 0.859539 0.214791 0.358707 0.264944 0.074502 -0.213978 -0.340910 -0.451889 0.439339 -0.110237 -0.302184 0.373958 0.100271 0.139696 0.040160 0.048762 0.203692 -0.303345 0.444730 0.028401 -0.579686 0.093272 0.127709
439 0.107887 0.051842 -0.057475 -0.033864 0.047054 -0.034449 0.298470 -0.304725 -0.235648 -0.041845 -0.621213 -0.031230 -0.161204 -0.003537 0.339297 0.104471 -0.179429 -0.293475 -0.240077 -0.300332 0.103996 0.329619 -0.377268 -0.639756 0.112800 0.002260 -0.074390 0.591998 0.351648 -0.111612 -0.104490 0.055922 -0.281006 -0.494654 -0.285782 -0.398352 0.250969 0.221254 -0.685583 0.129277 -0.106747 -0.684706 0.546128 -0.047993 -0.039331 -0.232363 -0.354039 0.116845 0.403373 0.455961 0.054011 -0.104929 -0.549298 0.122747 0.183260 0.236720 -0.156428 -0.020729 0.435261 0.539205 -0.060677 -0.162088 0.101038 0.229405 -0.213216 -0.346808 0.054536 0.486897 0.189927 -0.154567 -0.071159 0.134197 0.210870 -0.424935 0.017333 0.090947 -0.673993 0.211433 0.455065 -0.030456 -0.056752 0.397430 -0.397782 -0.180219 -0.409916 -0.283808 0.103240 0.560998 -0.535751 -0.134451 -0.167330 0.300415 0.016995 0.455954 0.315317 0.335679 -0.737164 0.148491 -0.255544 -0.230192 -0.416574 -0.584466 0.569807 -0.051168 0.119885 0.082090 0.075407 -0.126475 -0.324983 0.157900 -0.353782 -0.070646 -0.248435 -0.402691 -0.058785 -0.187391 -0.006675 0.529380 0.324400 -0.448771 0.259997 -0.088489 -0.237687 0.774349 -0.035865 -0.389935 -0.105663 -0.385500
364 0.267336 -0.077328 0.116416 -0.211496 0.008112 -0.202840 0.553745 -0.184063 -0.291112 -0.188395 -0.002835 -0.021928 0.161215 -0.026838 0.454589 -0.186773 -0.112917 -0.480054 -0.017760 -0.201039 0.328982 0.405902 -0.638615 -0.562325 -0.049122 -0.314917 -0.273423 0.252525 0.064186 -0.451263 0.144837 -0.001724 -0.256918 -0.429603 0.318398 -0.623620 0.181843 0.050905 -0.562299 0.002061 0.021073 -0.327546 -0.190422 0.010702 0.251146 -0.149244 -0.586299 0.149754 0.313494 0.410217 0.218891 -0.511582 -0.162349 0.231070 -0.308920 -0.470548 -0.076051 0.098898 -0.134001 0.519873 -0.224967 -0.185221 0.276310 0.185788 0.170950 -0.360364 -0.275388 0.365400 -0.041309 -0.445048 -0.087400 0.511902 0.307990 -0.245487 0.109634 0.144301 -0.521933 -0.096296 0.164517 0.057686 -0.151115 -0.099282 -0.391892 -0.433362 -0.637886 -0.202591 0.388177 0.537144 -0.303591 -0.053605 -0.077601 0.423404 -0.269513 0.456664 0.190835 0.012064 -0.506142 -0.132069 -0.490542 0.096629 -0.714464 -0.548784 0.108593 -0.455564 0.022779 0.028893 0.198505 -0.462543 -0.077336 -0.053307 -0.110315 -0.116015 -0.462237 -0.092923 0.113854 -0.134624 0.097889 0.155712 0.377257 -0.491341 -0.307538 -0.113194 -0.347271 0.633874 -0.044606 -0.364705 0.095091 -0.558615
1406 0.301261 0.282694 -0.207103 -0.077811 0.190979 -0.483226 0.084585 0.429733 0.152363 -0.268523 0.505065 0.140148 0.136476 0.495200 -0.037018 0.588930 -1.314051 -0.398013 0.101514 -0.242885 -0.685469 0.327626 -0.860430 -0.463328 -0.407656 -0.605980 -0.392261 0.283929 0.258124 -0.293541 0.147506 -0.429495 0.519523 -0.728622 0.623456 -0.368302 -0.297636 0.343360 -0.368525 -0.619471 -0.140851 0.500699 0.035677 0.314691 0.346420 0.449852 0.145250 0.793393 0.404407 -0.565962 -0.439482 0.526465 -0.059547 0.196679 -0.344870 0.869622 -0.035499 -0.026072 0.547998 0.440853 -0.074782 -0.372227 0.323371 -0.406519 0.619484 -0.085624 0.079848 0.122532 -0.150088 0.157349 -0.328410 0.298130 -0.899680 0.379064 -0.380477 -0.334981 0.420042 0.442121 -0.548038 0.449645 0.274025 0.166870 0.188905 -0.179125 -0.542019 -0.100217 -0.241180 0.383913 -0.185514 0.354467 0.235775 0.499568 -0.008605 0.254789 0.040489 -0.600727 -0.406320 0.764367 -0.512231 -0.618053 -0.599635 -0.636025 0.096502 -0.180730 -0.033175 -0.211978 -0.253780 0.161932 -0.175215 -0.511471 0.546925 -0.386431 -0.071361 -0.515869 -0.126189 0.013470 -0.442974 0.618546 0.121976 -0.208270 0.056873 0.502921 -0.010770 -0.279666 -0.211217 0.364711 0.262340 -0.468803
488 -0.119984 -0.368191 0.256555 -0.343349 -0.325677 0.160136 0.177941 0.347992 -0.447208 0.206459 0.217005 0.300910 0.886017 0.028882 0.466813 -0.020065 0.088358 0.066460 0.670339 -1.065231 -0.688572 -0.302619 -0.499760 -0.681026 -0.528219 -0.380671 0.315881 -0.313335 0.123650 0.244149 -0.442412 -0.912362 0.370922 -0.217528 0.630137 -0.115830 0.163832 -0.580462 0.264036 -0.301772 -0.511273 -0.529259 0.246504 -0.049035 -0.135426 -0.311040 -0.032237 0.360165 0.766517 -0.187926 -0.601620 0.464396 -0.325926 0.312308 -0.090366 -0.155216 -0.017305 -0.036019 -0.235637 -0.389670 0.231207 -0.120962 0.232923 -0.115323 -0.619705 -1.078259 0.127160 -0.159194 -0.025218 0.353425 -0.554871 0.350336 -0.518023 -0.481551 0.178224 -0.054521 -0.418209 0.078932 -0.977347 0.127340 -0.238338 -0.030860 -0.192369 -0.274059 -1.011925 0.247219 -0.852495 -0.282714 0.311053 0.111922 0.022758 0.475865 -0.606629 -0.463630 -0.798320 0.416150 -0.039857 0.539909 -0.416906 0.287402 0.112979 -0.225688 0.568803 0.581056 0.491827 -0.346518 -0.509213 0.095763 -0.261248 0.322478 0.045746 -0.079598 0.014446 0.093225 -0.180118 0.573818 0.363323 -0.106220 0.463159 -0.487957 0.114847 0.833397 0.381662 0.184863 -0.711577 0.070922 -0.249597 -0.296879
291 0.510786 -0.974680 -0.207344 -0.089199 -0.391706 -0.320193 0.583183 -0.348266 -0.221060 -0.339205 -0.335535 -0.229731 0.203653 -0.321266 0.442527 0.016253 0.298249 -0.029926 0.149320 -0.111706 -0.159193 0.448955 0.085689 -0.719120 -0.215339 -0.290326 0.282460 0.435806 0.913268 -0.486896 -0.012994 -0.048704 0.365960 -0.541317 0.183364 -0.354793 -0.062214 -0.316383 -0.745832 0.121330 -0.088113 -0.178232 0.337429 -0.136445 0.204796 -0.595977 -0.659972 0.167083 0.572126 0.619064 -0.175740 -0.140569 -0.214708 0.226256 0.008226 0.020660 0.085118 -0.179421 -0.268811 0.609523 0.113665 0.027823 0.077863 0.327115 -0.144659 -0.268442 -0.095552 0.324028 -0.098173 0.025533 0.029231 0.183934 0.073008 0.104028 -0.190796 -0.229033 -0.686508 0.312846 0.290132 0.177898 -0.120909 -0.103769 -0.185360 -0.093353 -0.391807 -0.425640 0.374496 0.350876 -0.098568 -0.093592 0.083572 0.100787 0.254595 0.536482 0.205705 -0.035807 -0.239204 0.210286 0.008791 -0.500183 0.060145 -0.083146 -0.031241 -0.416983 0.144370 0.063167 0.468559 -0.329846 -0.197939 0.237462 0.055773 -0.293820 0.046821 -0.229763 -0.006867 -0.265886 -0.000535 0.136076 -0.081567 -0.046411 0.263171 0.334102 -0.285290 0.163493 -0.307932 -0.307014 0.623374 -0.248969
2049 -0.269353 -0.750848 -0.769028 0.095916 0.279403 -0.183920 0.003159 0.656602 -0.364367 -0.168754 -0.268994 0.323989 0.597101 -0.293527 0.190870 -0.328310 0.325552 0.341971 -0.445901 -0.559320 0.274551 0.032834 -0.613338 0.196090 -0.290672 -0.317438 0.443971 0.431498 0.063942 0.194991 -0.048310 -0.277346 -0.035715 -0.228852 -0.190331 -0.206107 -0.601004 -0.101616 -0.271978 -0.006511 0.088794 0.488751 -0.060013 0.110025 -0.102602 -0.182888 -1.061908 0.076777 -0.070906 0.058933 -0.712849 0.122096 -0.273443 0.614143 1.402369 -0.331497 0.022036 0.250085 0.597343 0.345112 -0.411330 0.318308 0.591708 0.330500 0.057083 -0.216060 1.085239 -0.527678 -0.278155 -0.313766 0.150674 -0.096483 -0.100964 0.414667 0.503672 -0.218843 -0.113049 0.758057 0.116789 -0.435868 -0.327965 0.139385 0.362786 -0.350012 0.152686 0.100273 -0.648041 0.690775 0.185361 0.254413 -0.083476 0.571894 0.155427 -0.450572 -0.685685 -0.088433 0.288976 0.352274 -0.011147 -0.040713 -0.605334 -0.076586 0.155492 -0.363186 0.038632 -0.183393 -0.332990 0.109359 0.351630 0.124269 -0.202662 0.091709 -0.576076 -0.195925 -0.289401 0.736052 -0.068102 0.069067 0.023308 -0.288036 -0.243943 0.314221 -0.122871 -0.240434 -0.112894 -0.330050 -0.549684 -0.487586
905 0.269951 0.138729 0.095504 -0.219984 -0.477989 0.135903 0.366484 -0.214966 0.030240 -0.208463 0.219119 0.057724 0.376027 -0.134848 0.215221 -0.045656 -0.449743 -0.189298 0.148826 -0.395016 0.077608 0.155848 -0.299197 -0.629623 -0.109414 -0.105123 0.129633 0.310598 0.338330 0.138622 -0.176043 -0.641063 -0.290372 -0.520710 -0.123156 0.054548 -0.427919 -0.152811 -0.534875 -0.086059 0.039268 -0.470276 -0.052172 -0.807733 0.389898 -0.003633 -0.435819 0.381426 0.537466 1.031941 -0.804245 0.319685 0.381354 -0.133352 -0.165170 0.326319 0.242756 0.285456 0.232006 0.005144 -0.019182 0.133305 -0.222984 0.038706 0.319110 -0.217620 0.200332 -0.268848 -0.355507 -0.420268 0.103615 -0.221074 0.054580 0.248793 -0.418854 0.038647 -0.289393 0.404074 0.185185 0.302943 -0.253401 -0.331126 -0.561727 -0.210428 -0.366746 0.002719 0.326145 0.236081 -0.019642 -0.138097 -0.320737 0.261772 0.048001 0.211003 0.041316 0.186915 -0.726154 -0.182917 -0.051025 0.229774 -0.311185 -0.092739 0.028096 -0.373805 0.146627 0.395391 0.032096 0.140749 -0.363276 -0.282819 0.160546 -0.143886 -0.466827 0.197951 -0.077719 -0.215446 0.093170 0.145308 0.195734 -0.099344 0.311004 -0.244762 -0.131020 -0.505570 -0.333135 -0.906340 -0.779682 0.222090
986 0.171766 0.208956 -0.167579 -0.467446 0.604216 0.078214 0.089922 0.468483 -0.269435 -0.166932 -0.355704 0.266126 0.880170 0.673386 0.035751 -0.191546 -0.166027 -0.529240 0.408009 0.583518 0.107178 -0.146307 -0.137055 -0.303965 -0.290784 0.018526 0.400665 -0.344943 -0.489214 0.311512 0.520308 -0.335051 -0.422670 -0.013448 -0.454440 -0.051743 0.055246 0.233713 -0.264881 -0.597734 -0.471110 0.032980 0.057158 -0.274624 -0.016766 -0.311172 -0.237475 -0.122135 0.468844 0.743454 -0.562683 0.370087 -0.376911 -0.225241 -0.080387 -0.351123 -0.764545 -0.532596 -0.114702 0.706924 -0.075287 0.139412 -0.209741 -0.070232 -0.894016 -0.366297 -0.070296 -0.789299 -0.294460 -0.491390 -0.061575 0.774979 -0.578732 -0.096089 0.063116 -0.149070 -0.153655 0.466605 -0.267843 0.706280 0.238272 0.038662 0.693812 -0.059884 0.249937 -0.593285 -0.110213 0.040159 0.052659 -0.303110 0.110728 1.072719 0.183233 -0.288172 -0.166753 0.223700 0.171377 0.110120 -0.228821 -0.022400 -0.163354 0.043415 0.165171 0.031749 0.527557 -0.764968 -0.055679 0.466811 -0.272062 -0.404346 -0.149396 0.099236 -0.069904 0.059811 -0.263524 -0.432598 0.056251 0.274674 0.060333 -0.447438 -0.106647 0.170677 -0.801109 0.013536 -0.635999 0.176774 0.081267 -0.167707
1101 -0.621487 -0.723933 -0.133341 -0.516984 0.190821 -0.381637 0.070714 0.729852 -0.068539 -0.726997 0.483395 1.009643 0.134548 -0.312831 0.232427 0.360851 -0.986316 0.251002 -1.058031 -0.538563 -0.168161 0.107984 0.168031 -0.451807 -0.940004 -0.152574 -0.129305 0.971492 0.080317 -0.294496 0.008323 0.047258 0.149871 0.386397 0.169180 -0.394105 0.229681 -0.242981 -0.431299 -0.853308 -0.177872 0.284245 -0.349043 0.016212 0.349814 -0.087510 0.604929 -0.040650 0.108209 0.080306 -0.676181 1.005637 -0.241705 0.373911 -0.326020 0.174092 0.102994 0.455371 0.266032 -0.062725 -0.687882 0.258879 0.111759 0.089972 -0.361608 0.362566 0.347182 0.169659 -0.966051 -0.061049 0.297927 0.161434 -0.044641 0.513928 -0.396580 -0.350453 0.436375 0.179411 0.661969 -0.410697 0.500576 -0.021770 -0.380006 -0.058947 -0.372766 -0.154465 -0.113321 0.932472 -0.293230 0.444110 -0.016332 0.875028 0.538365 -0.598812 -0.264894 0.026766 0.275151 -0.298108 0.023729 0.210563 -0.357616 -0.747930 -0.164495 0.416448 0.480511 -0.382269 0.306699 -0.214701 -0.550116 -0.134715 -0.598832 0.276449 -1.156852 -0.506954 0.334911 0.630820 -0.224783 0.394059 -0.570157 -0.600636 0.622854 0.679623 0.435502 0.653880 -0.724227 -0.041696 -0.818695 -0.805295
822 0.253192 0.288572 -0.210498 -0.012414 0.349274 -0.277140 0.296448 0.868073 -0.041041 0.018724 0.521495 0.463355 0.230368 -0.323380 0.606928 0.082543 0.367757 -0.018611 -0.080788 0.030323 -0.031339 0.133568 0.340615 0.115398 -0.313344 0.047476 -0.085414 0.170403 0.352144 0.266313 0.430398 0.010366 0.211042 -0.426817 -0.020377 -0.867931 0.018618 -0.346497 -0.296666 0.465666 -0.041809 0.054092 0.609453 -0.114915 -0.356632 -0.465791 -0.065473 -0.226063 0.660615 0.371915 -0.802096 -0.017245 -0.113238 -0.519290 -0.508888 -0.202464 -0.876686 0.164208 -0.065355 -0.342850 -0.003322 -0.350886 0.420089 -0.231648 -0.025109 -0.508523 -0.105787 -0.100472 -0.015978 -0.210507 -0.134324 0.697107 0.001304 -0.053817 0.299989 0.306546 -0.499620 -0.043017 -0.234137 0.505114 0.362418 0.507770 0.442548 -0.445486 0.331854 -0.301052 -0.500860 0.500823 -0.059766 0.206924 -0.729390 0.171525 0.730430 -0.190750 -0.538226 0.247640 0.217358 0.150224 -0.289203 0.058417 -0.712003 0.008058 -0.713266 -0.301126 -0.371382 -0.142981 0.381876 0.035141 -0.623489 -0.417680 0.271953 0.122091 -0.045628 -0.536327 -0.498156 -0.381656 0.635235 -0.620475 0.238808 -1.078673 0.106854 0.637437 -0.307493 0.470177 0.219939 0.120370 -0.669149 -0.241962
2955 -0.168931 0.383851 0.121864 0.182004 1.035807 -1.018987 -0.099662 0.476417 0.183253 -0.303923 0.039575 0.648706 0.286548 -0.334965 -0.058855 -0.377758 -0.490467 -0.386104 0.918183 -0.291828 -0.126511 -0.071766 -0.090487 -0.640160 -0.077965 -0.588939 0.242828 0.541638 1.086862 0.075339 0.257688 0.114323 -0.179178 -1.161662 0.345115 -0.916860 0.111612 -0.602702 -1.749116 -0.697142 -0.061589 0.175976 -0.071594 -0.510308 0.444653 0.234437 -0.357090 0.329114 -0.755246 0.253764 0.066711 -0.210215 -1.206075 -0.482164 -0.074571 -0.429420 -1.241549 0.447767 -0.715666 0.030487 -0.738493 -0.683896 -0.242887 0.197121 0.470869 -0.456317 0.508874 0.074347 0.084597 0.112439 0.510488 -0.675420 0.291718 0.319213 -0.085232 -0.032835 -0.324074 0.373699 0.153669 0.172315 -0.089677 0.641215 0.299828 0.343437 -0.266347 -0.220225 -0.380953 0.625477 0.928607 0.226022 -0.468551 0.646053 0.938487 0.278603 0.224819 0.772432 -0.537273 0.037584 0.167770 -0.056327 0.189230 -0.681041 -0.383775 0.183381 0.016935 0.866316 -0.154699 0.681957 0.257886 -0.153253 0.184197 0.012946 -0.232949 -0.084161 -0.295892 0.079889 0.010230 0.039791 0.665055 -0.427626 0.017038 0.033637 -0.256511 -0.081253 -0.637497 0.648397 -0.193229 0.589758
699 0.335219 -0.581287 -0.046332 0.155525 -0.085965 -0.483011 0.350755 -0.054936 -0.049218 -0.156048 -0.535551 0.440344 0.079943 -0.023146 0.101659 0.153473 0.049418 -0.296652 0.045977 -0.224578 -0.262118 -0.101002 -0.447562 -0.064360 -0.375324 -0.160966 0.077081 0.219824 0.116664 -0.142894 -0.017189 0.331903 -0.259625 -0.681099 -0.249968 -0.486605 0.024869 -0.540311 -1.055531 -0.205100 0.318933 -0.079439 -0.311803 0.424910 -0.140340 -0.112561 -0.593328 0.432797 0.119622 0.535214 -0.248813 -0.016894 -0.253985 0.051191 0.079537 0.239035 -0.321809 0.104902 0.468156 0.535772 0.651450 0.203143 0.106767 0.131683 -0.073967 -0.460637 -0.159360 0.128110 0.218314 0.386168 0.168397 0.357267 0.007866 -0.121860 0.278319 -0.333350 -0.676352 0.159009 0.218039 0.116177 -0.054155 0.046523 -0.565948 0.081961 -0.795733 -0.090917 0.458082 0.270244 -0.129565 -0.171609 0.057738 0.275573 -0.230567 -0.151099 0.695574 -0.101165 -0.230915 -0.173196 -0.159189 -0.166853 -0.392475 -0.067957 0.219488 -0.301569 0.423791 0.202145 0.288130 -0.245914 0.034589 0.069945 0.011499 -0.164569 -0.516551 -0.111436 0.124829 -0.233337 -0.194385 0.643862 0.210235 -0.378792 -0.492905 0.019421 0.008772 0.630909 -0.324742 -0.389918 -0.198495 0.256207
697 0.237487 -0.197639 0.011970 -0.244593 -0.095748 -0.270675 0.363558 -0.073507 -0.206762 -0.018462 -0.255304 -0.115097 -0.152981 -0.104902 -0.290562 0.032394 0.201859 -0.080692 0.038215 -0.478359 0.029380 0.077374 -0.170426 -0.191609 0.025072 -0.467819 0.511966 -0.034152 0.137528 0.167214 -0.319831 -0.190194 -0.124298 -0.698384 -0.416063 -0.764310 -0.394412 -0.159720 -0.636529 -0.178814 -0.029026 -0.092494 0.201287 -0.372470 0.234732 -0.042227 -0.098070 -0.342267 0.426226 1.057846 -0.426905 -0.150927 0.052146 0.016875 -0.364039 0.414081 -0.320551 0.366017 0.426748 0.085629 0.370011 -0.008822 -0.022098 0.365225 0.096645 -0.608833 -0.053742 -0.109584 0.025180 -0.039512 -0.387750 0.081614 0.201513 0.050781 0.179521 -0.068647 -0.402495 0.136792 0.256722 0.386921 0.194639 0.124848 -0.788621 -0.311720 -0.376160 0.060174 0.302691 0.398975 -0.444989 -0.259822 0.147080 0.037966 0.017511 0.136935 0.188965 -0.194853 -0.519090 0.226398 -0.161947 -0.012182 -0.665711 -0.380224 0.413980 -0.365392 -0.011668 0.006127 -0.086904 -0.030168 -0.053023 -0.263869 -0.441448 -0.027184 -0.240501 -0.040876 0.121716 0.146518 0.038846 0.476570 0.108742 -0.325550 -0.132650 -0.281715 -0.098836 0.238508 -0.198578 -0.747074 0.345245 0.138316
631 0.040293 0.402929 0.519574 -0.692290 0.285691 -0.711705 -0.133349 0.839055 0.085311 -0.051095 -0.018004 0.935964 0.414286 -0.176233 0.227337 -0.021157 -0.250444 -0.367122 0.268632 0.486108 -0.287709 0.086890 0.127337 -0.337997 -0.359333 -0.294648 -0.009381 -0.184226 -0.469409 -0.124827 0.461374 -0.106274 -0.294972 -0.168730 -0.729240 -0.399282 -0.218002 0.092062 0.012571 -0.407960 -0.125678 0.139167 0.299353 -0.588774 -0.169302 -0.255344 -0.406810 -0.026740 0.322091 0.285804 -0.635314 0.266321 -0.548313 0.035048 -0.069150 -0.026518 -0.483856 0.312493 -0.068999 0.503687 -0.138180 0.503720 -0.121142 0.033486 -1.104239 -0.684951 0.032804 -0.140901 -0.196573 -0.072733 0.254182 0.416775 -0.148839 -0.121394 0.095879 0.051137 -0.138879 0.267614 -0.180380 0.445731 0.116331 0.761060 0.359017 -0.723150 0.318903 -0.703258 -0.039011 0.202296 0.258580 -0.017179 -0.130910 0.779894 0.018632 -0.179097 -0.162027 0.130912 0.387447 0.336271 -0.456824 -0.293934 0.389989 0.493161 -0.388580 -0.069407 0.100878 -0.314582 0.220947 -0.131563 -0.085962 -0.489370 0.060694 -0.040222 -0.007969 0.555066 -0.131527 -0.407391 0.090491 -0.031679 0.523695 -0.298351 -0.203007 -0.304284 -0.541391 -0.276404 -0.898033 -0.086768 -0.251822 0.023388
1236 0.938442 0.528812 -0.197848 -0.065537 -0.014062 0.460653 -0.453837 0.121598 -0.138127 -0.721070 0.733342 0.370627 0.192033 -0.458486 -0.073018 0.198086 -0.155763 -0.431290 -0.267549 -0.395336 -0.152047 0.903757 0.049626 -0.332446 -0.240980 -0.018464 0.877518 0.129902 0.154623 -0.632275 0.210967 -0.312271 0.393537 -0.061886 -0.616305 -0.269680 0.082277 -0.422747 -1.155218 -0.535052 0.273635 -0.216036 0.034540 0.423460 -0.126205 -0.583414 -0.083195 0.355262 -0.120579 -0.280688 -0.221833 0.421228 -0.581690 -0.072210 0.000100 -0.456714 0.134000 -0.159074 -0.056944 0.303815 0.458771 0.385010 -0.230564 0.211396 -0.411492 -0.044218 -0.055644 -0.128509 0.261666 -0.284938 -0.537162 0.748738 0.631371 0.552303 0.371190 0.226508 0.163343 0.083074 -0.315572 0.277607 -0.298261 -0.210851 0.056710 0.085987 -0.397162 0.587370 0.402193 0.175175 -0.351051 0.178264 -0.732472 0.014918 0.394606 0.206340 -0.508678 0.220679 -0.169626 0.322024 -0.290306 0.030367 0.327217 -0.332314 0.449874 0.103041 0.680413 -0.296963 -0.769217 -0.039358 0.090747 -0.255398 -0.475606 -0.140918 -0.250047 -0.077265 -0.428321 0.033336 -0.306284 -0.434307 0.206272 0.310654 0.385483 0.110159 0.003785 -0.042261 -0.090900 -0.490910 -0.116440 -0.433898
659 -0.190836 0.483636 0.622420 -0.263777 0.556003 -0.829013 -0.095767 0.753983 -0.011782 -0.630436 -0.149691 0.921315 0.708053 0.054185 0.449927 0.180376 0.193605 -0.686562 0.354513 0.333396 -0.337425 0.026519 -0.230280 -0.416979 -0.428984 -0.095281 0.163066 -0.330710 -0.172277 0.435469 0.728824 -0.318446 -0.235704 0.117074 -0.640946 0.096113 0.231156 0.163379 0.136746 -0.284751 -0.163995 0.399551 0.244659 -0.097735 -0.323155 0.024985 -0.288967 -0.035821 -0.004077 0.176175 -0.631364 0.240135 -0.322994 0.134405 -0.108950 -0.213496 -0.321678 -0.252870 -0.337449 0.636901 -0.219126 0.391066 -0.201881 0.150169 -0.936410 -0.281335 0.097034 -0.230592 -0.089198 -0.200088 0.075156 0.410305 -0.479574 0.018346 0.422974 0.140946 -0.185589 0.457867 -0.560907 0.371327 0.020927 0.312046 0.109055 -0.251898 0.095399 -0.680907 -0.025460 0.057636 0.076590 -0.322157 -0.106729 0.552756 0.014361 -0.222001 -0.153601 0.135592 -0.146177 0.076355 -0.048448 -0.263500 0.082956 0.284867 0.191029 0.147753 0.422982 -0.666188 0.234366 0.056538 0.062621 -0.582639 -0.335372 -0.095108 -0.451774 -0.047830 -0.099228 -0.550786 0.137582 0.041830 0.278428 -0.009934 -0.002920 -0.108711 -0.964557 0.269158 -0.595935 -0.158966 -0.379020 0.235877
732 0.306681 0.209739 0.230374 0.044314 -0.525423 -0.335024 -0.050035 -0.374768 -0.163319 -0.442828 0.316966 0.265101 0.226756 0.224575 0.040402 0.044909 0.038351 -0.490755 0.653549 0.308405 -0.219759 0.093791 0.183601 -0.881469 0.164119 -0.299448 0.157663 0.154640 0.081542 0.086748 -0.056341 -0.498490 0.113224 -0.326667 0.215830 -0.170827 -0.243987 0.018912 -0.964523 -0.306467 -0.266822 -0.593591 -0.116507 -0.402766 0.068999 0.112167 -0.598280 0.344057 0.419422 0.500163 -0.626409 0.553703 -0.110436 0.375543 0.551943 0.423926 -0.010647 0.285508 -0.194519 -0.386406 -0.136851 -0.059259 0.318007 -0.246629 -0.110670 0.096815 0.180331 -0.114350 -0.289568 -0.151140 0.146209 0.002170 0.073043 -0.297216 0.314574 -0.339935 0.277810 0.157610 0.272418 -0.503422 0.008264 -0.592469 0.543355 -0.063269 -0.283432 0.382707 0.003281 0.480841 0.151963 0.211244 -0.009850 0.017534 -0.043482 -0.075898 -0.434690 -0.329299 -0.584619 0.005218 -0.144875 0.451206 -0.438382 -0.734688 0.112149 -0.708764 0.106182 0.536707 -0.290711 -0.111192 -0.357094 -0.480601 0.109363 -0.112560 -0.035590 0.345109 0.248395 -0.209682 0.271087 0.364752 0.029365 -0.094489 0.400138 0.141478 0.212623 -0.292733 -0.045816 -0.793951 -0.421642 0.399269
814 0.204268 0.172995 0.161953 -0.506287 0.016875 -0.259442 0.134668 0.002773 0.400327 -0.116556 0.552032 0.235162 0.704259 0.175690 0.550490 -0.389962 -0.001988 -0.611839 0.352216 -0.057783 0.101648 -0.161191 -0.329492 -0.338768 -0.657267 -0.326564 0.062169 -0.282468 0.051078 0.232828 0.618422 -0.308306 -0.063926 -0.465592 0.208130 -0.634784 -0.574052 -0.953478 -0.083969 -0.098633 -0.975303 -0.015174 0.331208 -0.344865 0.114560 0.110205 0.442767 0.002703 -0.024654 0.364780 -0.349776 -0.329349 -0.508171 -0.315008 0.478632 0.313422 0.040953 -0.279486 -0.026193 -0.036094 0.307034 -0.060463 0.022414 -0.413992 -0.452511 -0.136824 0.377969 -0.429703 0.454015 0.092496 -0.412580 0.569442 -0.118781 -0.077878 0.287290 -0.071611 -0.021463 0.229724 -0.066516 0.081598 0.045723 0.199712 -0.005953 -0.316889 0.010309 -0.776700 0.002279 -0.128798 0.017936 0.727314 0.030939 -0.088087 -0.121564 -0.627057 -0.401814 0.831684 -0.024872 0.657580 -0.115078 -0.246275 -0.204287 0.152786 0.089109 0.287677 0.214524 -0.773309 -0.241459 -0.014956 0.019554 0.300659 0.058637 -0.500783 -0.349266 -0.655009 0.077170 -0.279824 0.302714 -0.072744 0.241211 -0.006927 0.620202 -0.233895 -0.323128 0.076229 -0.323326 0.581211 -0.507901 -0.145961
868 0.253957 -0.522020 0.166375 -0.116906 -0.033174 -0.586931 -0.446379 0.173097 -0.109650 -0.049271 -0.066378 0.291830 1.162538 -0.857527 0.075606 0.102255 -0.138380 0.065278 -0.298451 -0.532362 0.711289 -0.182634 -0.142782 -0.324832 -0.289374 -0.055513 0.761253 0.221062 -0.482309 -0.203983 0.181387 -0.613613 -0.087321 0.547914 0.180246 0.215621 -0.170059 -0.121799 -0.014566 -0.345947 0.608490 0.109292 0.318973 0.359635 -0.005579 0.958697 0.205953 0.084336 0.341270 -0.132534 -0.671427 0.269895 -0.251197 0.017937 0.350708 -0.030245 -0.168057 -0.228329 -0.241151 -0.471126 0.540414 0.406410 -0.384734 -0.058772 -0.286364 -0.315337 -0.413417 -0.525709 -0.057262 -0.244245 0.621612 0.241948 0.019617 0.004729 0.198645 -0.184716 -1.047197 0.044553 0.110897 -0.126979 0.353897 -0.654638 -0.260090 -0.620207 -0.282708 -0.449777 0.269242 -0.094432 -0.449359 0.496212 -0.670961 0.963428 0.419514 0.847582 -0.341075 -0.429855 -0.219640 0.433311 -0.651142 -0.343401 -0.102193 -0.524785 -0.167074 0.509881 0.117689 -0.230449 0.154056 0.513024 -0.105403 -0.155064 -0.092379 -0.746356 -0.934136 -0.302721 -0.332504 -0.336651 -0.354052 0.710709 -0.441074 -0.103909 0.519851 0.423503 0.248666 0.404543 -0.788605 0.520203 0.468134 -0.445934
753 -0.288617 -0.064002 -0.518545 -0.495085 0.669840 -0.195359 0.277297 0.155835 -0.030604 0.239633 0.313831 0.045237 0.568590 0.643451 0.446271 -0.161910 -0.298261 0.112622 0.502551 -0.444380 -0.055750 0.156555 -0.735003 -0.021563 -0.356591 0.656285 0.243821 -0.191018 -0.233641 0.192746 -0.055468 -0.490725 0.137161 -0.138593 -0.382331 -0.753830 -0.268246 -0.390747 -0.553942 -0.121945 0.496613 0.441572 0.287868 0.347954 -0.321120 -0.198199 -0.816961 0.282468 0.841116 -0.216109 -0.361233 0.192114 -0.004306 -0.078514 0.547256 -0.305043 -0.191246 0.049820 -0.020608 0.135444 -0.015682 -0.869526 -0.690648 0.365799 -0.083881 0.042602 0.840746 0.141268 -0.119559 -0.639419 0.265440 0.228038 0.342435 -0.454404 0.804379 -0.566052 0.071457 0.982840 -0.289987 0.188548 0.082071 -0.154612 0.164065 -0.490674 0.479285 -0.619139 -0.350749 -0.334027 -0.193451 -0.078086 -0.164173 0.789781 0.564605 -0.557044 -0.616889 0.264514 0.617993 0.144880 -0.385694 -0.390224 -0.184635 -0.514643 0.550890 0.015679 -0.052157 -0.349485 0.375341 0.602250 0.195031 -0.291277 -0.098426 0.249487 0.160956 0.065416 -0.750643 0.354671 0.004311 -0.099690 -0.316230 -0.301797 0.057427 0.086405 -0.207090 0.157168 -0.023115 -0.176875 0.090366 0.091176
263 0.053426 0.295060 0.318729 -0.432347 -0.343833 0.405945 0.379800 0.126347 -0.224231 -0.144509 0.041949 -0.301123 -0.273481 -0.236879 -0.232999 0.223753 -0.354925 0.008326 -0.081842 -0.041920 0.082858 -0.532722 0.154349 -0.644625 -0.078025 -0.241309 0.696484 0.371431 0.495588 0.184550 0.098813 -0.789652 -0.308959 -0.567078 0.116145 -0.367409 -0.155368 -0.719196 -0.226561 0.233365 0.138608 0.009968 0.203045 -0.392291 -0.131694 -0.246610 -0.352361 0.694313 0.432447 0.574453 -0.850621 0.084207 0.019768 -0.417432 -0.012805 -0.067313 0.238245 0.183530 -0.433564 0.484481 0.419184 0.091862 0.110980 -0.103639 0.493932 0.638340 0.002173 -0.646870 0.403365 -0.220867 0.461736 0.527238 0.180774 0.507242 -0.388839 -0.257819 -0.311915 -0.124779 -0.443696 -0.072418 -0.376560 -0.231230 -0.875492 -0.531271 -0.804000 0.123346 0.315001 0.215090 0.438939 -0.362270 0.367395 0.390500 0.249784 0.046332 -0.274605 0.509863 -0.377589 -0.015400 0.081714 -0.280543 -0.579860 -0.731449 -0.082941 0.241535 0.097135 -0.223083 0.421530 0.645754 0.219165 -0.031585 0.119295 -0.153098 -0.037333 0.101445 -0.189692 -0.203381 0.376880 0.249592 0.211596 -0.141922 0.147059 0.441890 -0.238405 0.116884 -0.403341 -0.598296 0.106263 -0.072362
1731 0.685977 0.220459 -0.157127 -0.165604 0.265438 -0.590788 -0.163297 0.346094 0.299813 -0.134164 0.202814 0.105319 0.048990 0.334969 0.344449 0.500735 -1.389755 -0.312599 0.099111 -0.316104 -0.659708 0.255008 -0.882665 -0.638468 -0.066781 -0.303618 -0.296769 0.360165 0.299303 -0.063316 0.518588 -0.402382 0.409945 -0.787707 0.582255 -0.578942 0.067733 -0.048401 -0.177647 -0.724071 -0.222744 0.761823 0.205957 0.155002 0.668219 0.123537 -0.038856 0.936539 0.228309 -0.679305 -0.581730 0.383329 0.070020 0.159500 -0.202464 1.052512 0.232116 -0.025830 0.592312 0.446848 0.043901 -0.451209 0.249972 -0.756868 0.699932 -0.049930 0.147124 -0.026934 0.351079 0.074372 -0.259129 0.467437 -0.577138 0.165247 -0.358334 -0.567939 0.344710 0.155196 -0.792348 0.362320 0.128639 0.395042 0.321820 -0.214317 -0.555932 -0.013031 -0.130004 0.531049 -0.327508 0.572244 0.048043 0.634365 0.180100 0.314999 0.148025 -0.568287 -0.008772 0.473664 -0.507828 -0.503315 -0.807843 -0.666599 -0.066728 0.060805 0.076759 -0.118079 0.004118 -0.014120 -0.277132 -0.256127 0.354429 -0.328210 -0.147729 -0.585702 -0.296197 0.207326 -0.505887 0.390875 0.289365 -0.319627 -0.043976 0.539216 -0.338183 -0.040935 -0.149623 0.127893 0.287893 -0.301262
0 -0.099061 0.032172 0.049849 -0.451332 -0.101256 0.245015 -0.448982 0.501136 -0.044862 0.203207 0.079437 0.346456 -0.238162 -0.827071 0.578496 -0.635714 0.748632 -0.413571 -0.205895 0.020467 0.226993 -0.137995 -0.154611 -0.587082 -0.453843 -0.044483 -0.255395 -1.059816 0.189529 -0.687943 -0.070726 -0.227440 -0.425278 -0.347970 0.424542 0.034765 0.005184 -0.220958 -0.480791 -0.243226 0.331319 0.065204 0.030126 -0.606034 0.381981 -0.065818 0.199771 -0.309277 0.158430 0.245315 -0.267303 -0.705548 -0.316960 -0.301705 0.180756 0.194340 -0.386198 0.092364 0.016773 -0.388871 0.214465 0.176725 -0.396049 -0.349749 -0.411637 0.242054 -0.147238 -0.660549 -0.424046 0.390699 0.337298 0.370229 -0.242974 -0.235927 0.140529 -0.550923 -0.504287 0.248642 0.366223 0.180556 -0.074954 -0.330064 0.154877 0.009488 -0.131108 -0.573068 0.095934 0.060671 0.530612 0.529935 -0.679683 0.722964 0.712645 -0.043615 -0.250450 0.048683 -0.092522 0.832864 -0.502051 -0.009632 -0.140582 -0.595677 1.174955 -0.039835 0.384606 0.271499 -0.249007 0.136009 0.479319 0.076661 -0.056830 -0.912326 -0.509085 -0.189968 -0.374040 0.207467 0.308988 -0.164340 0.247001 -0.035433 0.196543 0.392855 -0.075524 0.196572 -0.688570 0.177962 -0.065390 -0.185143
31 0.336540 -0.054358 0.675453 0.072296 -0.436121 -0.324738 0.032233 -0.160879 -0.603755 -0.212443 0.077768 -0.008391 0.121910 0.185190 0.528385 0.360675 -0.226011 -0.042281 0.306587 0.040536 -0.542345 -0.050551 0.211453 -0.054178 -0.289604 -0.075287 0.687684 0.339311 -0.425531 0.221553 0.322978 0.104064 -0.016448 -0.022494 0.264080 -0.823843 -0.639953 0.520208 -0.583705 -0.487795 -0.209434 -0.364587 -0.177151 -0.325185 0.084183 -0.255882 -0.693695 -0.140966 0.346852 0.260728 -0.116280 0.524702 -0.614392 0.354699 -0.062121 -0.037316 0.342058 0.304274 -0.766519 -0.259358 0.479311 -0.116666 0.013106 -0.185994 0.364359 -0.203775 0.200145 -0.421587 0.053617 0.010756 0.252365 0.023456 -0.004181 -0.016796 0.424081 -0.039632 0.596942 0.086488 0.313737 0.097690 0.101737 -0.194184 0.016916 0.044281 -0.394918 0.025073 -0.000809 0.539170 0.002376 0.120224 -0.356420 -0.101900 0.009858 -0.609783 -0.418362 -0.163256 -1.122575 0.043152 -0.222020 0.234064 -0.837527 -0.291431 0.283850 -0.103517 0.126580 0.651197 -0.189758 0.139996 0.154840 -0.250600 -0.215127 -0.359515 -0.075052 0.317786 0.053687 -0.182239 -0.119332 -0.111170 0.061994 -0.112407 0.358804 0.193675 -0.162328 0.022505 -0.278508 -0.500436 0.053681 0.297855
698 0.360545 -0.075169 0.434708 -0.013129 -0.328404 0.203157 0.312298 -0.113348 0.231388 0.066178 -0.523887 -0.301477 0.331426 -0.324981 -0.299777 -0.151854 -0.206308 -0.114642 -0.298196 0.039630 -0.181008 0.275839 -0.516887 -0.065905 0.140556 -0.027397 0.271667 0.029677 0.343069 -0.199123 -0.112188 -0.245882 0.181862 -0.672007 0.240999 -0.647692 -0.408226 -0.192157 -0.520735 -0.010222 -0.214833 -0.411274 -0.386813 0.273486 0.076025 0.169186 -0.466492 -0.381221 0.017922 0.752111 -0.270969 -0.175343 -0.513590 0.291396 -0.231413 0.228370 -0.385184 0.309059 0.705561 0.655883 0.673627 -0.395112 0.341186 0.158413 -0.134136 -0.338533 0.030709 0.175107 -0.048042 0.043682 0.048748 0.140593 -0.183817 -0.047422 0.110480 -0.454095 -0.730578 0.344460 0.092071 0.074027 0.276821 0.190280 -0.259466 -0.260047 -0.380761 -0.221764 0.514558 0.593681 -0.472172 -0.187678 -0.039388 0.376411 0.069079 0.082873 -0.032418 -0.000660 -0.202113 0.310178 0.093275 -0.140264 -0.347541 -0.349727 0.071555 -0.219824 0.785389 0.098379 -0.089811 -0.044116 -0.065230 0.164038 -0.165730 -0.401049 -0.402208 0.112048 0.015388 -0.015954 -0.184427 0.018805 0.184289 -0.473902 -0.515364 -0.659176 -0.108364 0.702119 -0.479992 -0.634171 -0.115294 -0.175350
616 0.167679 -0.251453 0.149261 0.005548 0.004927 0.193144 0.432773 -0.402933 0.082943 -0.152580 0.069738 -0.179671 0.289370 -0.465437 0.171146 -0.313396 0.027513 -0.348175 0.198311 -0.117216 -0.726262 0.407689 -0.772306 -0.087326 0.080499 0.500162 0.283957 0.404020 0.361984 -0.060839 -0.432045 -0.378760 0.147306 -0.223829 0.383559 -0.316437 -0.595549 -0.063620 -0.500323 -0.419977 -0.019104 -0.182079 0.088825 -0.111353 -0.121468 -0.130169 -0.531144 -0.292480 0.369052 0.326933 -0.513001 -0.158147 -0.798609 0.226086 -0.036392 0.109089 -0.246026 0.237700 0.438083 0.546969 0.630209 -0.237815 0.175270 0.306435 -0.441766 -0.280242 -0.370550 0.337926 0.063437 0.398893 0.530725 0.469143 0.032632 0.120171 0.077386 -0.182480 -0.532173 0.060129 0.279292 0.444980 -0.055133 0.249358 -0.529130 -0.147380 -0.653986 -0.216045 0.458436 0.433585 -0.356585 -0.054967 0.023438 0.368947 -0.077634 0.461689 0.215034 -0.202365 -0.277462 -0.124612 0.333603 -0.022947 -0.270388 -0.251223 -0.182994 -0.478919 0.365320 0.048839 0.214884 0.028920 0.001186 -0.377926 -0.513673 0.006766 -0.211623 -0.390058 0.011398 0.034283 -0.645491 -0.087096 0.698747 -0.452296 -0.201152 0.054733 0.087929 0.453335 -0.296855 -0.307972 -0.123810 0.470588
780 -0.050997 -0.367549 0.442420 -0.156869 -0.607570 -0.029820 0.299091 -0.014009 -0.299409 -0.093551 0.232135 0.303288 -0.178718 -0.267026 0.321138 -0.012172 -0.232281 0.048868 0.107668 0.393410 -0.082694 -0.567657 0.448509 -0.786694 -0.314664 0.162466 -0.044794 0.182124 0.091784 -0.002639 -0.084319 -0.397169 -0.319528 -0.057847 0.230666 -1.029622 0.066551 0.003626 -0.689165 -0.347538 -0.113653 -0.226414 -0.207578 -0.419071 0.116928 0.117885 -0.469104 0.194612 0.563434 0.333334 -0.249726 0.167350 -0.725915 0.623368 0.491794 0.104019 0.014497 0.173257 -0.236074 -0.269928 0.005374 0.252543 0.070121 -0.314412 0.014253 -0.377290 0.004966 -0.284549 -0.268336 -0.402797 0.154434 0.121923 0.073962 0.373627 -0.309370 -0.017369 0.224658 0.185399 0.403467 0.225487 0.236289 -0.529167 -0.000099 -0.068620 -0.380939 0.187102 0.168978 0.646169 -0.091250 0.159000 0.231021 -0.417873 0.232202 0.134399 -0.317832 -0.172775 -0.500735 0.279330 0.174809 0.264940 -0.354081 0.038452 -0.091761 -0.619922 0.615300 0.536959 0.069713 0.400705 -0.382227 -0.295610 -0.418521 -0.151860 -0.729496 0.037522 -0.037818 0.319178 0.419264 0.206517 0.237404 -0.243369 -0.180185 0.326864 0.125491 0.288144 -0.110643 -0.280248 -0.069490 -0.001381
691 -0.255108 -0.118170 0.048256 -0.656689 0.014697 -0.051902 0.036074 0.323104 0.257469 0.396228 -0.257883 0.160662 0.152179 0.054374 0.716527 -0.266803 0.272691 -0.375291 0.209208 -0.051902 -0.351804 0.390918 0.048493 -0.051893 -0.407826 0.166650 -0.535405 -0.737448 0.011219 -0.217579 0.307951 -0.775286 -0.524578 -0.334145 -0.016076 -0.220221 0.266587 -0.506826 -0.552676 -0.183649 -0.329776 0.229512 0.008176 0.035359 0.208436 -0.362374 -0.261600 -0.081928 0.294686 0.568149 -0.088156 -0.539687 -0.336478 0.290624 -0.166174 -0.173138 -0.534256 -0.566172 -0.512928 -0.220325 -0.082711 0.093195 -0.525150 -0.108017 -0.646941 -0.364618 -0.669436 -0.252220 0.141258 -0.455833 0.255197 0.333864 -0.708552 0.028331 0.075657 -0.202458 -0.416068 0.262514 -0.137627 0.052091 0.016963 0.196323 0.365767 0.360284 -0.190548 -0.775985 0.064541 -0.271520 0.527097 0.006810 -0.592041 0.821074 0.266168 -0.616955 -0.251527 0.131920 -0.093551 0.469927 -0.765498 -0.123923 0.127986 -0.166127 0.750350 0.361962 0.436591 -0.322433 -0.519779 0.299522 -0.174685 -0.645042 0.192581 -0.311716 -0.330231 0.193627 -0.162667 0.056525 0.546556 -0.572567 0.350300 -0.435384 0.538377 0.208986 -0.360922 0.174045 -0.881813 0.235510 -0.285829 -0.368892
673 0.422636 -0.054756 0.041141 -0.305661 -0.346103 -0.130070 0.490282 -0.739379 -0.155515 -0.514898 -0.072444 -0.266380 0.023171 -0.016243 0.651072 -0.248924 -0.158225 0.059158 -0.083690 0.005169 -0.413008 -0.117962 -0.329541 -0.702178 -0.249869 -0.385067 -0.276203 0.461389 0.482597 0.303044 0.050095 0.029077 0.082313 -0.513346 -0.122103 -0.123964 -0.309258 -0.117232 -0.110666 -0.088501 0.297893 0.044132 0.576921 -0.355331 0.448288 -0.142070 -0.338297 -0.110484 0.386140 0.490730 -0.586942 0.010547 0.032145 0.261215 -0.652617 -0.529029 -0.378672 0.101667 0.162467 0.172389 0.034320 0.403088 -0.121982 -0.063133 0.093701 -0.174005 0.134399 -0.056848 -0.388903 -0.525515 0.521971 -0.170417 0.399026 0.348120 -0.240907 0.052542 -0.693732 0.303186 0.691947 0.521219 -0.444104 0.041339 -0.232695 -0.136122 -0.874909 0.133026 0.007821 0.199884 -0.376367 -0.080128 0.018595 0.376727 0.472850 0.503210 0.293128 0.004579 -0.424320 0.241888 -0.197166 -0.181388 -0.274890 -0.485150 -0.001859 -0.335181 0.172276 0.207575 0.278222 -0.090377 -0.362605 0.070371 0.249420 -0.473155 -0.812038 0.404426 0.145663 -0.213733 -0.146019 -0.213540 0.090994 -0.107110 -0.466370 -0.017257 -0.714707 0.059740 -0.067788 -0.593744 0.206915 0.059080
354 0.194259 0.222523 0.185273 -1.274315 0.213360 -0.349534 0.175391 0.477325 -0.008178 -0.169977 -0.033376 -0.185146 0.585510 -0.089016 0.602946 0.722410 0.207846 -0.042030 -0.352667 0.015190 -0.871067 0.624949 -0.266084 -1.348900 -0.727782 0.706237 -0.461205 0.392988 0.820776 -0.304596 0.037926 -0.420038 0.504247 0.516161 -0.620684 -0.138283 -0.771771 -0.546318 -0.269192 -0.517387 0.037880 -0.102759 0.558599 0.473412 -0.882042 -0.285220 0.097528 0.086799 0.701482 0.073137 -0.315678 0.320104 -0.412687 -0.655666 -0.305112 0.305765 -0.303236 -0.391166 0.312188 0.325165 0.534884 0.351705 0.641843 -0.171998 0.470716 -0.040700 -0.358833 0.281931 -0.233239 -0.008582 -0.483500 0.861600 0.553506 -0.057555 -0.066756 -0.258261 -0.044128 -0.212895 0.339271 -0.122850 -0.141932 0.061107 0.526959 -0.546426 -0.121989 -0.338775 -0.355996 -0.632210 0.050266 -0.050455 -0.589621 0.381241 0.496716 -0.462583 -0.696324 -0.404406 0.304188 0.716898 -0.413591 -0.368538 -0.465757 0.169173 0.734908 0.391262 -0.069650 -0.044837 -0.614119 0.618939 -0.443804 -0.193281 -0.024081 0.229752 -0.520827 -0.355712 -0.321033 -0.124274 -0.056334 0.120160 -0.117915 0.327657 -0.493457 -0.042747 0.022757 0.339931 -0.270930 -0.372472 -0.457421 0.028838
1168 -0.034090 -0.101819 0.402963 0.425855 -0.010492 -0.892254 -0.068143 -0.287090 0.298600 -0.892683 0.090492 0.192580 0.071389 0.021317 0.781304 0.083442 -0.628105 -0.531530 -0.237809 -0.465454 -0.307999 -0.582468 0.149472 -0.522818 0.170905 -1.000257 -0.051253 0.335597 0.564488 -0.489569 -0.634664 0.383366 0.286454 -0.444553 -0.465077 -0.134421 0.475834 0.105093 -0.285091 0.704937 0.091829 -0.474469 -0.702977 -0.529272 0.623629 -0.087446 -0.370602 0.039240 0.075848 0.651385 -0.954669 0.087420 -0.307464 0.503963 -0.096793 0.240091 -1.261506 -0.689980 0.132268 0.157209 -0.400883 -0.000971 -0.757229 0.231452 -0.364766 0.498006 0.436025 0.489228 0.188259 -0.378492 0.636210 0.422729 0.202364 -0.251917 -0.329534 -0.418556 0.301857 0.253069 0.090240 -0.170639 0.018401 -0.049440 0.112456 -0.476381 -0.182094 0.245516 0.224891 0.860244 0.191188 0.364676 -0.184020 0.510113 -0.169704 -0.459581 -0.277442 0.013086 0.414168 0.193722 -0.432678 -0.089705 -0.206558 0.067876 0.205902 -0.728600 0.231890 0.420002 -0.584342 -0.134816 0.021505 0.457730 -0.068899 -0.633537 -0.118613 0.373290 -0.556916 -0.036068 -0.161070 0.137439 0.111065 -0.757442 -0.003310 0.808186 0.196294 -0.185834 -0.939240 -0.367293 0.249452 -0.407710
2050 0.174316 -0.594912 -0.595251 0.276649 0.473703 -0.108156 0.395857 -0.084371 -0.682569 -0.412140 0.112856 0.384265 0.627843 -0.120371 0.226779 -0.203087 -0.024138 0.259337 0.085045 -0.496541 0.198348 0.147079 -0.230738 0.183633 -0.452829 -0.198523 0.227168 0.243506 -0.026784 0.093295 0.118061 -0.209284 0.389279 -0.176307 -0.257909 -0.510695 -0.166719 -0.023946 -0.064026 0.123971 0.129752 0.130458 0.082416 0.284508 -0.120824 -0.177961 -0.586942 -0.067200 0.190784 -0.079497 0.022699 0.339542 -0.207456 0.018067 0.969225 -0.361077 -0.291793 -0.110709 0.341466 0.694047 -0.214222 -0.024602 0.260649 0.342388 0.039785 -0.352212 0.906806 -0.202728 -0.161900 -0.339681 -0.059325 0.083566 -0.031731 0.278010 0.340512 -0.387365 0.150827 1.042745 0.236783 0.199035 -0.554442 0.327133 0.407661 -0.297604 -0.247981 -0.029929 -0.615201 0.188984 0.389029 0.092543 -0.034907 0.443639 0.077852 -0.562908 -1.234997 -0.163648 0.035522 -0.210637 -0.517086 -0.461571 -0.317613 -0.182268 0.074254 -0.312296 -0.184948 -0.178050 -0.009205 0.839110 0.495605 0.133444 -0.055859 0.185184 -0.429503 -0.152034 -0.189574 1.108318 -0.023887 0.090618 -0.150474 0.370172 0.227267 0.220989 -0.117831 0.148324 -0.530042 -0.447958 -0.917433 -0.081219
979 0.177632 0.015009 0.121174 -0.605115 0.440012 -0.670732 -0.124497 0.799824 -0.357367 -0.121664 0.074131 0.792779 0.768366 -0.171643 0.284491 -0.238625 -0.004484 -0.535166 0.580949 0.665050 -0.714126 -0.187595 -0.116950 -0.363467 -0.329742 0.213291 0.364844 -0.122438 -0.279521 0.493970 0.693923 -0.025211 -0.168669 -0.430771 -0.533184 -0.338915 0.057125 0.033398 -0.177720 -0.018578 -0.313488 -0.129303 0.424920 -0.147006 -0.035462 -0.217802 0.077456 0.035456 0.171958 0.368487 -0.441226 -0.168139 -0.399220 -0.017669 0.126968 -0.237064 -0.982461 -0.113036 -0.098003 0.319676 -0.010306 -0.069093 -0.139447 -0.056126 -0.837023 -0.365937 0.186613 0.081883 0.032639 -0.194511 -0.203857 0.365903 0.061312 0.134519 0.175274 -0.028346 0.002622 0.561295 -0.518267 0.456872 -0.005613 0.347823 0.397497 -0.272218 0.247009 -0.491121 -0.242053 0.089367 0.597274 -0.282746 -0.433891 0.108828 -0.026887 0.013470 0.054739 0.173024 0.253513 0.469900 -0.384510 0.030688 0.001038 0.416588 0.225369 -0.015262 -0.052481 -0.683392 0.132757 0.395116 -0.400191 -0.420590 0.048956 0.007781 -0.395308 0.321579 -0.187407 -0.631423 0.609833 -0.040852 0.133863 -0.834559 -0.177256 -0.298078 -0.539335 0.251437 -0.851219 -0.190853 -0.225612 -0.067739
495 0.040973 0.289589 -0.252817 -0.976210 0.485280 -0.548984 -0.191512 0.926285 -0.356604 -0.283353 -0.091757 0.743064 0.848056 -0.111006 0.300633 -0.034636 0.067037 -0.647688 1.092079 0.815753 -0.313691 -0.286841 -0.186361 -0.736298 -0.406822 0.079950 0.344651 -0.308572 -0.211626 0.140087 0.701837 -0.193068 -0.165962 -0.262116 -0.159008 -0.192145 0.213065 0.385209 -0.328043 -0.315050 -0.573123 0.180289 0.231832 -0.424993 -0.094088 -0.329730 -0.472169 -0.118536 0.284150 0.374363 -0.242865 0.308212 -0.545578 0.236627 0.174166 -0.121274 -1.018479 -0.171827 -0.056480 0.509558 0.182194 0.527931 -0.327339 -0.024060 -1.018502 -0.283372 0.093589 -0.099674 -0.101368 -0.430292 0.018818 0.502557 -0.275968 -0.110746 0.269477 0.192561 0.108181 0.572365 -0.680152 0.076623 0.134754 0.352213 0.347828 -0.615846 -0.015824 -0.395379 -0.115400 -0.124534 0.711523 -0.604802 0.090238 0.529448 0.165708 0.335016 -0.243798 -0.050780 0.191722 0.172925 -0.211651 -0.123063 0.075951 0.043735 0.439194 0.132700 0.197212 -0.545640 0.168303 0.228185 -0.540392 -0.627241 -0.125663 -0.268442 -0.263663 0.077559 -0.165719 -0.541364 0.363017 0.246035 0.015562 -0.279518 -0.262455 -0.288475 -0.807972 0.078073 -0.611133 -0.214842 -0.055296 -0.228677
483 0.573559 0.102590 0.246328 0.026212 -0.063326 -0.169094 0.222920 -0.051856 0.030352 0.148381 -0.284618 -0.314075 -0.187492 -0.194578 0.528383 -0.484168 -0.185690 -0.263569 -0.277817 -0.185510 -0.161209 0.379773 -0.550852 -0.842952 0.063236 -0.546083 -0.079117 0.741309 0.501801 -0.816622 -0.023491 -0.214076 -0.269772 -0.129226 -0.140323 -0.522726 0.394527 0.120809 -0.288915 -0.069158 -0.075428 -0.519844 0.034054 0.025484 0.417064 0.303112 -0.338446 0.502618 0.748826 0.353658 -0.167048 -0.021472 -0.506005 -0.013002 0.007749 0.027642 0.036051 0.205939 0.055824 0.815431 -0.149687 0.120090 0.265857 0.208915 -0.385026 -0.315321 -0.126509 0.370643 -0.296109 -0.538352 0.211733 0.168419 0.205363 0.228713 0.423044 0.067594 -0.713376 0.247850 0.204497 0.247508 0.232918 0.353356 -0.502528 -0.159078 -0.623791 -0.287235 0.020295 0.323050 0.008089 -0.064992 -0.168662 0.042733 -0.050962 0.297887 0.185423 0.048359 -0.516011 -0.190542 -0.200683 -0.203890 -0.397809 -0.403671 0.026940 -0.424496 0.136102 0.146158 0.222114 -0.345085 -0.293142 0.073640 -0.431797 -0.223259 -0.148614 -0.299656 -0.235708 -0.215023 -0.083282 0.272098 -0.235760 -0.624226 -0.044807 -0.238313 -0.552369 0.688711 -0.045956 -0.382646 -0.152524 -0.287007
1004 0.275573 -0.527863 -0.111940 -0.305493 -0.049828 -0.366600 0.431489 -0.140194 -0.143463 -0.409754 -0.115636 -0.089938 0.117291 -0.138631 0.401334 -0.480175 -0.704613 -0.026765 -0.121409 0.538994 0.131391 -0.156593 -0.438838 -0.344439 0.237488 -0.306638 -0.018439 0.277087 0.472692 -0.412182 -0.625455 -0.265335 0.063518 -0.061223 0.017206 -0.440840 0.235061 -0.055529 -0.128264 0.031199 -0.208693 -0.438299 0.395563 0.333447 0.258994 -0.070896 -0.607420 0.388678 0.160353 0.312683 -0.081381 0.197580 -0.524250 -0.409311 -0.249576 -0.376567 0.027576 -0.467419 0.021806 0.128965 0.477496 0.566511 0.317322 0.373363 0.012493 0.118423 -0.124740 0.017075 0.473235 0.571072 0.175916 -0.568305 0.044039 0.055999 0.024933 -0.337779 0.068351 -0.037597 0.380989 0.488409 0.306010 0.390598 -0.546270 -0.591095 -0.495657 -0.412098 0.766545 0.849638 -0.101852 0.299255 -0.211166 0.264856 0.246044 -0.405207 0.292356 0.311382 -0.246305 0.352956 -0.068562 0.272993 -0.684433 -0.766436 0.008069 -0.223668 0.444954 0.251017 0.213051 0.050711 -0.360829 -0.176078 -0.368299 -0.026794 0.026553 0.092447 -0.139217 -0.607734 -0.153816 0.249869 0.592103 0.021059 -0.267137 -0.049724 -0.406828 0.704495 -0.401421 -0.570207 -0.329023 -0.244497
389 0.519718 0.822886 0.500514 -0.410109 1.102727 -0.434515 0.426392 -0.034083 0.204887 -0.179988 0.644405 0.011369 0.017325 -0.076872 0.936157 0.172420 0.008849 0.092247 0.161726 -0.362303 -0.052643 -0.425345 -0.555429 -0.414438 -0.441101 0.310335 0.394005 -0.026826 0.111137 0.518969 0.473450 -0.035935 0.045581 0.377562 -0.142157 -0.695004 -0.326656 -0.705238 -0.094894 -0.058240 0.468122 -0.216380 0.148541 -0.551650 -0.428228 0.076467 -0.251445 0.474757 0.292770 -0.420927 -0.763562 0.347709 0.229660 0.195586 -0.200273 0.102901 -0.219871 0.319476 0.012778 0.727685 -0.301733 -0.378789 -0.236696 0.329415 0.081008 -0.180594 0.731569 0.309060 0.336816 -0.334437 0.083512 0.102275 -0.986868 0.307471 0.865092 -0.477582 0.187248 0.277623 -0.605960 -0.032223 -0.420026 0.233216 0.684992 -0.819678 0.098114 0.180727 0.084958 -0.577563 -0.736318 0.754284 -0.755186 0.680750 0.492015 -0.093956 0.276379 0.569795 0.448247 0.420237 0.512527 -0.118627 -0.411828 -0.394654 0.276813 -0.286524 -0.515160 -0.239564 0.627817 0.271683 -0.660173 -0.353482 -0.399017 0.092827 0.000442 0.290302 -0.598231 -0.616459 0.183957 -0.419077 -0.198599 -0.741108 -0.143265 0.716298 -0.529789 0.273045 0.137645 -0.114323 -0.577597 -0.293477
634 0.341357 -0.169082 -0.092166 -0.273306 0.051018 -0.330700 -1.204455 -0.530622 0.372186 -0.351019 -0.571993 0.682104 0.990891 0.073709 0.255186 -0.069161 -0.280847 -0.690315 -0.168582 -0.260873 0.498466 -0.483081 -0.064326 -0.991329 -0.116411 -0.130499 0.351846 0.172129 1.153546 -0.071980 0.457087 -1.038044 -0.031931 0.495166 0.371441 -0.356798 -0.532172 0.064252 -1.119323 -0.051475 0.268847 0.604710 -0.128779 -0.116560 -0.012763 0.319844 -0.632057 0.099251 0.778604 0.611002 -0.727528 0.440103 -0.135993 -0.152436 0.022009 0.401626 -0.993324 0.113286 -0.852035 0.000100 -0.002374 0.170494 -0.467420 -0.615385 -0.205430 -0.242880 -0.058402 -0.908435 0.250937 0.004148 0.408027 0.157230 -0.079334 -0.208475 0.075985 -0.472934 0.469820 0.587408 0.298693 -0.662052 -0.130928 -0.306413 0.536480 0.146298 0.090158 0.546845 0.444785 0.543346 0.128485 0.406594 -0.391481 -0.087726 -0.188397 0.093272 0.146187 0.489206 -0.520882 0.207238 -0.404030 -0.599151 -1.129937 -0.538277 -0.081005 0.001987 0.613110 1.008298 -0.544200 -0.402676 -0.928448 -0.981274 0.198288 -0.647293 0.238381 0.343373 0.000567 -0.147646 -0.343291 -0.263922 0.596761 0.073024 -0.272243 0.384899 -0.247354 0.276785 0.575356 -0.696823 -0.127647 0.023974
516 0.472406 -0.179491 -0.114880 -0.322818 -0.101425 -0.126187 0.492090 -0.066207 0.054098 0.063930 -0.265450 0.448868 -0.067272 -0.094533 0.437405 0.226364 -0.446803 -0.211536 -0.191642 0.015669 -0.076101 -0.024548 -0.192578 -0.531755 0.177067 -0.258874 -0.197897 0.030446 0.453590 -0.166804 -0.241446 -0.141837 0.119109 -0.222147 -0.127873 -0.409303 0.150549 -0.182402 -0.465240 -0.040450 -0.184017 -0.452816 0.362790 0.180889 0.433686 0.001260 -0.784765 0.467206 0.058423 0.416521 0.092445 -0.053392 -0.541243 0.110940 -0.056588 -0.304764 -0.030967 -0.243279 0.238026 0.425944 0.044902 0.365023 0.173877 0.442609 -0.248682 -0.394879 -0.146631 0.019363 -0.183170 -0.159504 0.329412 0.070341 0.116542 -0.016447 0.290026 -0.507497 -0.645751 0.544677 0.398300 0.143881 0.009089 0.158600 -0.644042 -0.510182 -0.297201 -0.139377 -0.070361 0.207268 -0.386701 0.016362 0.132895 -0.070982 0.249239 -0.037437 0.447857 -0.057915 -0.405312 -0.095753 0.074219 0.035440 -0.328525 -0.706620 0.089754 -0.216874 0.188633 0.417578 0.191131 -0.327396 0.251010 -0.209794 -0.247043 -0.865318 -0.117119 -0.183352 -0.022330 -0.276928 0.015088 0.351755 0.153680 -0.163485 -0.454827 0.470164 -0.569842 0.735735 -0.268798 -0.705353 -0.055158 -0.113707
416 -0.520319 0.366810 -0.113648 -0.522277 0.060454 -0.312202 0.288182 0.833526 -0.260742 -0.025003 0.085225 0.380428 0.509399 -0.134452 0.702892 0.034276 0.174522 0.202311 0.019042 0.428308 0.150549 0.382721 -0.205332 0.062992 -0.654924 -0.160098 -0.312426 -0.129602 0.763547 -0.100320 0.684171 -0.110066 0.211410 -0.238337 -0.628367 -0.908495 0.106357 -0.304065 -0.065415 0.329716 -0.171392 -0.332382 0.060464 0.716236 -0.642498 -0.623933 -0.601388 -0.092484 0.301256 -0.171547 -0.684223 0.309808 -0.100556 -0.627422 -0.270448 -0.281356 -0.748111 -0.023762 -0.614366 -0.191212 -0.110064 0.064274 0.060196 -0.317142 -0.417057 -0.465376 0.197079 -0.055005 -0.588508 -0.308362 -0.119705 0.292017 -0.178079 -0.124651 0.210182 -0.001618 -0.411949 -0.483804 -0.133697 0.201437 0.415036 0.616440 0.312945 -0.067744 0.465418 -0.462559 0.102246 0.135450 0.290803 -0.371418 -0.729878 0.665206 0.429521 -0.014542 -0.687014 0.285232 0.246864 0.189496 -0.585209 0.013594 -0.543831 0.123211 0.194541 0.195471 -0.071368 -0.157484 -0.163498 -0.095534 -0.369017 -0.862868 0.000630 0.271391 -0.471426 -0.552515 -0.217314 -0.888246 0.216563 -0.687951 0.332639 -0.178054 -0.271288 0.340603 -0.319359 0.546379 -0.223055 -0.230165 -0.289866 0.022960
848 0.324671 -0.384760 0.465570 -0.369359 0.174440 -0.200429 0.102548 0.230320 0.681634 -0.323530 0.678653 0.488457 0.627771 -0.086290 -0.073419 -0.546625 -0.274295 -0.819783 -0.028992 -0.189391 -0.239135 0.254530 -0.486292 -0.152491 -0.882518 -0.285374 -0.047539 -0.603042 -0.100903 0.347189 0.313474 -0.293300 -0.382897 -0.293475 -0.140361 -0.651599 -0.046562 -0.686510 -0.348356 -0.549829 -0.229547 0.120154 0.407552 -0.323780 -0.414206 -0.191525 0.392486 0.141086 0.589729 0.562899 -0.129447 -0.069220 -0.083387 -0.068789 0.517110 0.151972 -0.193474 -0.024343 -0.213926 0.443142 0.259198 0.014826 0.060171 -0.249136 -0.518514 0.218861 0.077863 -0.595152 0.286315 0.068872 -0.032857 0.106961 -0.103049 -0.623131 0.086093 -0.212699 0.010599 0.054106 -0.177723 0.262360 -0.026877 0.059783 0.617257 -0.455961 0.381791 -0.014785 -0.452229 -0.071846 -0.174336 0.320226 -0.022679 -0.067605 0.073851 -0.456971 -0.387423 0.660573 -0.272683 0.267707 -0.251513 0.054543 0.300917 0.068983 0.033335 0.379882 -0.443336 -1.100758 0.023438 0.219829 -0.082543 0.532045 -0.395567 -0.687361 -0.914274 -0.135066 0.202857 -0.595239 -0.041744 0.500983 0.374116 -0.144253 0.107284 -0.385802 0.020350 -0.099731 -0.187341 0.633249 -0.293168 0.231330
1150 0.867036 0.579640 -0.655122 -0.046605 -0.209592 -0.301390 -0.221328 0.332080 -0.517962 -0.645726 1.071536 0.817973 0.551705 -0.172816 -0.020954 0.242787 -0.359391 -0.363675 0.114588 -0.543960 -0.213425 0.929771 -0.058257 -0.629968 -0.496745 -0.066869 0.780204 0.049243 0.227872 -0.536446 0.347425 0.185266 -0.025044 -0.200827 -0.845184 -0.591625 -0.625909 -0.603806 -0.348962 -0.586208 0.724410 -0.888929 -0.029835 0.233385 0.201247 0.093249 -0.170599 0.005790 -0.344937 -0.184275 0.356578 0.575972 -0.596262 -0.762332 0.089579 0.036893 0.130660 -0.244338 -0.018878 0.485645 0.386269 0.290719 0.208146 -0.221696 -0.371162 -0.038383 0.074344 0.357896 0.098373 -0.789324 -0.351545 0.538498 0.872382 0.242464 0.500780 0.066514 -0.225029 0.063579 -0.214874 0.149844 -0.259002 -0.676066 0.109002 -0.219123 -0.471658 0.260072 0.311795 0.039784 -0.046432 0.206896 -0.835564 0.550105 0.192632 0.143345 -0.655672 0.016553 0.287248 0.423323 -0.467173 -0.107316 0.339618 -0.143175 0.168120 0.628761 0.342725 -0.460113 -0.137533 0.154362 0.369279 0.016302 -0.766631 0.265465 -0.435651 -0.055464 0.011476 -0.280802 -0.333326 -0.293072 0.288845 0.299652 0.081976 -0.166957 0.101244 -0.440687 0.159876 -0.461695 0.013530 -0.444858
2832 0.518968 -0.693779 0.982688 -0.373090 0.158740 -0.430090 0.080262 -1.077886 0.095753 -1.060408 -0.104903 0.293861 0.606102 -0.399545 0.106893 0.057144 -1.042921 0.386235 -0.140402 -0.795323 -0.825570 0.742272 -0.195170 -0.812717 0.603806 -0.507270 0.114462 -0.374763 -0.174169 0.492631 0.385164 -0.094889 -0.173069 0.021718 -0.292213 -1.470027 -0.168177 -0.766968 -0.704752 -1.184472 0.225059 0.651554 -0.320923 -0.693507 -0.140174 1.236628 -0.908930 0.724002 -0.335592 0.144852 -1.351774 -0.366302 -0.038814 0.070035 -0.447162 -0.139179 -0.250238 -0.146105 -0.433454 0.400348 0.535446 0.027515 -0.365436 -0.353819 -0.026645 0.006457 0.277320 0.407400 -0.509872 -0.256979 0.529922 0.598287 0.014831 0.370701 -0.330487 -0.497013 -0.092461 0.452375 0.677560 -0.891270 0.361263 -0.379856 0.111959 0.008418 0.093059 -0.354867 -0.029570 0.487053 0.201830 0.434117 -0.354158 0.279583 0.233119 -0.150728 -0.164889 0.108461 0.447570 -0.145718 -0.566430 -0.681002 -0.693567 -0.193590 -0.396197 0.771737 -0.452949 -0.832378 0.016128 0.349532 -0.675003 -0.165227 0.002706 0.277143 -0.674721 -1.053391 0.614049 -0.852262 -0.426183 0.636187 -0.465384 -1.072984 0.248105 -0.003912 0.800074 -0.258145 0.003232 -0.156106 -0.864864 0.162995
1460 -0.285127 -0.517121 0.094110 -0.699483 -0.026389 -0.706697 -0.066306 0.156348 -0.227556 -0.730789 0.099679 0.682507 0.199284 -0.111690 -0.211674 -0.430062 -0.069867 -0.644896 -0.332667 -0.325017 -0.386699 0.525229 -0.554274 -0.604354 -0.168041 0.343691 0.972969 -0.054013 -0.264281 -0.258487 -0.857571 0.446826 0.106696 0.056035 -0.072670 -0.889656 -0.715179 -0.458031 -0.885047 -0.446546 -0.208733 0.347915 -0.080283 -0.409905 -0.747658 0.334135 -0.216732 0.339782 0.188846 0.149724 -0.880076 -0.253385 -0.126958 -0.141005 -0.468830 0.085707 -0.224130 0.032229 0.404423 0.458509 0.830802 0.199907 0.327211 -0.173829 0.321297 -0.804856 -0.276790 -0.482245 -0.043940 -0.098056 0.037882 0.304339 0.287565 -0.051269 0.010111 -0.764247 0.297375 0.463458 -0.137845 -0.002810 -0.005868 0.257145 -0.412146 0.263095 -1.057193 -0.378597 0.318078 0.360046 -0.416954 -0.345021 -0.155602 0.021150 0.626899 0.544476 0.032771 -0.315532 -0.135719 0.168415 -0.198901 0.393609 -0.053778 0.413707 -0.226713 -0.902814 0.690746 0.147053 0.440238 0.370442 -0.530347 0.248581 -0.128275 -0.001763 0.172465 -0.279657 0.386276 0.119800 -0.255935 0.277828 -0.311580 -0.304937 0.379068 0.001402 0.104595 0.556073 0.040223 -0.109826 0.127021 -0.199280
685 0.343389 0.434443 0.021145 -0.270483 -0.594573 -0.068587 0.785557 -0.156100 -0.161001 -0.120186 0.098295 -0.490978 0.481899 -0.243573 -0.299642 -0.135518 -0.263128 -0.297587 0.208074 -0.342156 -0.010381 0.034994 -0.152169 -0.415652 0.181307 -0.065265 0.383814 -0.057737 0.107352 -0.178872 0.130357 -0.834145 -0.682938 -0.442096 -0.385909 -0.765685 -0.350329 -0.198697 -0.298225 -0.316967 0.384408 0.175764 0.261484 -0.773699 0.135536 -0.149961 -0.155018 0.355915 0.656905 0.840528 -0.696009 0.399533 0.074933 -0.128998 0.005366 0.455780 0.190836 0.167972 0.349106 0.176854 0.088615 0.636500 0.156525 0.447672 0.510748 0.200716 -0.050105 -0.208478 -0.073164 -0.149211 0.250464 -0.004229 -0.009310 0.235128 -0.132689 -0.286200 -0.101816 -0.119961 -0.015608 0.377760 -0.172610 -0.561072 -0.859686 -0.543415 -0.294484 0.097771 0.396882 0.036733 0.354497 -0.497211 -0.234031 0.112765 0.081711 0.220663 -0.065730 0.322937 -0.492014 -0.223868 0.162375 0.264024 -0.489311 -0.231926 0.266388 0.440407 -0.055183 0.281416 -0.194116 0.322643 0.381213 0.010558 0.082096 -0.046436 -0.107899 -0.242049 -0.176163 -0.091408 0.202879 -0.083184 -0.244802 -0.162982 0.279352 0.482133 -0.219449 0.215668 -0.293049 -0.499890 -0.265965 0.101374
2996 0.634097 -0.342822 -0.426880 -0.453163 -0.028285 -0.098801 0.398713 -0.491061 -0.227359 0.518592 0.457924 0.480722 0.449185 -0.355376 -0.202079 0.318669 -0.492161 -0.679445 -0.171572 -0.543550 -0.586497 0.816095 -1.003438 -0.416992 -1.095970 -1.225891 -0.184189 -0.230550 -0.932654 0.083305 -0.331714 -0.368180 -0.294073 0.926566 -0.447900 0.436947 -0.207637 -0.148366 0.160862 -0.367824 0.231937 -0.180833 0.161682 -0.936197 1.115784 -0.173556 -0.739439 -0.027900 0.081570 0.003149 -1.243625 -0.892825 -0.804366 0.376395 0.894280 -0.154574 0.555957 -0.253527 0.123915 0.800676 0.655103 1.684608 -0.287672 -0.208873 -0.117116 -0.186540 -0.195006 -0.010246 -0.337247 -0.551564 -0.615437 0.474556 -0.425869 0.108377 -0.375171 -0.401093 -0.136888 0.115597 -0.587070 0.103502 0.048459 -0.948391 0.052395 0.054317 -0.707032 -0.458255 -0.263097 0.125441 -0.853327 -0.363451 -0.528944 0.261635 1.004990 -0.256123 -0.621660 -0.241545 -0.366110 0.240649 -0.814883 -0.678559 -1.335303 -0.725531 -0.541842 0.036830 0.157368 -0.455738 -0.463510 0.241507 0.224868 -0.042554 -0.306439 0.472960 -0.934510 -0.984936 0.624657 -0.014499 0.594250 0.181787 0.078751 -0.703289 0.676258 0.260389 0.482993 0.036069 -0.102460 0.004645 0.078970 0.058846
295 0.476957 0.099613 -0.061123 -0.163855 -0.456549 -0.340267 -0.612966 -0.312284 0.175103 -0.482060 -0.271816 0.324742 0.165215 0.440608 -0.185816 0.099087 -0.202675 -0.278794 0.127367 -0.491589 -0.391094 -0.497071 0.148057 -0.737072 -0.133243 0.060972 0.441516 0.510712 0.660428 -0.286762 0.537722 -0.646995 -0.218243 0.249868 0.005426 -0.339309 -0.382044 0.278388 -0.669121 0.109286 -0.077323 0.265097 0.096548 0.178698 -0.221144 0.117553 -0.972109 0.349348 0.594530 0.726455 -0.663150 0.687103 -0.541353 0.200674 -0.054639 0.130873 -0.423977 0.019979 -0.548760 -0.255536 -0.181231 -0.009043 -0.003676 -0.230626 -0.206213 -0.154967 -0.403001 -0.752865 0.008596 -0.053220 0.611048 -0.013091 -0.060897 -0.487048 0.113915 -0.857375 0.311927 0.452722 0.202017 -0.377548 -0.155490 -0.320173 0.859704 0.069419 -0.247179 0.245488 0.176201 0.485780 -0.070878 0.255872 -0.216315 0.125946 -0.271429 -0.234131 -0.536032 0.585168 -1.029323 0.098064 -0.066582 -0.397992 -0.814406 -0.538040 -0.144744 -0.428677 0.369130 0.491957 -0.159632 -0.397927 -0.722424 -0.598717 0.462595 -0.526273 0.240945 0.628399 0.618337 -0.331812 0.126043 -0.084538 -0.102060 0.086684 0.066946 0.415751 -0.213334 -0.341481 0.162693 -0.627075 0.144125 0.167037
1759 0.163460 -0.482862 0.103988 -0.802892 0.249817 -0.769130 -0.721541 -0.111639 0.605703 -0.576021 0.055133 -0.082856 0.944635 -0.091323 1.229156 0.059946 0.023041 -0.389078 0.155784 -0.653000 -0.241460 -0.034753 0.183056 -0.672583 -0.072676 0.615936 0.605760 0.187356 0.327128 0.452920 -0.033829 -0.865872 -0.154025 0.481051 -0.495553 -0.674762 -0.387928 -0.350009 -0.206383 -0.378506 0.429058 0.120006 -0.691877 -0.027646 0.239569 -0.194336 -1.472592 -0.523446 1.420215 -0.019603 -1.096107 -0.565067 -0.469823 -0.302160 0.070522 0.432140 -0.861145 0.862314 0.204737 0.001162 1.148293 0.884593 0.662130 -0.057534 -0.389534 -1.044766 -0.630038 0.664041 -0.437402 -0.472825 -0.041495 0.757611 -0.292905 -0.583919 0.648802 -0.305141 -0.898696 0.292808 0.098915 -1.123603 -0.135868 -0.639272 0.674819 0.586770 0.289275 0.031500 0.429182 0.207880 0.150525 0.573332 -0.183130 -0.201469 0.338434 0.182894 0.072864 0.375447 0.058782 1.233333 -0.598162 -0.100427 -0.306784 -1.726835 -0.536829 0.184635 1.127084 -0.219280 -0.111259 1.320096 -0.130884 -0.338432 0.702182 -0.239557 0.367713 0.562579 -0.629708 -0.820518 0.927207 -0.194237 0.294663 0.212480 0.239217 0.154673 -0.402920 -0.246628 -0.322385 -0.143265 0.033027 -0.683581
1374 -0.602815 -0.707138 0.397471 -0.613553 -0.013916 -0.749685 -0.030221 0.461549 -0.354532 -0.185755 0.356504 0.611901 0.107828 -0.483442 -0.115720 -0.406255 0.227089 -0.702735 -0.359125 -0.385711 -0.585608 0.069436 -0.204668 -0.507738 -0.244120 0.198659 0.913645 -0.176196 0.190852 0.003608 -0.457557 0.315443 0.168826 -0.199115 0.009422 -0.842621 -0.331422 -0.452134 -0.810263 -0.406381 -0.454927 0.145757 -0.561012 -0.254374 -0.597732 0.274503 -0.629879 0.019283 0.267601 0.260072 -0.520351 0.260078 -0.358213 -0.032477 -0.426057 0.081612 -0.119235 -0.198496 -0.064625 0.082292 0.969328 0.133844 0.153189 -0.465719 -0.003296 -0.396253 -0.033189 -0.657360 -0.277464 -0.167613 0.164832 0.405697 0.173651 -0.053909 0.175539 -1.113552 -0.160552 0.497850 0.207415 0.496360 0.340655 0.253901 -0.460813 0.407454 -0.897337 -0.013434 0.189187 0.136547 -0.311080 0.137678 -0.040224 -0.091825 0.680334 0.649486 0.036122 -0.492130 -0.666395 -0.037081 0.109025 0.542741 0.210970 0.044600 -0.231168 -0.678227 0.767691 0.175388 0.242047 0.522002 -0.519915 0.119693 0.126912 -0.016646 0.317554 -0.403789 0.134680 -0.079690 -0.124320 0.199426 -0.204442 -0.768047 -0.039371 -0.446709 0.275530 0.553231 0.019177 -0.301882 -0.344360 -0.158477
1747 0.254435 -0.233111 -0.207566 -0.394218 -0.164475 -0.584931 -0.192051 -0.586467 -0.143569 0.419765 0.158500 0.387745 0.984018 -0.229756 0.142043 0.162626 -0.453642 0.010815 0.234222 -1.018641 0.356717 -0.349925 -0.355709 -0.282629 -0.420111 -0.120586 0.408058 0.285907 -0.397217 -0.256554 0.120755 -0.704833 -0.336879 0.769540 0.183899 -0.210866 -0.468431 -0.003799 -0.123265 0.086215 0.141679 0.105955 0.708853 0.181895 -0.080818 0.667172 -0.003571 -0.309700 -0.290747 0.134651 -0.825982 0.971815 -0.375578 -0.677735 0.281734 0.231684 0.014053 -0.212075 -0.489388 -0.043898 1.175040 0.791312 -0.453829 -0.180697 0.373217 -0.395548 -0.309916 -0.375521 0.126032 -0.422567 0.905293 0.254298 0.077018 -0.662590 0.099031 0.009840 -0.764692 0.273637 -0.168128 -0.068131 0.777698 -0.408450 -0.187069 -0.455118 -0.116800 -0.515403 -0.002090 0.648781 -0.379138 0.660148 -1.109273 1.143697 0.488849 0.926047 -0.072739 -0.759930 0.097912 0.539550 -0.287956 -0.049770 -0.266466 0.127817 0.261172 -0.121123 0.587869 -0.403488 -0.251054 0.453928 -0.124367 0.225137 0.009521 -1.082950 -1.152316 -0.435527 -0.130609 -0.076996 -0.348978 0.382609 0.278310 0.010483 0.041971 1.007843 0.487875 0.096207 -0.532187 0.610603 0.555685 -0.215536
876 0.166895 0.224895 0.614632 -0.309188 -1.103045 -0.102531 0.051054 -0.102805 0.316833 -0.093106 0.727393 0.094001 0.146814 0.540784 -0.080502 0.502189 0.505938 -0.010576 0.413834 0.241582 -0.134336 -0.004482 -0.297677 -0.764637 -0.677676 -0.681809 0.352472 -0.177591 0.022044 -0.089213 -0.122586 -0.309794 0.562810 -0.538123 0.165348 -0.719376 -0.159331 -0.181991 -0.944415 -0.024511 0.276616 -0.075626 -0.226854 -0.180445 0.438356 -0.445165 -0.355292 0.201638 0.199179 -0.303796 -0.081621 0.361903 -0.781451 0.644065 0.221224 0.480286 0.526182 0.391474 -0.141782 -0.088118 -0.080373 0.383976 0.269257 0.140950 0.053422 -0.183449 0.476898 0.262806 -0.319320 -0.000919 0.499564 -0.482511 0.126811 -0.197149 0.684907 0.045308 0.222735 0.746466 0.226380 -0.490048 -0.085439 -0.308164 0.253388 -0.506416 -0.304769 0.110747 0.243648 0.129061 -0.208869 -0.289049 -0.226525 0.124912 0.036379 -0.324715 -0.032992 0.369124 -0.710994 -0.060320 -0.696061 0.229567 -0.725202 -0.609442 0.430108 -0.575947 0.144192 -0.037157 0.334518 0.869229 -0.468042 -0.132910 0.069610 -0.192601 -0.058648 -0.322937 -0.317228 -0.296160 0.070770 0.230997 0.190784 -0.345957 1.023225 0.043356 0.025711 -0.005943 -0.459935 -0.139595 -0.060495 0.391907
1083 0.793071 0.040780 -0.461832 0.568776 -0.231243 0.213108 -0.736028 -0.172813 -0.451148 -0.898037 0.526094 0.657007 0.430194 0.179023 -0.013692 -0.396036 -0.562907 0.115341 0.218711 -0.381096 -0.230538 0.443561 0.285182 -0.397710 -0.301107 -0.057510 0.098623 -0.856687 -0.086427 0.321007 -0.032440 0.000029 0.029504 -0.620912 -0.040662 -0.698836 -0.150963 0.075786 -0.662232 -0.133399 0.351302 -0.574214 -0.154468 0.083463 -0.157864 -0.401015 -0.308303 0.635405 0.788777 -0.713498 -0.032199 0.073109 -0.579919 -1.146369 -0.199778 -0.085569 -0.596646 -0.485540 -0.313335 0.056007 0.215595 0.392779 0.548517 -0.064370 -0.723614 -0.288036 -0.013166 0.494081 0.142927 -0.962138 -0.173532 0.267493 1.042374 0.738543 0.049887 0.327557 -0.411626 0.410104 0.229383 -0.896815 0.094733 -0.126820 -0.198398 -0.423113 -0.302396 0.524558 -0.366653 0.467177 -0.121732 0.007164 -1.258410 0.298033 -0.039073 -0.390097 -0.697823 0.089882 -0.286292 0.465030 -0.387453 -0.597581 -0.215962 -0.406223 0.028708 0.153478 0.361097 -1.137094 -0.953064 0.330539 0.165263 -0.486426 -0.396332 -0.053493 -0.455667 0.157403 -0.367823 -0.264967 -0.610855 0.093267 -0.013344 -0.584239 -0.052038 -0.173385 -0.199811 -0.327671 -0.125155 -0.358091 0.408254 -0.793825
447 0.690902 0.022874 -0.228460 0.015773 0.210884 -0.470820 -0.357790 -0.373678 0.149753 -0.792184 -0.516950 -0.461871 0.211323 -0.518363 0.250716 -0.243326 -0.345558 -0.387535 0.141545 -0.545869 -0.377662 0.086929 -0.280220 -1.045532 -0.054449 0.105748 0.388642 0.176523 0.348379 -0.407073 0.647823 -0.641198 -0.091863 0.283236 0.200375 -0.199653 -0.781752 -0.139577 -0.530386 0.205733 -0.227161 -0.244452 -0.082559 0.458666 0.068410 0.327415 -0.565727 0.234757 0.535363 0.766829 -0.314437 0.610967 -0.610141 0.087552 -0.151132 -0.225612 -0.402767 -0.330669 0.076609 -0.288681 -0.138590 -0.333043 0.166459 -0.218651 -0.678822 -0.333663 -0.600044 0.334963 -0.431518 0.407685 -0.159565 -0.047658 -0.348286 -0.553092 -0.131220 -0.681308 -0.097080 0.590199 -0.025697 -0.180975 -0.270247 0.197028 -0.453671 -0.141430 0.095835 -0.428959 -0.218888 -0.107976 -0.328627 0.434654 -0.149682 0.491410 -0.261397 -0.185598 0.039338 0.229778 -1.294173 0.323142 0.582657 -0.131997 -0.759948 -0.147230 -0.185802 0.180231 0.279264 -0.363800 0.510117 0.054131 -0.295014 -0.329816 -0.361493 -1.072295 0.065767 0.278363 -0.812554 -0.376197 0.829783 0.306199 -0.231659 0.668811 -0.459987 0.113112 0.393773 -0.172150 -0.241944 0.208553 0.366569 -0.230927
522 -0.280064 -0.274033 0.335742 0.043468 0.020258 -0.576159 0.085343 -0.169608 -0.229711 -0.283610 -0.048298 0.129667 0.133781 -0.228820 -0.144265 0.015650 -0.128408 -0.591852 -0.301481 -0.220305 -0.613067 0.258129 -0.605172 -0.344481 -0.105858 0.174526 0.413761 0.040531 0.172598 -0.312685 -0.621850 0.110383 -0.161802 -0.318478 -0.101522 -0.753932 -0.299580 -0.497442 -0.554892 -0.270585 -0.037475 0.365120 -0.186553 -0.107407 -0.223806 0.175242 -0.530102 0.073981 0.141904 0.302546 -0.863047 0.054891 -0.146415 -0.112893 -0.203819 0.010252 -0.160431 -0.026528 0.387965 0.005787 0.699263 0.085942 0.234526 0.192212 -0.355356 -0.553581 -0.434569 -0.183812 0.203539 0.578807 0.085636 0.202097 0.239783 -0.257862 0.126129 -0.409073 -0.142510 0.523110 0.314598 0.315872 -0.219031 0.170998 -0.672848 -0.065022 -0.619582 -0.070705 0.450209 0.436376 -0.001135 -0.188645 -0.020826 0.234801 0.457611 0.466887 0.306501 -0.220564 -0.335324 0.185646 0.219196 0.085450 0.007391 -0.022056 0.224596 -0.706277 0.174961 -0.139254 0.391810 0.153397 -0.300132 -0.006347 -0.070128 0.150472 -0.066411 -0.461985 0.071556 -0.047875 -0.100783 0.227373 0.210460 -0.762933 -0.284568 -0.350187 0.109992 0.405650 -0.210197 -0.545380 -0.046905 0.142471
1500 0.542981 0.295082 -0.478612 0.335955 -0.230782 0.623567 -0.339384 -0.150032 0.392600 -0.726157 0.688997 0.197125 0.328009 -0.473376 -0.070071 0.451151 -0.249370 -0.297022 -0.380951 -0.577628 0.170926 0.460011 0.336601 -0.342390 -0.129098 -0.025848 0.998668 0.303408 0.641028 -0.713290 0.550833 -0.533422 0.725682 0.071686 -0.530616 -0.499139 0.249022 -0.256818 -1.345749 -0.349227 0.331224 -0.378133 -0.246965 0.955643 -0.225479 -0.747294 0.067414 0.494559 0.448192 -0.234800 -0.797577 0.243998 -0.574304 -0.139687 -0.216616 -0.164701 0.400476 -0.315636 -0.060420 0.574397 0.309886 0.364137 -0.665304 0.090236 -0.209092 -0.499432 -0.052443 -0.644126 0.391227 -0.312506 -0.568698 1.115426 0.862497 0.345021 0.357985 -0.214775 0.532763 0.056074 -0.273863 0.188422 -0.129492 0.102539 0.185851 -0.311458 -0.023600 0.029196 0.428895 0.049601 -0.464692 0.188781 -0.939792 0.099439 0.506052 0.267798 -0.834456 -0.451600 -0.338948 0.294240 -0.897077 0.247305 0.161834 -0.276522 0.373778 0.194082 0.941417 0.147466 -0.536550 -0.009675 -0.030157 -0.429972 -0.429644 0.009574 -0.457339 -0.284841 0.021427 0.136487 -0.132302 -0.438438 0.085162 -0.243962 -0.187282 0.364430 -0.376180 0.174481 -0.226620 -0.005625 -0.140168 -0.504381
1634 0.618248 0.325742 0.169674 0.064381 0.080961 0.209468 -0.477675 -0.266379 -0.191283 -0.284359 -0.004340 0.341853 0.044434 -0.643813 0.335238 -0.382567 -0.277779 0.008846 -0.130036 0.173822 -0.143474 -0.070101 -0.120746 -0.348942 0.185499 -0.111577 0.525836 -0.292012 -0.722761 -0.498450 0.154670 -0.116878 0.328664 -0.376313 0.043534 -0.545729 0.282891 -0.621539 0.481421 -0.463052 0.434780 -0.314195 -0.150757 0.059120 -0.632754 -0.140405 -0.151236 0.668020 0.353889 0.529854 -1.147583 -0.320427 0.263773 0.151197 -0.656906 -0.744516 0.513048 -0.284942 0.352159 0.260566 -0.055556 -0.027667 0.546842 0.465245 -0.294929 0.307561 0.325134 -0.552855 0.167904 -0.140902 0.531720 0.623197 0.426075 0.174219 -0.237603 -0.338135 0.002194 -0.347758 0.292715 -0.450816 0.240480 0.545832 -0.537733 -0.004488 -0.586296 0.210070 -0.062414 0.483535 0.133472 0.169952 0.163820 0.125991 -0.089383 0.647119 -0.863009 0.225748 -0.426107 0.310069 -0.451861 -0.296758 -0.830183 -0.707080 0.004576 0.069423 0.262199 -0.011484 -0.250362 0.802796 0.041649 0.440909 -0.097038 0.193716 -0.467881 -0.423475 -0.450384 -0.249787 0.603179 0.590681 0.412835 0.029203 0.583312 0.647589 -0.154013 -0.554229 -0.318461 -0.438196 0.523617 -0.820804
1386 0.961330 -0.364773 -0.161414 -0.526520 0.294276 -0.894630 -0.615738 0.477942 -0.244213 -0.139680 -0.536094 0.234733 0.994558 -0.661618 0.803980 -0.328511 -0.588928 0.379504 -0.504219 -0.393718 0.542117 -0.164573 -0.388240 -0.424568 -0.206300 -0.154169 1.113202 -0.227293 -0.328638 -0.003151 0.454039 -0.686534 0.439306 0.169950 0.279702 -0.194707 -0.865777 -0.144174 -0.018278 -0.308238 0.681128 0.112327 0.237601 0.090590 0.308883 0.985786 -0.453963 0.505713 0.916080 -0.712364 -0.005470 0.272520 -0.301373 0.012602 0.510289 -0.190306 0.665407 -0.313402 0.454633 0.280884 0.894096 0.582481 -0.644389 0.319522 -1.349033 0.048819 -0.309658 -0.521096 -0.370037 -0.051021 -0.121825 0.189919 -0.196463 0.547511 0.671009 -0.158125 -0.008925 -0.177097 -0.241070 -0.636362 0.121677 -0.251860 -0.010641 -0.657869 -0.640739 -0.141103 0.147272 0.119679 -0.283753 0.285455 -0.553955 -0.331732 -0.125353 1.093926 0.328104 0.147392 -0.001494 0.023134 -1.017235 -0.479904 -0.373348 -1.330474 -0.482738 0.291696 0.356374 -0.023797 -0.419240 0.367099 -0.643432 -0.270383 0.549564 -0.010012 -0.540470 -0.863924 -0.576589 -0.358625 -0.316129 0.730860 -0.142171 -0.587433 0.513419 0.104574 0.289627 0.381089 -0.885210 0.526801 0.058111 -0.212319
202 0.189753 -0.125723 0.248043 -0.147382 0.499005 -0.004615 0.192570 0.673712 0.533257 0.066609 0.193218 0.065358 0.623294 -0.562772 -0.063565 -0.453471 -0.343039 0.167484 0.726172 -0.384051 -0.352971 -0.192557 -0.387264 -0.639807 -0.216629 -0.466688 -0.352218 -0.231291 -0.366585 0.064687 0.755989 -0.457245 -0.018399 -0.011022 0.272016 -0.302873 -0.163861 -0.337188 -0.304786 0.154654 0.262800 0.308049 -0.034972 -0.759179 -0.939642 -0.426648 -0.023509 -0.195645 0.204004 -0.055693 -0.360903 0.597013 0.465238 -0.540682 -0.205499 0.108550 -0.008748 0.183235 -0.123773 0.691688 -0.127536 0.165622 -0.291471 0.258852 -0.540956 -0.577561 0.468137 -0.158884 0.305414 -0.072935 0.489240 0.828840 -0.093037 -0.593989 0.661995 -0.304377 0.000435 0.248513 -0.307585 0.171293 0.204521 0.143285 0.505323 0.553835 0.433465 -0.478688 -0.474309 0.424101 -0.415509 0.660783 -0.415677 0.258224 -0.175619 -0.230324 0.256973 0.646983 0.014193 0.674421 -0.067311 -0.481409 -0.316188 -0.455343 0.724041 -0.139515 0.039052 0.016694 -0.097532 0.021388 -0.421825 -0.645913 -0.628160 0.147875 -0.165064 0.037899 0.012706 -0.214655 0.600091 -0.559403 -0.280618 -0.503368 -0.389714 0.771814 0.100666 0.125504 0.108333 0.096840 -0.272853 -0.037865
441 0.709766 0.393127 0.067773 0.293961 0.177263 -0.000249 -0.490569 -0.291077 -0.897242 -0.460985 0.410752 0.320268 0.194536 -0.184334 -0.006697 -0.382873 -0.642924 0.172567 -0.140237 0.047284 -0.073214 0.683983 0.041188 -0.522551 -0.118190 0.363889 0.597344 -0.197902 0.156010 -0.800881 0.503015 -0.230682 0.314889 0.118319 -0.393457 -0.450675 -0.123139 -0.359689 -0.328591 -0.347345 -0.434082 -0.117379 0.007359 0.499259 0.209975 -0.894745 0.208246 -0.017300 -0.024617 0.494386 -0.477099 0.058135 -1.041043 0.311981 -0.202335 -0.893105 0.263666 0.047396 0.323276 0.112619 0.350782 0.675160 0.457158 -0.014002 0.207956 -0.070170 0.349667 0.096082 0.609715 0.024931 -0.335440 0.411267 0.244919 0.265485 0.484608 -0.021387 0.026389 -0.196593 -0.236613 -0.012626 -0.915942 -0.163116 -0.345688 -0.116411 -0.446754 0.510637 0.140417 0.110560 0.105321 0.205003 -0.193994 -0.220152 0.120612 -0.185429 0.298781 0.063406 -0.442460 0.294502 -0.069375 0.021879 -0.264704 -0.582422 0.054355 -0.102557 0.623614 0.116092 -0.899311 0.287103 -0.142238 -0.347117 -0.286438 -0.196777 -0.313952 0.001562 -0.474660 -0.150567 -0.024181 -0.294130 0.230564 -0.345065 0.418448 0.357571 0.058122 -0.396844 -0.091399 -0.381229 -0.128074 -0.438344
1811 -0.404720 -0.832233 0.604119 0.375502 -0.262027 -0.419438 -0.302219 0.818704 -0.259804 -0.291397 0.147922 0.213003 -0.196610 0.581865 0.221752 -0.793144 -0.701591 -0.263588 0.193013 -0.650924 0.172451 0.314521 -0.713186 0.299715 -0.466526 0.289688 0.668369 -0.089939 0.599212 0.328787 0.200260 0.371953 -0.070985 -0.086596 0.484441 -0.239637 0.256933 -0.450606 -1.034773 0.472125 0.306037 -0.421927 0.432938 -0.600629 -0.047716 0.319874 -0.354952 0.080102 0.190392 0.375202 -0.738762 -0.071525 -0.397218 0.090073 0.245146 0.260566 0.431685 -0.071537 -0.435775 0.340948 -0.346520 1.008736 0.144903 -0.031040 -0.020962 -0.419103 0.352592 -0.136342 0.222045 -0.942138 0.362581 0.642949 -0.287977 0.437181 0.046549 -0.551680 0.195154 0.611723 0.039511 -0.149208 0.453504 0.156095 0.211505 -0.011997 0.272844 0.287398 -0.386086 0.603239 0.065883 0.717888 0.440761 0.430577 0.699026 -0.085967 -0.437907 0.029284 0.244316 0.605870 -0.816537 0.369383 -0.139618 0.129425 0.360921 0.153834 0.250593 0.204722 -0.266743 0.282515 -0.471902 0.744330 0.205137 0.399304 0.268332 -0.306342 -1.147988 0.665227 -0.029098 0.242270 0.181496 -0.427138 -0.309119 -0.328231 0.035953 0.157903 -0.482716 -0.834640 -0.081092 -0.453645
608 0.404196 -0.102952 0.556148 -0.065637 -0.310365 -0.822421 0.127222 -0.262553 -0.332090 -0.114541 -0.281012 0.700456 -0.261940 0.002324 0.261814 -0.109474 0.020526 -0.268489 -0.084835 -0.543671 -0.037961 0.348205 -0.504491 -0.336861 -0.123565 -0.427337 -0.359491 0.974725 0.260988 -0.444265 0.405552 -0.536442 0.142300 -0.604487 0.018510 -0.573318 0.146061 -0.173551 0.138575 -0.094434 0.050954 -1.013783 -0.509330 0.584084 0.133189 0.002970 -0.055367 -0.019803 0.391751 0.822593 0.048671 -0.112926 -0.077513 0.578430 0.214224 -0.250309 -0.048813 0.006769 0.174736 1.004277 -0.045772 -0.169790 0.335941 0.247434 0.276014 -0.417163 -0.183447 0.269588 0.041278 -0.395651 -0.415432 0.260240 0.297367 0.159195 0.614473 -0.056839 -0.679482 0.288078 0.181633 0.377390 -0.232738 0.207829 -0.029668 -0.421506 -0.698063 -0.113114 0.284041 0.426779 -0.662668 -0.549602 -0.730679 0.493782 0.274499 -0.129862 0.027068 0.405953 -0.517098 0.095756 0.129276 -0.426550 -0.016949 -0.081932 0.255056 -0.334574 0.269050 0.012361 -0.143029 -0.302054 0.046676 -0.117303 -0.306367 0.326765 -0.094074 0.030534 -0.421315 0.001975 -0.117758 0.498280 -0.193557 -0.594872 0.036746 0.378057 -0.346341 0.186798 -0.167366 -0.460909 0.320772 -0.051095
218 0.325020 0.286398 0.548798 -0.243175 -1.063952 -0.189516 0.047914 -0.230438 0.201577 -0.245022 0.614065 0.152610 0.220935 0.569312 -0.094990 0.530722 0.566958 0.082024 0.461074 0.237964 -0.075170 -0.009673 -0.107581 -0.758239 -0.667458 -0.558915 0.264405 0.043008 0.071347 0.075654 -0.143439 -0.369478 0.680071 -0.546316 0.219780 -0.687675 -0.086287 -0.092867 -0.923360 -0.080816 0.237001 0.022860 -0.221138 -0.181651 0.523152 -0.459887 -0.425652 0.389843 0.160688 -0.322493 -0.143882 0.436112 -0.748692 0.702819 0.153409 0.378379 0.472080 0.403314 -0.190371 -0.141684 -0.023448 0.359236 0.228105 0.185078 -0.081720 -0.138242 0.524150 0.062566 -0.335078 -0.130017 0.295195 -0.480064 0.088679 -0.253032 0.641358 -0.189697 0.179599 0.508996 0.251143 -0.517314 -0.109612 -0.271491 0.063882 -0.382196 -0.327303 0.048632 0.083221 0.235891 -0.084581 -0.283633 -0.349726 0.017419 -0.091124 -0.473443 -0.106163 0.417578 -0.697280 0.002200 -0.661836 0.339375 -0.667665 -0.426411 0.360410 -0.592044 0.119221 0.049798 0.341443 0.725596 -0.223753 -0.227048 -0.117736 -0.250581 -0.105286 -0.272016 -0.247007 -0.327321 0.091844 0.480706 0.307256 -0.355388 0.915315 0.036726 -0.016350 0.049931 -0.482552 -0.152865 0.065016 0.347768
2006 0.594238 0.169390 -0.972060 0.140619 0.620407 -0.273343 0.300530 -0.097234 -0.148825 -0.323707 0.234298 0.455887 0.697166 0.309101 0.314767 -0.392450 -0.468521 -0.296745 0.140239 -0.543401 0.165729 0.131486 -0.287497 -0.172146 -0.507657 -0.070621 0.473050 -0.007247 -0.214549 -0.188421 -0.209212 0.144116 0.358676 -0.541636 -0.782247 -0.095721 0.051074 0.269992 0.009452 -0.125728 0.158703 0.353852 -0.286312 -0.175735 -0.001971 -0.545051 -0.201647 -0.146545 0.158277 -0.385682 -0.599665 0.085698 -0.335925 -0.427020 0.851245 -0.152789 -0.196917 -0.321991 -0.160802 0.223735 0.054272 -0.238343 -0.357028 0.298522 0.058498 -0.227529 0.578997 0.040843 -0.394786 -0.160496 -0.199367 -0.057165 -0.286003 0.115805 -0.192884 -0.610499 0.351977 0.833129 0.089042 0.293075 -0.576782 0.774656 0.201138 -0.630300 -0.628552 -0.112315 -0.355829 0.402663 0.563928 0.161456 0.105693 0.189334 -0.280429 -0.393718 -1.340133 0.051672 -0.094262 -0.291156 -0.867205 -0.736843 -0.517599 0.055987 -0.062767 -0.541849 -0.159561 -0.067501 0.146041 0.592412 0.042440 0.006858 0.187465 0.185719 -0.364738 0.287744 -0.397170 1.313836 0.145239 0.152582 -0.266998 0.528779 -0.073890 0.716369 -0.404410 0.377905 -0.462404 -0.485627 -0.723115 -0.246287
506 -0.076013 -0.329461 -0.305857 0.058709 0.251385 -0.609543 0.045226 0.925822 0.853624 -0.158317 0.932872 0.205501 0.433305 0.202219 0.148065 0.075455 -0.805065 -0.508836 0.723489 0.004018 0.047506 0.492949 0.022074 -0.293110 -0.772551 0.082142 0.149841 -0.287410 -0.590806 0.562414 0.321953 -0.440616 0.325598 0.125055 0.210243 -0.631695 -0.382311 -0.758404 -0.042843 0.120278 0.216086 0.424787 0.511973 -0.130141 -0.479591 -0.309008 0.028337 -0.064369 0.009210 0.463604 -0.305690 0.086619 0.503941 -0.470367 -0.065869 -0.333809 -0.635316 -0.247871 0.570417 0.178589 0.256573 -0.335405 0.141555 -0.044713 -0.545789 -0.268183 0.370824 -0.190658 -0.045924 -0.203504 0.838168 -0.278328 -0.581587 -0.073157 0.912385 0.005190 -0.130615 -0.234405 -0.134394 -0.212882 -0.115476 0.138011 0.171387 -0.016248 -0.323255 -0.381219 -0.302353 0.526786 -0.307819 0.110365 -0.359916 0.206001 -0.390000 -0.089175 -0.217441 0.736637 -0.703105 0.472664 0.075998 -0.242099 0.036378 -0.506247 0.618668 -0.216647 0.313207 -0.747723 -0.266717 0.306717 -0.247810 0.077494 -0.357113 -0.038423 -0.505957 0.139477 -0.044794 0.148689 1.182825 -0.228891 0.087842 -0.400808 0.270759 -0.222716 -0.213489 0.689599 -0.465671 -0.271506 -0.206591 0.232913
916 0.353553 -0.443155 0.267169 -0.488604 -0.226824 -0.849598 -0.434399 0.215926 -0.012810 -0.453944 0.492288 0.027643 0.214634 0.126943 -0.588522 0.441718 -0.146978 0.048214 0.317977 -0.510113 0.656552 -0.102546 -0.398464 -0.075062 -0.288655 -0.056057 -0.611246 -0.009131 -0.003063 0.047870 0.151307 -0.263162 -0.576451 -0.182457 0.379936 -0.535487 -0.011617 -0.410425 0.038931 -0.079900 -0.308302 -0.059384 -0.167121 -1.205868 0.051931 -0.040812 0.124193 -0.216866 0.132865 -0.376019 -0.728373 0.706776 0.026490 0.499621 -0.640882 0.152071 -0.635895 -0.985045 0.123285 0.605437 0.232273 0.038920 -0.204855 -0.624401 -0.138840 0.044682 0.341576 -0.229591 -0.030603 0.330054 0.352693 0.871908 -0.001151 0.121666 0.931863 -0.453340 0.092737 0.317345 0.072559 0.069917 -0.049010 0.395432 0.233956 -0.269518 0.025041 -0.521148 -0.407925 0.251013 0.471409 -0.031816 0.273731 0.569185 0.426137 0.361606 -0.688677 0.732576 -0.062523 -0.258274 -0.108767 -0.060542 -0.358078 0.299326 -0.356926 0.232259 0.772264 -0.587448 -0.131857 0.217970 -0.559574 -0.239535 -0.609551 -0.261924 -0.209916 0.036733 -0.194647 0.332456 -0.361305 0.259164 0.481970 -0.348143 0.969201 0.053408 -0.140829 0.196562 -0.420853 -0.259384 -0.321021 0.169798
57 0.204750 -0.527363 -0.355182 -0.519711 -0.275525 -0.055822 -0.402776 0.667831 0.235229 -0.063199 0.178806 -0.037303 0.277603 0.362376 -0.082288 -0.926957 -0.131507 -0.208166 0.126853 0.027829 -0.655011 0.385355 -0.312855 -0.563219 -0.596561 -0.505382 0.274929 0.014286 0.410982 -0.335899 0.722789 -0.244816 -0.965401 -0.033020 -0.356877 -0.275807 -0.391686 -0.505280 -0.273850 0.214439 0.105575 0.266685 0.000131 -0.092190 0.161644 0.379210 0.423713 -0.057537 -0.087687 -0.190429 -0.175355 -0.367358 -0.464461 0.137356 0.516454 -0.427479 -0.083961 -0.391385 -0.504135 0.323924 -0.791029 -0.089376 -0.394894 -0.148492 0.449801 0.629395 0.209798 -0.293321 -0.027247 -0.200351 0.124338 0.241554 0.208879 0.204360 -0.310480 -1.197874 0.220871 0.254930 -0.258911 0.230022 -0.012708 1.038179 -0.181326 -0.751236 -0.155589 -0.301182 -0.645549 0.271770 -0.740145 0.324636 -0.172040 0.534344 -0.534243 -0.130062 -0.385994 0.226768 0.040631 0.144799 -0.408901 -0.282381 -0.488812 -0.834435 -0.189762 -0.342027 0.116981 1.334449 -0.062091 0.266886 -0.084161 -0.256284 0.554695 0.104753 -0.496553 -0.243391 0.067995 0.502603 0.860927 -0.115690 0.808629 -0.333687 1.141144 0.684245 -0.104657 0.614368 0.102703 0.038988 -0.377971 -0.318571
410 0.173788 -0.082763 0.770201 -0.438239 -0.005715 -0.505953 -0.178534 1.078311 0.316626 -0.386406 0.197024 1.394682 0.492601 -0.265857 0.165458 0.347709 -0.427596 -0.970742 -0.092732 0.368926 -0.226235 0.551257 -0.002406 -0.786892 -0.488646 -0.458576 0.172637 -0.450154 0.182376 0.358803 0.485160 -0.619982 -0.762234 0.283258 -0.462383 -0.252505 -0.411805 -0.171983 0.250399 0.247933 0.186536 0.348117 -0.150611 -0.315605 -0.353184 0.074662 -0.027069 -0.257233 0.657975 0.400567 -0.793737 0.677694 -0.235681 -0.022596 0.194829 -0.951380 -0.563746 0.033106 0.196106 0.121489 -0.402345 0.097099 -0.002163 0.074369 -0.940344 -0.359871 0.363051 -0.404690 -0.394823 -0.147421 -0.766920 0.111826 -0.323956 0.204393 -0.151743 0.007988 -0.242961 0.187547 -0.126320 -0.183708 0.298808 0.507318 0.122181 -0.886437 1.130164 -0.131241 0.116584 0.393279 -0.314710 0.216835 -0.102889 0.450539 -0.065682 0.042416 0.336548 0.031142 -0.190750 0.381599 -0.229974 -0.695239 0.122704 0.342847 0.061354 0.177509 0.186399 -0.358815 0.169012 0.134561 0.549719 0.291669 -0.770352 -0.853642 -0.501211 0.067133 -0.297822 0.052410 0.299659 0.188829 1.137550 -0.544223 0.300268 -0.176982 -0.191657 0.143279 -0.773368 0.292274 -0.234409 0.538607
1599 0.732708 0.105808 0.519886 -0.212413 0.238997 0.085560 -0.766702 0.026573 0.285483 -0.929283 0.281340 -0.586842 -0.117005 -0.005188 -0.111718 0.033062 -0.048140 -0.903028 0.786354 0.214082 -0.617796 0.003492 0.138486 -0.331312 -1.214361 -0.127260 0.236231 1.016877 0.559267 0.486713 0.511137 0.200907 -0.434397 -0.551125 0.123631 -1.584498 -0.071357 -0.025994 -0.461292 -0.505780 -0.038822 0.061343 -0.556922 -0.385121 0.041448 0.056169 0.230952 0.117630 -0.474829 0.186923 -0.347133 -0.181460 0.187020 0.379225 0.305885 -0.645387 -0.330252 -0.598749 0.134381 0.517615 -0.071066 0.169010 -0.136860 0.318542 0.130188 -0.029705 0.600250 0.336770 -0.233578 -0.097048 -0.230403 0.131099 -1.075274 0.732913 -0.102818 -0.824027 0.488473 0.173323 0.393200 -0.626376 0.000208 0.573767 -0.344068 -0.964520 -0.662783 -0.263190 -0.391445 0.159943 -0.193268 0.946902 -0.547596 0.899963 0.043415 0.180662 0.012595 -0.028169 -0.152079 -0.183747 -0.688349 -0.725778 -0.068205 -0.221952 -0.011390 -0.272092 -0.819149 -0.371980 0.034676 0.426584 -0.582573 0.485029 0.314285 0.692667 -0.469268 -0.694580 -0.018248 0.509007 0.368486 0.237295 0.118873 0.024663 0.421125 0.177928 -0.102238 -0.263639 -0.473673 -0.328652 -1.005069 0.805424
429 -0.077526 0.000991 -0.179580 0.026690 -0.266574 -0.460896 0.049518 -0.184350 -0.087468 -0.647140 0.447752 -0.011421 0.028479 0.231803 0.086012 0.507313 -0.343688 -0.476532 0.172270 0.565068 -0.312058 0.009162 0.288539 -0.277678 -0.647253 -0.564610 0.515360 -0.271365 0.356622 -0.227845 -0.097004 -0.691154 0.593031 -0.267030 0.118446 -0.007733 -0.378681 0.158084 -1.002598 0.416878 -0.070478 -0.644226 -0.443965 -0.423149 0.388644 0.708763 0.346006 0.347652 1.507284 0.297615 -0.761438 0.325884 -0.543818 -0.014162 0.459454 0.280889 -0.426244 -0.165247 -0.117234 -0.334090 -0.033225 -0.260859 0.468999 0.105643 0.055004 -0.761185 -0.006295 -0.222784 -0.044420 0.519259 0.239370 -0.268493 0.138141 -0.493778 0.045573 -0.615921 0.476617 -0.182162 -0.164223 -0.392531 0.196575 -0.603227 0.757837 -0.312822 -0.644455 -0.185805 -0.414607 -0.139320 0.262167 0.202836 0.353150 0.192803 -0.290005 -0.165536 -0.542130 -0.298670 -0.776979 0.069681 -0.452317 -0.162231 -0.143615 -0.571114 0.412942 0.033951 0.493423 0.309591 0.063828 -0.066967 -0.179426 -0.174141 0.284438 0.048000 0.013370 -0.005284 0.112520 0.139871 -0.292079 0.411331 0.361354 -0.273095 -0.000908 0.091024 0.066124 -0.422233 -0.017519 -0.255139 -0.203383 -0.477242
40 0.359668 -0.191220 -0.041817 -0.094019 0.097547 -0.262278 0.335353 0.904801 0.169490 -0.058385 0.126693 0.702473 0.230444 -0.152815 0.479159 -0.162544 -0.629196 -0.262584 -0.059109 0.405379 0.395121 0.942674 0.059582 -0.547284 -0.687516 -0.670732 -0.023972 -0.292734 0.277098 0.713343 0.631183 -0.057922 -0.351310 0.240341 -0.675767 -0.336958 -0.257747 -0.014283 -0.064469 -0.354001 -0.191680 0.849233 0.263395 -0.407826 -0.013874 0.137437 -0.144414 0.022383 0.423144 0.152202 -0.699187 0.146832 -0.033268 -0.300203 0.045735 -0.629561 -0.561547 0.301040 0.484885 -0.358954 -0.148350 -0.205336 -0.243959 -0.297115 -0.521023 -0.445602 -0.113770 -0.223369 -0.414072 -0.079809 0.474882 0.701341 -0.425784 0.084621 -0.057810 0.461813 0.097884 -0.080688 -0.382367 0.082853 0.303330 0.829534 0.255139 -0.026338 0.255079 -0.162177 -0.257969 0.738353 0.091009 0.019029 -0.390341 0.473853 0.104432 -0.037117 0.140584 0.048183 -0.083293 0.003710 -0.377739 -0.280677 -0.068556 0.024117 0.126604 0.183244 0.561772 -0.526353 -0.108232 0.398780 -0.331008 -0.472726 -0.505263 -0.138659 0.089199 0.009391 0.174906 -0.510294 0.378915 -0.204233 0.130659 -0.548444 0.293617 0.569559 -0.095805 0.423807 -0.339467 0.482720 0.087750 0.246070
2137 0.124616 -0.861936 0.463089 0.095591 0.141399 -0.515462 0.455244 0.503003 0.041412 -0.384484 2.081622 -0.010329 -0.023899 -0.502291 0.750149 0.586268 -0.963007 -0.781142 0.421077 -0.272571 -0.106412 0.093964 0.061779 -0.220695 -1.094583 -0.139376 -0.169592 0.589495 0.246313 -0.648549 0.129895 -1.197000 0.534902 0.007400 0.025352 0.212047 0.223651 -1.260900 -0.153981 -0.062357 0.743918 -1.176203 -0.133317 -0.223665 0.219161 0.093966 0.329556 0.175263 0.499231 0.333911 -1.076327 0.193201 0.081591 0.441596 -0.156912 -0.239194 -0.089615 0.568517 0.585006 0.761533 0.174036 0.806276 1.312008 -0.168757 -0.139878 -0.500902 0.853264 0.821301 -0.538038 -0.236493 0.008373 0.939530 -1.159815 -0.799150 0.127720 -0.177664 0.009264 0.010615 0.616696 0.320925 -0.938545 0.801306 0.079581 -0.310836 -0.139029 0.339441 -0.738136 -0.013732 -0.241576 0.143202 -0.146747 0.627109 0.087734 0.426424 -0.306511 0.281390 0.516929 0.270472 -0.627740 -0.169287 -0.557545 -1.219117 -0.050676 0.256556 0.388551 -0.300197 0.315571 0.628635 -0.345667 0.152586 0.255342 -0.173993 0.305448 -0.539503 -0.062319 0.357733 -0.228814 0.560057 0.228249 0.008050 0.503898 0.318835 -0.090315 0.841679 -0.233623 -0.107891 0.729505 -0.413950
855 -0.077863 0.518574 0.465117 0.207130 -0.139202 -0.293551 0.035025 0.551645 -0.165265 0.041304 -0.363616 -0.001677 0.575085 -0.039925 0.017390 -0.079927 -1.342793 0.277993 -0.054275 -0.892524 -0.523400 1.011921 -0.629454 0.219455 -1.507023 -0.357446 0.462235 0.216019 -0.195258 -0.017424 0.458359 -0.478306 0.092858 0.130695 0.166762 -0.528711 0.011365 -0.555960 -0.398841 -0.397126 0.658179 -0.002994 0.214290 -0.300515 0.297941 0.551915 0.908618 0.610964 -0.004504 0.675695 0.095700 0.285037 0.073951 -0.029245 0.726073 -0.040377 -0.648878 0.029458 -0.287945 -0.149419 -0.326325 0.485085 0.154400 -0.133534 -0.152475 0.200117 0.519332 -0.121587 0.206646 -0.292317 -0.494170 0.459689 0.001413 0.509509 0.091759 -0.399076 -0.109145 -0.318988 -0.366789 -0.078355 0.300194 0.754990 -0.661051 -0.604219 -0.171636 -0.060291 -0.611566 -0.192447 0.276331 0.390463 0.002016 0.189614 0.475034 0.351152 -0.079585 0.557710 -0.350409 0.322205 -0.204575 -0.655043 -0.091485 -0.002076 -0.065485 -0.183676 0.129243 -0.067194 0.188796 -0.297575 -0.200426 -0.428551 0.040386 -0.115115 0.198441 0.534271 0.111786 -0.008893 0.498970 -0.115943 0.596031 -0.588022 0.514139 -0.093481 -0.030767 0.633588 -0.354219 -0.021469 0.192165 -0.078761
1787 -0.767406 0.236874 0.849269 -0.550247 -0.005953 -0.743543 1.146862 -0.146359 0.126517 0.032715 0.103440 -0.575101 0.341517 -0.101236 0.478438 0.534208 -0.502508 -0.069892 0.473409 0.079236 -0.785993 -0.290568 0.570440 -0.517450 -1.106811 -0.217208 0.680546 -0.374618 0.706649 -0.670705 0.035711 -0.784071 0.512844 -0.480395 -0.551468 0.031086 -0.066955 0.236281 -0.223137 0.487449 0.524784 -0.252170 -0.631496 -0.389591 0.490802 0.703824 0.107519 0.311719 0.450155 0.761765 -0.212300 0.011877 -0.194649 0.901087 0.377044 -0.993641 -0.682517 -0.427807 -0.303446 0.615394 -0.174348 0.482964 0.381390 -0.092323 -0.520788 0.860023 1.214609 0.380085 -0.016444 -0.415415 0.497993 0.406185 0.137539 -0.410633 -0.732648 0.270819 0.374395 0.466297 -0.310869 0.361371 0.496523 -0.142211 -0.513872 -0.776213 -0.466125 -0.622521 -0.755043 0.414944 0.161160 -0.222980 0.364654 0.581002 0.864433 -0.469870 -0.414604 0.234716 0.255033 -0.391737 -0.753999 -0.481356 -0.294423 -0.662000 0.233321 -0.103943 0.800874 0.571667 -0.135698 -0.076623 -0.383424 0.420931 -0.051171 -0.187293 -0.094909 -0.151970 -0.428760 0.455798 0.009386 0.181750 0.811411 -0.161606 0.117704 0.274095 0.636052 0.157655 -0.219023 -0.314528 -0.002019 0.068705
810 -0.167087 0.497792 0.224158 -0.359193 0.133573 -0.191452 0.342744 0.733416 0.052051 0.691102 0.810257 0.386930 -0.279029 -0.481798 1.255428 -0.433176 0.550455 0.033022 0.338529 -0.043248 -0.102457 0.513434 0.475836 0.191777 -0.649721 0.189900 -0.345677 -0.173410 0.159953 -0.252601 -0.248263 -0.080205 0.112984 -0.463393 -0.299667 -0.819803 0.164428 -0.304250 -0.983571 0.262840 0.029030 0.207999 0.353308 -0.352426 0.060566 -0.288529 0.159518 0.304291 0.319542 0.509746 -0.642194 -0.330923 -0.268029 -0.441237 -0.533748 -0.455815 -0.709693 0.245941 -0.282201 0.015907 0.377682 -0.685211 0.245168 -0.446082 -0.022019 -0.281309 0.064253 -0.186910 0.199293 0.394986 -0.111182 0.918576 -0.330795 -0.032979 0.415170 0.063638 0.230139 -0.248006 0.230099 0.737144 0.648741 0.630936 0.612695 -0.851828 0.114897 0.017228 0.056775 0.406878 0.218161 0.324034 -0.640716 0.637491 0.457254 -0.125474 -0.086438 0.366568 0.229157 0.277542 -0.118646 0.101342 -0.917172 0.017453 -0.644351 0.155063 -0.383479 -0.179457 -0.210643 -0.058243 -0.877293 0.072590 0.205802 -0.240538 -0.115185 -1.036349 -0.499509 -0.004428 0.492853 -0.471089 -0.112843 -0.591336 0.162946 1.020768 -0.071943 0.124527 0.154428 -0.262818 -0.527541 -0.743314
1223 -1.220628 -0.274508 0.107398 0.357477 0.339422 -0.245311 0.364771 1.043846 0.244229 -0.168462 0.027506 0.825320 0.468400 0.500400 0.594202 0.130729 0.205549 -0.014888 -0.559554 -0.197719 -0.537415 0.558720 0.047180 -0.401603 -0.848516 -0.356155 0.137381 0.359757 0.069831 -0.298490 -0.921348 -0.214382 -0.149428 -0.666963 -0.189520 -0.666435 -0.827709 -0.323663 -0.543328 -0.060524 0.245591 0.283330 0.149463 0.459261 0.403642 0.259274 0.003421 -0.049954 0.486687 0.338258 -1.299911 -0.380930 -0.986401 0.774952 0.913815 -0.442140 0.357222 0.479379 0.534861 0.372169 -0.350542 0.469142 0.718081 -0.084845 0.691104 0.047729 1.017354 -1.013504 -0.371036 0.146337 0.202882 -0.403456 -0.241983 0.507702 0.030648 0.212364 0.221349 0.360934 0.242976 -0.270542 -0.561105 -0.085148 0.236194 -0.083877 -0.371564 -0.016038 -0.255660 0.431143 -0.118971 0.057760 -0.492303 0.954249 0.349560 0.035124 -0.741363 -0.005678 0.459054 0.052366 0.155325 0.471812 -1.055301 -0.888778 -0.873667 -1.211197 0.223319 -0.215457 -0.471007 0.109008 -0.096302 0.336542 0.069593 -0.193770 -1.146941 -0.579197 0.433977 0.137774 -0.147322 0.256158 -0.070454 -0.060873 0.792513 0.542024 0.238366 -0.138421 -0.223534 0.255587 -0.245359 -0.224918
